{"nets":[{"layers":[{"out_depth":5,"out_sx":1,"out_sy":1,"layer_type":"input"},{"out_depth":9,"out_sx":1,"out_sy":1,"layer_type":"fc","num_inputs":5,"l1_decay_mul":0,"l2_decay_mul":1,"filters":[{"sx":1,"sy":1,"depth":5,"w":{"0":1.6740932424122208,"1":0.32836883066160977,"2":0.6714492929732478,"3":1.4648603507429128,"4":4.590754048021917}},{"sx":1,"sy":1,"depth":5,"w":{"0":-5.817499095984695e-8,"1":-1.154367950154151e-11,"2":-8.475428893905676e-19,"3":-4.1745027867247815e-10,"4":-0.00007020893305234283}},{"sx":1,"sy":1,"depth":5,"w":{"0":1.4404468070966436,"1":0.2666346437125577,"2":0.6186905512561235,"3":1.281709709000491,"4":3.967083867667073}},{"sx":1,"sy":1,"depth":5,"w":{"0":1.784207209282158,"1":0.41147310521273905,"2":0.7708105870606251,"3":1.6178191870000844,"4":4.413327761092181}},{"sx":1,"sy":1,"depth":5,"w":{"0":-0.06777866606083251,"1":0.0020762796406074116,"2":0.0021688608619431526,"3":-0.01965388844196556,"4":0.02596358238728446}},{"sx":1,"sy":1,"depth":5,"w":{"0":1.7693267337441048,"1":0.37399865471151267,"2":0.752294511708014,"3":1.57465553713728,"4":4.743617811960963}},{"sx":1,"sy":1,"depth":5,"w":{"0":1.9283535618061103,"1":0.4017496870580963,"2":0.8122112331891364,"3":1.6301581075558558,"4":4.446509120482623}},{"sx":1,"sy":1,"depth":5,"w":{"0":0.0003243851373939953,"1":-6.893522378709331e-13,"2":8.429255150154979e-10,"3":-0.00001945982130885596,"4":-0.06602499502489505}},{"sx":1,"sy":1,"depth":5,"w":{"0":1.51375628432368,"1":0.3031242197495297,"2":0.6453823944047957,"3":1.332915267793925,"4":3.9984968691522185}}],"biases":{"sx":1,"sy":1,"depth":9,"w":{"0":5.215193187636436,"1":-0.06330962311900899,"2":4.812932968623425,"3":5.355071745409073,"4":-0.860419577798508,"5":4.3962513038518,"6":4.0040854695929795,"7":-0.16365251745270212,"8":4.061007644289099}}},{"out_depth":9,"out_sx":1,"out_sy":1,"layer_type":"relu"},{"out_depth":9,"out_sx":1,"out_sy":1,"layer_type":"dropout","drop_prob":0.9697768432254197},{"out_depth":1460,"out_sx":1,"out_sy":1,"layer_type":"fc","num_inputs":9,"l1_decay_mul":0,"l2_decay_mul":1,"filters":[{"sx":1,"sy":1,"depth":9,"w":{"0":-0.34514443524547156,"1":-4.569563874823119e-25,"2":-0.2785620646802189,"3":-0.3548117446870891,"4":-0.004852972739219428,"5":-0.3654649256730188,"6":-0.3580238873471957,"7":-3.313555768993144e-78,"8":-0.29514541803616046}},{"sx":1,"sy":1,"depth":9,"w":{"0":-0.34275731183952063,"1":-2.9878914138278097e-295,"2":-0.27602331451035544,"3":-0.3624218541234525,"4":-0.0039555128802178045,"5":-0.3524172708665087,"6":-0.3629391950936824,"7":-1.812621101826627e-43,"8":-0.29494238786962196}},{"sx":1,"sy":1,"depth":9,"w":{"0":-0.34854841734416614,"1":-1.2237411675641457e-289,"2":-0.2770712794947532,"3":-0.35268400764958846,"4":-0.003562782104889392,"5":-0.3849465097713926,"6":-0.3514671699631096,"7":-1.6148707758736725e-77,"8":-0.29543672571633306}},{"sx":1,"sy":1,"depth":9,"w":{"0":-0.3741569146494225,"1":-5e-324,"2":-0.3295983701609145,"3":-0.35021275604541113,"4":-0.005367044301024682,"5":-0.3599297557421179,"6":-0.356652979525111,"7":-2.382724760974749e-167,"8":-0.30550338021029055}},{"sx":1,"sy":1,"depth":9,"w":{"0":-0.34716534816611716,"1":-1e-323,"2":-0.3017688774855654,"3":-0.35333720110724687,"4":-0.00407012402694271,"5":-0.3652473677025994,"6":-0.3487052973671319,"7":-5.722313987209911e-144,"8":-0.29566824284134197}},{"sx":1,"sy":1,"depth":9,"w":{"0":-0.34391629739631296,"1":-1.1642009711032112e-265,"2":-0.32394233351563084,"3":-0.3523555519674091,"4":-0.0048556361589906115,"5":-0.35906354674544594,"6":-0.39281934475135527,"7":3.654250892497685e-288,"8":-0.32623303050643576}},{"sx":1,"sy":1,"depth":9,"w":{"0":-0.343176612605238,"1":-2.1297361122297583e-23,"2":-0.3029666947283715,"3":-0.3591042700651472,"4":-0.00808592904917454,"5":-0.35249728536074976,"6":-0.34890103447598675,"7":6.6971425515782695e-28,"8":-0.2954642067833301}},{"sx":1,"sy":1,"depth":9,"w":{"0":-0.35181759045744604,"1":-1.3054506327043144e-224,"2":-0.31749515154871283,"3":-0.35720979568304534,"4":-0.004163869486185102,"5":-0.3592766424703835,"6":-0.3796406997066384,"7":6.312356581038439e-289,"8":-0.2950474323363404}},{"sx":1,"sy":1,"depth":9,"w":{"0":-0.4185876741786888,"1":-2.8165354855087745e-96,"2":-0.2812090391152783,"3":-0.4171173875729206,"4":-0.003498439596751395,"5":-0.42330816825551254,"6":-0.42189720983930173,"7":-2.225651331312491e-98,"8":-0.2946483604667605}},{"sx":1,"sy":1,"depth":9,"w":{"0":-0.3804603770145683,"1":-4.814706280747966e-233,"2":-0.2861360991710915,"3":-0.3612247564455595,"4":-0.0032539544718197455,"5":-0.35673251032709224,"6":-0.36999114906514335,"7":1.3882648901895523e-275,"8":-0.2999698740068119}},{"sx":1,"sy":1,"depth":9,"w":{"0":-0.3426887181211117,"1":5e-324,"2":-0.2765322128424161,"3":-0.35128449143931845,"4":-0.006419877290415797,"5":-0.3750804399483815,"6":-0.3497410194874397,"7":-1.3974049807596887e-20,"8":-0.31002734303870744}},{"sx":1,"sy":1,"depth":9,"w":{"0":-0.34384492422073815,"1":-1.200182714099834e-45,"2":-0.33428792809860014,"3":-0.4093337978853019,"4":-0.004187565185058575,"5":-0.35393063593147545,"6":-0.36096387558641296,"7":-7.667633480524698e-78,"8":-0.3054278129186311}},{"sx":1,"sy":1,"depth":9,"w":{"0":-0.350554508789028,"1":-4.947293908293387e-249,"2":-0.2962996271626805,"3":-0.3776186018677585,"4":-0.003521563758540994,"5":-0.38612033165960324,"6":-0.3660261908267702,"7":1.454858314820214e-309,"8":-0.2975892498697391}},{"sx":1,"sy":1,"depth":9,"w":{"0":-0.35848255339283086,"1":-6.794687606933325e-30,"2":-0.2862250804490389,"3":-0.37203544647903664,"4":-0.003596148972723809,"5":-0.3565210240617199,"6":-0.35216576282474216,"7":-3.3719197601867916e-31,"8":-0.29516102966864677}},{"sx":1,"sy":1,"depth":9,"w":{"0":-0.34360507449139654,"1":-2.4462813190335794e-84,"2":-0.28325669245216367,"3":-0.3501749965347036,"4":-0.0038965932033313572,"5":-0.37222971265300087,"6":-0.34949178386439633,"7":-4.359905346497187e-248,"8":-0.2965663729294448}},{"sx":1,"sy":1,"depth":9,"w":{"0":-0.3420351606279602,"1":-4.015008694829423e-233,"2":-0.32102758382409846,"3":-0.35101555297156245,"4":-0.003663101164174178,"5":-0.38953769024154505,"6":-0.3503469349276077,"7":2.3459391829141656e-295,"8":-0.2947420210285706}},{"sx":1,"sy":1,"depth":9,"w":{"0":-0.34267747376022767,"1":-1e-323,"2":-0.27668674842604146,"3":-0.3548878607884739,"4":-0.00286620064234521,"5":-0.3631688092602956,"6":-0.36057427770229217,"7":3.797501344738938e-291,"8":-0.2955982658793596}},{"sx":1,"sy":1,"depth":9,"w":{"0":-0.3524533294285464,"1":-5.85342450925508e-74,"2":-0.2962012117209332,"3":-0.36194945053457467,"4":-0.003619617064738618,"5":-0.3542407970133922,"6":-0.3507614152265785,"7":-1e-323,"8":-0.30423714348782965}},{"sx":1,"sy":1,"depth":9,"w":{"0":-0.34360807138233496,"1":-2.2319812545654293e-219,"2":-0.2867728945053903,"3":-0.37503892869856165,"4":-0.006063724112323164,"5":-0.4254669721189218,"6":-0.37409318918265216,"7":-2.5e-323,"8":-0.30777489260082164}},{"sx":1,"sy":1,"depth":9,"w":{"0":-0.3441600434018892,"1":-5.413806772933909e-18,"2":-0.28391498958911576,"3":-0.3514563681169358,"4":-0.005023341231359007,"5":-0.3549248719314692,"6":-0.34955782663862733,"7":-1.7094658433939997e-62,"8":-0.29475504289944876}},{"sx":1,"sy":1,"depth":9,"w":{"0":-0.3664043326680369,"1":-1.5526961054821247e-234,"2":-0.27678833918194695,"3":-0.3503367843376299,"4":-0.0035778414618116306,"5":-0.3606769071182415,"6":-0.3486539310818208,"7":-3.5473759876258177e-85,"8":-0.2993236639098256}},{"sx":1,"sy":1,"depth":9,"w":{"0":-0.3569072258548453,"1":5e-324,"2":-0.27645820619563055,"3":-0.3864610221822124,"4":-0.012913568211185729,"5":-0.35253072871047886,"6":-0.38059279013655645,"7":-9.402148055954001e-88,"8":-0.29797822565151033}},{"sx":1,"sy":1,"depth":9,"w":{"0":-0.360065688491498,"1":-8.84745272003199e-132,"2":-0.28884621870575816,"3":-0.3749991845942604,"4":-0.004839574404356488,"5":-0.35466445531662266,"6":-0.37972404512172653,"7":-4.2694977219669256e-131,"8":-0.29526399343785326}},{"sx":1,"sy":1,"depth":9,"w":{"0":-0.3440027273323938,"1":-1.9245869025397344e-77,"2":-0.2768220229312343,"3":-0.35302116099203473,"4":-0.004026404865713954,"5":-0.35789146853184206,"6":-0.34857181500246764,"7":-2.0507679301023496e-43,"8":-0.2951286731853017}},{"sx":1,"sy":1,"depth":9,"w":{"0":-0.34990895471796774,"1":-1.8569739343567956e-232,"2":-0.28324213364770673,"3":-0.38988173788432456,"4":-0.005418803660798766,"5":-0.43226795280690583,"6":-0.35279700068275316,"7":-3.0546457849166815e-68,"8":-0.2949131143967965}},{"sx":1,"sy":1,"depth":9,"w":{"0":-0.34251315296781826,"1":-8.477707765599861e-94,"2":-0.32692717039002195,"3":-0.35079635038907114,"4":-0.004781118793549544,"5":-0.35235366689889996,"6":-0.37299383101686145,"7":-3.2241183137848167e-46,"8":-0.295336812068432}},{"sx":1,"sy":1,"depth":9,"w":{"0":-0.34380675492426027,"1":-1.0180136186808235e-238,"2":-0.28166380341961667,"3":-0.3527774128605094,"4":-0.004712943472710887,"5":-0.3828869024877279,"6":-0.3483754657443131,"7":-2.339564288012195e-241,"8":-0.29547059131173814}},{"sx":1,"sy":1,"depth":9,"w":{"0":-0.34786638415786375,"1":-9.193649108788295e-28,"2":-0.28504885057220614,"3":-0.35086300533140935,"4":-0.005376889221279915,"5":-0.3888979517135477,"6":-0.355730054360202,"7":-2.0985265224128204e-63,"8":-0.2988977069888035}},{"sx":1,"sy":1,"depth":9,"w":{"0":-0.3599049211037542,"1":-1.381768471882958e-96,"2":-0.27736671364042137,"3":-0.35055347125730835,"4":-0.0037155294131882826,"5":-0.3523546704965239,"6":-0.350885056118897,"7":-1.0840770398320133e-77,"8":-0.33862841338090527}},{"sx":1,"sy":1,"depth":9,"w":{"0":-0.3732959537097398,"1":-1.0848554599012309e-204,"2":-0.28451688459721663,"3":-0.3508050264745142,"4":-0.0036808108179679526,"5":-0.3622561114542121,"6":-0.3484090635544632,"7":-1.0890481380296334e-54,"8":-0.29502310731039366}},{"sx":1,"sy":1,"depth":9,"w":{"0":-0.3539512120364946,"1":-4.6995454191547153e-240,"2":-0.2765159952167751,"3":-0.3510077577850258,"4":-0.004287790146299764,"5":-0.35256701873674123,"6":-0.35791492134563496,"7":2.340913419555709e-21,"8":-0.2951329701589025}},{"sx":1,"sy":1,"depth":9,"w":{"0":-0.3999142710683706,"1":-1.0429470422231679e-237,"2":-0.2887000579202498,"3":-0.35414295959910186,"4":-0.00512989194601122,"5":-0.3531187927696984,"6":-0.3532382425733689,"7":-6.367436398191414e-69,"8":-0.299416842744363}},{"sx":1,"sy":1,"depth":9,"w":{"0":-0.342150138306649,"1":-1.1191383761669652e-219,"2":-0.32719074943221227,"3":-0.4148924893688275,"4":-0.016459504994305797,"5":-0.38548287965953104,"6":-0.36206722170230937,"7":-1.9339382855567644e-62,"8":-0.29470045851848137}},{"sx":1,"sy":1,"depth":9,"w":{"0":-0.3424737263733837,"1":-3.876322909043886e-46,"2":-0.2958397389514418,"3":-0.35207712892361065,"4":-0.004225512448156965,"5":-0.38666349630836144,"6":-0.35002988472172886,"7":-2.7688435833734637e-57,"8":-0.3415356761555626}},{"sx":1,"sy":1,"depth":9,"w":{"0":-0.34241885903141084,"1":-3.1338815827819696e-71,"2":-0.30654481751953133,"3":-0.3813607798966926,"4":-0.0027588661334589843,"5":-0.3750871713524734,"6":-0.4351999739921871,"7":-1.023495444557756e-9,"8":-0.34209682816116804}},{"sx":1,"sy":1,"depth":9,"w":{"0":-0.3560492990234314,"1":-3.4629776456369633e-217,"2":-0.28995679651008466,"3":-0.35490790975156533,"4":-0.006147833463306827,"5":-0.3530442592857632,"6":-0.36396904735299646,"7":-2.4759003387112177e-181,"8":-0.29528072275008754}},{"sx":1,"sy":1,"depth":9,"w":{"0":-0.3423946928021627,"1":-8.859643897600975e-67,"2":-0.2842409958393039,"3":-0.3513532929824074,"4":-0.0035863747403042548,"5":-0.35235559321918053,"6":-0.3876449197673437,"7":-2.6154974623711736e-307,"8":-0.30131063952387316}},{"sx":1,"sy":1,"depth":9,"w":{"0":-0.34312931097637395,"1":-1.6650009604402525e-93,"2":-0.276084453862311,"3":-0.3527570551127876,"4":-0.003456435678932459,"5":-0.35933444838583717,"6":-0.35575685565791165,"7":2.1329509167653625e-274,"8":-0.3056955869081946}},{"sx":1,"sy":1,"depth":9,"w":{"0":-0.3425853886389658,"1":-1.983474147385181e-46,"2":-0.33584455181069267,"3":-0.35136344709998385,"4":-0.0030706925685428663,"5":-0.35244389016891886,"6":-0.35460216267348976,"7":4.396054679226832e-288,"8":-0.3079703313700806}},{"sx":1,"sy":1,"depth":9,"w":{"0":-0.3442743241511362,"1":-1.9225815343364395e-42,"2":-0.31381034271739655,"3":-0.3602153832242222,"4":-0.0037348809230938924,"5":-0.3538359724244835,"6":-0.3484546794791113,"7":-6.887626504107026e-40,"8":-0.29467600500210467}},{"sx":1,"sy":1,"depth":9,"w":{"0":-0.34254031171112664,"1":-8.855450619497724e-23,"2":-0.34470641162278637,"3":-0.3510931203234621,"4":-0.005497563250914042,"5":-0.3537879579429199,"6":-0.36715207783872317,"7":-1.5e-323,"8":-0.2988553285876577}},{"sx":1,"sy":1,"depth":9,"w":{"0":-0.3440456223915177,"1":-4.275086856854861e-34,"2":-0.3166795587337107,"3":-0.3516955431860243,"4":-0.005135256104344373,"5":-0.3555521440147374,"6":-0.3518769407523359,"7":1.0510625889847272e-277,"8":-0.297621920300147}},{"sx":1,"sy":1,"depth":9,"w":{"0":-0.3551305223813414,"1":-2.549465852650058e-53,"2":-0.27617942708560467,"3":-0.36463035432339697,"4":-0.004276503013291168,"5":-0.35226562168859044,"6":-0.3515067167644902,"7":-8.377430032906807e-46,"8":-0.2967074150967211}},{"sx":1,"sy":1,"depth":9,"w":{"0":-0.3426436891706752,"1":-1.8911483267061424e-219,"2":-0.3008376727731337,"3":-0.35075773640465385,"4":-0.0036174970613285294,"5":-0.3551543033569989,"6":-0.3536031436543296,"7":-2.046972117060016e-115,"8":-0.29497462712279987}},{"sx":1,"sy":1,"depth":9,"w":{"0":-0.34247788363715687,"1":-2.8405640884868296e-77,"2":-0.28663067241581014,"3":-0.35019111566922684,"4":-0.005565649221036037,"5":-0.35249825150632746,"6":-0.34904630104366724,"7":-2.7431690747139863e-244,"8":-0.30275609222168137}},{"sx":1,"sy":1,"depth":9,"w":{"0":-0.3638447883510784,"1":0,"2":-0.28132487431080383,"3":-0.39894064699623033,"4":-0.004129255112889774,"5":-0.35279790666160826,"6":-0.34868329581205043,"7":-6.609888123653954e-175,"8":-0.3043608158236027}},{"sx":1,"sy":1,"depth":9,"w":{"0":-0.3438166707645644,"1":-4.823355459530065e-44,"2":-0.298095565199473,"3":-0.3502817552588586,"4":-0.006011247443989115,"5":-0.37319518134390484,"6":-0.3627845901290455,"7":-9.282746769185223e-194,"8":-0.3003557890441822}},{"sx":1,"sy":1,"depth":9,"w":{"0":-0.34233875035592887,"1":-1.4144666146858307e-31,"2":-0.27690492691135926,"3":-0.39523543798159094,"4":-0.004669735155987965,"5":-0.35259806435261776,"6":-0.36655896572718333,"7":2.5998838547824986e-17,"8":-0.29487886203027885}},{"sx":1,"sy":1,"depth":9,"w":{"0":-0.43131097579665256,"1":-1.5231003109494026e-97,"2":-0.36236834286239233,"3":-0.3604262925877953,"4":-0.003667340887230186,"5":-0.35252758705279025,"6":-0.34958357703715576,"7":-3.819529287466503e-90,"8":-0.2987973867646089}},{"sx":1,"sy":1,"depth":9,"w":{"0":-0.348957050181027,"1":-3.3063887047291585e-40,"2":-0.32091347786988655,"3":-0.35930789841540034,"4":-0.002689329508115058,"5":-0.3533638315182676,"6":-0.36124915684540754,"7":-5.147816014363116e-90,"8":-0.3149399118820843}},{"sx":1,"sy":1,"depth":9,"w":{"0":-0.35182717099898325,"1":-3.8775761032188547e-90,"2":-0.2767484780502644,"3":-0.3506316400105656,"4":-0.003293117672302007,"5":-0.38755249432894395,"6":-0.3731725474057853,"7":-3e-323,"8":-0.29485047740122455}},{"sx":1,"sy":1,"depth":9,"w":{"0":-0.3423191068794246,"1":-4.66534291027695e-41,"2":-0.27862753529724293,"3":-0.35121502096010854,"4":-0.003933646702758951,"5":-0.41137985867476246,"6":-0.4286639921024774,"7":-1.2672530661863949e-117,"8":-0.2944609336801501}},{"sx":1,"sy":1,"depth":9,"w":{"0":-0.34275822066005474,"1":-1.1293528199911795e-76,"2":-0.31580965967321023,"3":-0.3920763865188061,"4":-0.009358692896513105,"5":-0.35572966296420827,"6":-0.3493653158405615,"7":-1.19428042076231e-309,"8":-0.29537027078406597}},{"sx":1,"sy":1,"depth":9,"w":{"0":-0.34433129571664084,"1":-1.4960324571191303e-234,"2":-0.3075751932117439,"3":-0.3506564240158903,"4":-0.0028131328586852634,"5":-0.36182290988422905,"6":-0.37140890477297034,"7":2.431621885858571e-302,"8":-0.32495892960687406}},{"sx":1,"sy":1,"depth":9,"w":{"0":-0.37083721041157675,"1":-4.517039232135417e-101,"2":-0.30443865928090297,"3":-0.38208431640801227,"4":-0.003096898872175675,"5":-0.41290857152455296,"6":-0.35515148719164585,"7":-1.5627479115668848e-84,"8":-0.2982168634504959}},{"sx":1,"sy":1,"depth":9,"w":{"0":-0.3453236428552774,"1":-2.633878742168548e-36,"2":-0.3021372418786498,"3":-0.37864414011354813,"4":-0.002676331456035849,"5":-0.3523723578263923,"6":-0.41847077844817154,"7":-6.204920246218947e-118,"8":-0.308766937187613}},{"sx":1,"sy":1,"depth":9,"w":{"0":-0.34351978279624035,"1":-5.939950846775043e-56,"2":-0.2775192231541561,"3":-0.35981029029647077,"4":-0.0031593518962636513,"5":-0.35229321091308935,"6":-0.34972084306389123,"7":2.7387078804632075e-16,"8":-0.306701067849916}},{"sx":1,"sy":1,"depth":9,"w":{"0":-0.35581163310534397,"1":-2.820129328336031e-98,"2":-0.28963146141797314,"3":-0.3503910699584349,"4":-0.004129963967083593,"5":-0.35867666666912223,"6":-0.37511035235603696,"7":-2.5e-323,"8":-0.2947402158386839}},{"sx":1,"sy":1,"depth":9,"w":{"0":-0.34964351412313993,"1":-2.9893150251306837e-38,"2":-0.32917764865196075,"3":-0.39861901523490456,"4":-0.003520521681773657,"5":-0.3722815767090523,"6":-0.3686589983428936,"7":-5e-324,"8":-0.3151317194035617}},{"sx":1,"sy":1,"depth":9,"w":{"0":-0.35701030803683365,"1":-4.2218838970385665e-238,"2":-0.3286531085233009,"3":-0.3509735509983821,"4":-0.00421143832702283,"5":-0.35560882917088704,"6":-0.37324092271013865,"7":2.1981334350682912e-271,"8":-0.30066769260148785}},{"sx":1,"sy":1,"depth":9,"w":{"0":-0.34953318641470177,"1":-1.5e-323,"2":-0.2786632696127781,"3":-0.35060457410394696,"4":-0.0028591387572260967,"5":-0.3831662035082684,"6":-0.3487623084798004,"7":-8.182377874845765e-65,"8":-0.31179440636006905}},{"sx":1,"sy":1,"depth":9,"w":{"0":-0.34512114998188564,"1":-8.422060596293068e-138,"2":-0.27642766673499936,"3":-0.35090506207073047,"4":-0.005022074945160307,"5":-0.37158824242005245,"6":-0.36640728755622237,"7":-8.590597173888213e-39,"8":-0.2992048073424087}},{"sx":1,"sy":1,"depth":9,"w":{"0":-0.3714745029101363,"1":-5.584849179733506e-63,"2":-0.28710696210749176,"3":-0.35227631207439447,"4":-0.004716706560631898,"5":-0.38672966259354735,"6":-0.40909568374219274,"7":-2.1824612398173193e-114,"8":-0.30017484189634275}},{"sx":1,"sy":1,"depth":9,"w":{"0":-0.34366719167188803,"1":5e-324,"2":-0.27628690411161116,"3":-0.35786554698739587,"4":-0.004176799915873431,"5":-0.357268646143305,"6":-0.377740181537915,"7":3.24396765969984e-15,"8":-0.29756727905181984}},{"sx":1,"sy":1,"depth":9,"w":{"0":-0.3743960050528546,"1":-1.8115133310010563e-63,"2":-0.30884935389151197,"3":-0.3587738432542245,"4":-0.003958643505484442,"5":-0.355377624858739,"6":-0.37908364519104754,"7":-1.4655973692803619e-123,"8":-0.29463336375748445}},{"sx":1,"sy":1,"depth":9,"w":{"0":-0.3464113151625928,"1":-1.686694447496579e-45,"2":-0.27621485254834227,"3":-0.3560036689767622,"4":-0.0035896848872321355,"5":-0.35566813119387347,"6":-0.38320755833089293,"7":3.5e-323,"8":-0.29461100537056756}},{"sx":1,"sy":1,"depth":9,"w":{"0":-0.34208973804222254,"1":-6.902334357357725e-39,"2":-0.2772253330379588,"3":-0.3507615720203868,"4":-0.0035658814437702782,"5":-0.3550272830364458,"6":-0.353294667426413,"7":-4.476017620996454e-128,"8":-0.30658510001050804}},{"sx":1,"sy":1,"depth":9,"w":{"0":-0.3803102829674454,"1":-2.5e-323,"2":-0.3043182710995528,"3":-0.3527588904243193,"4":-0.005697590166043888,"5":-0.35779848660472086,"6":-0.3496198119345688,"7":5.511157863076725e-294,"8":-0.2949553414251181}},{"sx":1,"sy":1,"depth":9,"w":{"0":-0.3428441066398152,"1":-5.625109782004432e-38,"2":-0.27635307032849943,"3":-0.353066233863072,"4":-0.003954419064758409,"5":-0.35280958566685217,"6":-0.34885084354933743,"7":-9.848951039092416e-48,"8":-0.29555461516402814}},{"sx":1,"sy":1,"depth":9,"w":{"0":-0.34236148420814505,"1":-1e-323,"2":-0.27672376391479464,"3":-0.35208411469186823,"4":-0.0036373717439220307,"5":-0.3522965666476883,"6":-0.3493417699978024,"7":-1.1022008960276354e-22,"8":-0.2964029175393025}},{"sx":1,"sy":1,"depth":9,"w":{"0":-0.35162298678563964,"1":-8.886307778707044e-239,"2":-0.28343715783167744,"3":-0.42000385961170084,"4":-0.03340395701141393,"5":-0.35732415080752705,"6":-0.3530387041883766,"7":-1.265224095642283e-51,"8":-0.2946476908312802}},{"sx":1,"sy":1,"depth":9,"w":{"0":-0.3436640638755502,"1":-4.5771492072737075e-18,"2":-0.2892563774468598,"3":-0.35922155159204366,"4":-0.004848690288988149,"5":-0.3532262228170455,"6":-0.3499444733324869,"7":-5.712768951946209e-53,"8":-0.29702718294161506}},{"sx":1,"sy":1,"depth":9,"w":{"0":-0.3601841397574091,"1":-4.492173552315367e-80,"2":-0.301239504978886,"3":-0.3578708670806457,"4":-0.0039512000036580055,"5":-0.408239619173633,"6":-0.3669029835577573,"7":-1.4221524812027455e-35,"8":-0.3477970620705691}},{"sx":1,"sy":1,"depth":9,"w":{"0":-0.34270136675119023,"1":-1.956510662069858e-276,"2":-0.3016858881449331,"3":-0.3639847365473034,"4":-0.003930889327649245,"5":-0.35870407265360466,"6":-0.37486299511252963,"7":-3.6541751949561177e-152,"8":-0.29499630462479753}},{"sx":1,"sy":1,"depth":9,"w":{"0":-0.3727851083491547,"1":-1.1295566795991455e-214,"2":-0.28709626831923035,"3":-0.36196304324510853,"4":-0.009804235874999291,"5":-0.36645452978423765,"6":-0.35148373176670866,"7":9.988072560361481e-22,"8":-0.3121314760157428}},{"sx":1,"sy":1,"depth":9,"w":{"0":-0.3432725712763923,"1":-6.521681276252754e-43,"2":-0.32543967930623363,"3":-0.35185944114690026,"4":-0.003698927152509818,"5":-0.36779765296518796,"6":-0.4118978898199574,"7":-9.872667701619957e-59,"8":-0.29599841867268495}},{"sx":1,"sy":1,"depth":9,"w":{"0":-0.34978348993294067,"1":-5.470329603881413e-60,"2":-0.2855665900405657,"3":-0.35010422599602264,"4":-0.0028381627433567676,"5":-0.35396090774860817,"6":-0.36023734458054624,"7":-4.0942127012062655e-103,"8":-0.303855232883641}},{"sx":1,"sy":1,"depth":9,"w":{"0":-0.3439914763093741,"1":-3.5447897079714855e-59,"2":-0.3296547479957506,"3":-0.3567881286845746,"4":-0.004517063726219465,"5":-0.36775495170731176,"6":-0.3586972112046981,"7":-6.854168555844414e-116,"8":-0.29650653675028227}},{"sx":1,"sy":1,"depth":9,"w":{"0":-0.3470265585426742,"1":-3.486714742560891e-234,"2":-0.31086491992529647,"3":-0.35156014185197754,"4":-0.004346060078371345,"5":-0.3792303330556505,"6":-0.34843614457441674,"7":4e-323,"8":-0.29484516012166745}},{"sx":1,"sy":1,"depth":9,"w":{"0":-0.3464403361411504,"1":-1.5329630634505133e-47,"2":-0.2972843574451709,"3":-0.4371486842900211,"4":-0.010695624984783082,"5":-0.35635542890766575,"6":-0.3884471620053068,"7":-4.552864374393492e-112,"8":-0.2950186228485688}},{"sx":1,"sy":1,"depth":9,"w":{"0":-0.39940321983070926,"1":-9.109594880343392e-50,"2":-0.27646386193980155,"3":-0.3512330345005022,"4":-0.004731050409564468,"5":-0.4247409527719253,"6":-0.3485002626290024,"7":-5.799e-319,"8":-0.2945970487983627}},{"sx":1,"sy":1,"depth":9,"w":{"0":-0.3425195881956684,"1":-6.096233373145659e-239,"2":-0.2907358610799707,"3":-0.3502343415249,"4":-0.003997104242111887,"5":-0.3542078947006637,"6":-0.36160182082170006,"7":-6.044274964403499e-194,"8":-0.2954509984374634}},{"sx":1,"sy":1,"depth":9,"w":{"0":-0.37035844686611785,"1":-7.509540976170425e-129,"2":-0.2761477956231846,"3":-0.3503191667908943,"4":-0.0026555461423120146,"5":-0.3583773287997972,"6":-0.3605743983517539,"7":-5e-324,"8":-0.3060978321576725}},{"sx":1,"sy":1,"depth":9,"w":{"0":-0.3434748567991843,"1":-1.849810436956423e-147,"2":-0.34437779146718017,"3":-0.35033394494547493,"4":-0.002946634579364356,"5":-0.35260640879545824,"6":-0.3516700162026171,"7":1.2088605853e-314,"8":-0.30663970820233183}},{"sx":1,"sy":1,"depth":9,"w":{"0":-0.3432350861648455,"1":-8.146446301127139e-30,"2":-0.27909436526609893,"3":-0.35188248109725284,"4":-0.0036893497612033197,"5":-0.352368246622601,"6":-0.35831475908477334,"7":-2.557532623880726e-70,"8":-0.3085775715783203}},{"sx":1,"sy":1,"depth":9,"w":{"0":-0.3634550386383765,"1":-1.9189751724845496e-125,"2":-0.27600228860399906,"3":-0.35042438468835574,"4":-0.004121934503744295,"5":-0.3557701775485355,"6":-0.35991082524967294,"7":-4.211947245514518e-54,"8":-0.3017528469688752}},{"sx":1,"sy":1,"depth":9,"w":{"0":-0.34765383004595707,"1":-5.475473643209027e-43,"2":-0.31318736253315455,"3":-0.3529970653978326,"4":-0.005938195403150351,"5":-0.3960852227979295,"6":-0.3484183502635619,"7":4.506537754091112e-304,"8":-0.3076101955497553}},{"sx":1,"sy":1,"depth":9,"w":{"0":-0.3610982593522784,"1":-5.372700787712828e-223,"2":-0.2889144915282301,"3":-0.35127191073671504,"4":-0.003250013201689708,"5":-0.41987631958772,"6":-0.35022860706864006,"7":-5.582333236077758e-64,"8":-0.29469562449628084}},{"sx":1,"sy":1,"depth":9,"w":{"0":-0.3514655176427073,"1":-1.2602330359555555e-228,"2":-0.2781177634109744,"3":-0.3513408949037342,"4":-0.0028962825794787905,"5":-0.37828653952968033,"6":-0.35145978919873155,"7":3.0641031254080893e-293,"8":-0.2964099105283668}},{"sx":1,"sy":1,"depth":9,"w":{"0":-0.3611392689034282,"1":-1.3558299851794168e-151,"2":-0.27904961910916465,"3":-0.35051660867023393,"4":-0.004742595199631566,"5":-0.3717188548244197,"6":-0.3629829859200743,"7":-6.259436735298641e-105,"8":-0.3002495833246427}},{"sx":1,"sy":1,"depth":9,"w":{"0":-0.3429220821253323,"1":-2.175012400070336e-50,"2":-0.29297343732016745,"3":-0.3868231076604759,"4":-0.005326496833158868,"5":-0.35319749112510307,"6":-0.35145887210255927,"7":-5.044503970738801e-61,"8":-0.30251932842376916}},{"sx":1,"sy":1,"depth":9,"w":{"0":-0.3449371179585574,"1":-1.919781495815686e-231,"2":-0.27699934558793937,"3":-0.3622174732437227,"4":-0.004557830993935801,"5":-0.3565083369585099,"6":-0.38239659544812016,"7":-3.4444497202442977e-41,"8":-0.29604429520188386}},{"sx":1,"sy":1,"depth":9,"w":{"0":-0.3458390138989027,"1":-2.153881214454582e-142,"2":-0.3016209867265842,"3":-0.39956183003890594,"4":-0.0034020819518400655,"5":-0.40905799088544914,"6":-0.34975922020497424,"7":8.601034631667989e-27,"8":-0.33956130362814824}},{"sx":1,"sy":1,"depth":9,"w":{"0":-0.3425764305253385,"1":-7.015404233787878e-167,"2":-0.28227516597498703,"3":-0.3509751285106699,"4":-0.003419709316629451,"5":-0.35327150284650927,"6":-0.34844987577094405,"7":-5e-324,"8":-0.2972871273019447}},{"sx":1,"sy":1,"depth":9,"w":{"0":-0.36346051531419926,"1":-1.7182090772560918e-234,"2":-0.3055800413980779,"3":-0.35220307477776347,"4":-0.004251024544125516,"5":-0.4014677571751175,"6":-0.35862707056083354,"7":-2.055028569611576e-82,"8":-0.3758421346669218}},{"sx":1,"sy":1,"depth":9,"w":{"0":-0.34621949614707703,"1":-3.5e-323,"2":-0.2759919625259759,"3":-0.3855838435471762,"4":-0.003680282581066234,"5":-0.35803577981091544,"6":-0.35316007445817676,"7":-5.568965985383041e-188,"8":-0.33709985658868974}},{"sx":1,"sy":1,"depth":9,"w":{"0":-0.34238545966634343,"1":2e-323,"2":-0.28518737381423276,"3":-0.354516232320806,"4":-0.008729400560461788,"5":-0.3526786870559131,"6":-0.3574957732521676,"7":-2.4469358333713257e-26,"8":-0.29514780750820213}},{"sx":1,"sy":1,"depth":9,"w":{"0":-0.3632199862628302,"1":-5.7442013213677195e-71,"2":-0.27615847959626827,"3":-0.37070546976614516,"4":-0.003694446771541522,"5":-0.3555597509103814,"6":-0.3538568623002177,"7":-1.4583935447638594e-43,"8":-0.31830719105510163}},{"sx":1,"sy":1,"depth":9,"w":{"0":-0.3432211191653355,"1":-4.400143353151366e-129,"2":-0.2960971058709844,"3":-0.36314647448750825,"4":-0.003931943565638942,"5":-0.3604141711199759,"6":-0.35786687151748214,"7":3.8355284766832175e-287,"8":-0.29481508800578127}},{"sx":1,"sy":1,"depth":9,"w":{"0":-0.3435165381784403,"1":-2.2427760941519006e-226,"2":-0.3505711975615685,"3":-0.358164719964715,"4":-0.0036099595983603992,"5":-0.38936853119280046,"6":-0.3485081322574696,"7":3.391682565804597e-285,"8":-0.34256378255174647}},{"sx":1,"sy":1,"depth":9,"w":{"0":-0.405177220038049,"1":9.258704899725087e-20,"2":-0.30603233833460386,"3":-0.35102875638396897,"4":-0.005170841231365123,"5":-0.4108258687080799,"6":-0.42605100125836387,"7":5.648490628913663e-281,"8":-0.29479425792991887}},{"sx":1,"sy":1,"depth":9,"w":{"0":-0.3422569677500801,"1":-3.798265617841232e-58,"2":-0.36922032897207985,"3":-0.3507423548012881,"4":-0.003164107162161292,"5":-0.35938549222491206,"6":-0.43635895685402754,"7":-1.15024846e-316,"8":-0.3020302846666108}},{"sx":1,"sy":1,"depth":9,"w":{"0":-0.3434736538261249,"1":-8.410580934407265e-45,"2":-0.2827645113858123,"3":-0.3510330669728165,"4":-0.00606225704239548,"5":-0.36568360598536304,"6":-0.36130853129425367,"7":-5.338472593237923e-180,"8":-0.30661842768544467}},{"sx":1,"sy":1,"depth":9,"w":{"0":-0.34232505065325797,"1":-4.607477964274992e-102,"2":-0.2926194843323876,"3":-0.35264064111577853,"4":-0.004303732627916698,"5":-0.3599885868701066,"6":-0.4163598588895766,"7":-2.557455860993422e-40,"8":-0.31560979901371133}},{"sx":1,"sy":1,"depth":9,"w":{"0":-0.3434094982815175,"1":-3.2647818836481995e-24,"2":-0.27565093554694053,"3":-0.40757490012094844,"4":-0.0037201641091085366,"5":-0.40213108384546925,"6":-0.348419669925885,"7":3.141536702758332e-13,"8":-0.33472469462294535}},{"sx":1,"sy":1,"depth":9,"w":{"0":-0.34513143690376274,"1":-1.2602859961181074e-222,"2":-0.2803416376967707,"3":-0.3800734472431817,"4":-0.003566286232646358,"5":-0.38304014599103636,"6":-0.35416628584354143,"7":6.875548173030564e-22,"8":-0.29964054862035927}},{"sx":1,"sy":1,"depth":9,"w":{"0":-0.37077290511537464,"1":-5.248788496478629e-210,"2":-0.27744630768031986,"3":-0.35038570983128675,"4":-0.005625290146047394,"5":-0.35235190708061803,"6":-0.34829477944591475,"7":9.156981223862445e-28,"8":-0.2947484428842863}},{"sx":1,"sy":1,"depth":9,"w":{"0":-0.34237735706798567,"1":-6.790696616105096e-125,"2":-0.27748404099452306,"3":-0.3581383193608075,"4":-0.005561710435618591,"5":-0.35913195839551887,"6":-0.3495729955105513,"7":1.2310096861072527e-279,"8":-0.2946793036388515}},{"sx":1,"sy":1,"depth":9,"w":{"0":-0.3458404467108655,"1":-5.823087416001638e-34,"2":-0.29471181943684643,"3":-0.3781273282596778,"4":-0.00375216770878541,"5":-0.36436255181729577,"6":-0.3946717908878889,"7":-5.661902267758665e-37,"8":-0.31460834453204073}},{"sx":1,"sy":1,"depth":9,"w":{"0":-0.3428637170254678,"1":-3.4204459193830347e-220,"2":-0.2843776237458583,"3":-0.39113441069008065,"4":-0.0036981777272325996,"5":-0.35439692739820305,"6":-0.3714261299447529,"7":-7.266725353531632e-188,"8":-0.29546219059883744}},{"sx":1,"sy":1,"depth":9,"w":{"0":-0.34248682330087815,"1":-2.716887257731597e-97,"2":-0.2792483994135227,"3":-0.4250848529949112,"4":-0.0038336713460112005,"5":-0.3534845574592643,"6":-0.4375960883476905,"7":2.6946863846205973e-21,"8":-0.31181510368383447}},{"sx":1,"sy":1,"depth":9,"w":{"0":-0.34759732565705975,"1":-8.989358592370211e-42,"2":-0.3050280918488363,"3":-0.43370010294664013,"4":-0.043696155396526035,"5":-0.36013273917729793,"6":-0.3516653257730794,"7":-1.9034725768496336e-59,"8":-0.380820990490681}},{"sx":1,"sy":1,"depth":9,"w":{"0":-0.34328639266851946,"1":-1.0330609306428508e-233,"2":-0.28507241107476067,"3":-0.3506745569782155,"4":-0.007060724052349063,"5":-0.35283205428758874,"6":-0.420302831085275,"7":1.541878570999699e-23,"8":-0.2946623155724914}},{"sx":1,"sy":1,"depth":9,"w":{"0":-0.3426154583438602,"1":-9.719128655050659e-119,"2":-0.2866205114066297,"3":-0.3538810581972231,"4":-0.002867173866016307,"5":-0.35258546176360583,"6":-0.3529469195137657,"7":-2.2084249375709188e-75,"8":-0.32211827930228165}},{"sx":1,"sy":1,"depth":9,"w":{"0":-0.37591499005408363,"1":-1.5889811958798798e-57,"2":-0.2825038085533052,"3":-0.3811772926264231,"4":-0.007225509278125826,"5":-0.3521229861012212,"6":-0.38434811687656306,"7":-2.173828233050341e-179,"8":-0.29518887063796084}},{"sx":1,"sy":1,"depth":9,"w":{"0":-0.3442418898841629,"1":-5e-324,"2":-0.3047723233467149,"3":-0.3502198973826793,"4":-0.0030766116633759704,"5":-0.3522958705830157,"6":-0.3490143110119964,"7":-1.765434327576498e-71,"8":-0.2957058053539971}},{"sx":1,"sy":1,"depth":9,"w":{"0":-0.3786123548845356,"1":-2.3759909289164645e-140,"2":-0.2792169316016377,"3":-0.3504005676183216,"4":-0.004347341743711448,"5":-0.36782206688806085,"6":-0.3484093660067346,"7":-1.1830263843222244e-28,"8":-0.2953755855425397}},{"sx":1,"sy":1,"depth":9,"w":{"0":-0.34329384510830074,"1":-7.110211411045803e-231,"2":-0.2775250989991258,"3":-0.35092841315256385,"4":-0.004193485278379122,"5":-0.38383860597072816,"6":-0.3564412661116427,"7":-1.183366851593635e-79,"8":-0.2959102113494203}},{"sx":1,"sy":1,"depth":9,"w":{"0":-0.34832210780696954,"1":-3.2426528180147867e-56,"2":-0.2867963398738045,"3":-0.3504581585026655,"4":-0.003536544052978301,"5":-0.3575437631519875,"6":-0.3602729517049149,"7":2.7477523347299356e-279,"8":-0.33003161464272757}},{"sx":1,"sy":1,"depth":9,"w":{"0":-0.35406864283919515,"1":-2e-323,"2":-0.2959208757663582,"3":-0.35058367897555526,"4":-0.004609517040870103,"5":-0.35616128500960637,"6":-0.34971028465024195,"7":-4.791623450257421e-52,"8":-0.2948764569209397}},{"sx":1,"sy":1,"depth":9,"w":{"0":-0.38049635231875395,"1":-1.25451242979637e-154,"2":-0.3118792877599249,"3":-0.36254759993501723,"4":-0.0036553752153296124,"5":-0.3839115836545037,"6":-0.43989711863950276,"7":-4.176632183516826e-49,"8":-0.31119306066218055}},{"sx":1,"sy":1,"depth":9,"w":{"0":-0.34546353084975295,"1":-5.411852971282952e-62,"2":-0.33913468543433256,"3":-0.368857559636981,"4":-0.003428143668039273,"5":-0.3645433090913686,"6":-0.35408298971602986,"7":-1.3380144118725965e-35,"8":-0.29548082552426186}},{"sx":1,"sy":1,"depth":9,"w":{"0":-0.34700017074344486,"1":-1.1563317421479625e-96,"2":-0.3106219348876502,"3":-0.3513269647081646,"4":-0.003595623823184864,"5":-0.35316485081458565,"6":-0.40835831722802823,"7":-8.346558197140211e-45,"8":-0.3562621753779763}},{"sx":1,"sy":1,"depth":9,"w":{"0":-0.3469971809001982,"1":-1.0060654553187346e-26,"2":-0.29384646454595026,"3":-0.4041281309978514,"4":-0.003688481925637602,"5":-0.3632902116759255,"6":-0.3482896918209091,"7":1.1884470392736143e-21,"8":-0.2946411738902688}},{"sx":1,"sy":1,"depth":9,"w":{"0":-0.343164613964197,"1":-9.291843996936303e-235,"2":-0.31198892242201437,"3":-0.35090429455678807,"4":-0.004567138394370007,"5":-0.35779716057630573,"6":-0.3538788822143107,"7":-4.778576240324778e-46,"8":-0.2985254429627096}},{"sx":1,"sy":1,"depth":9,"w":{"0":-0.3427297366277129,"1":-5.958877878956459e-23,"2":-0.31326626076226655,"3":-0.35753936915684215,"4":-0.007319042941944531,"5":-0.39346975979409754,"6":-0.3599125468577008,"7":-2.3267131899552373e-292,"8":-0.29516538337199894}},{"sx":1,"sy":1,"depth":9,"w":{"0":-0.3754499318334229,"1":-1.5306825114451348e-46,"2":-0.2787467633177286,"3":-0.3510376626892509,"4":-0.0076021342571388996,"5":-0.3534284524163519,"6":-0.36024866372377884,"7":1.1484300270795484e-27,"8":-0.31010349479596283}},{"sx":1,"sy":1,"depth":9,"w":{"0":-0.3618810946820004,"1":-2.3090262729542503e-16,"2":-0.2833988974591763,"3":-0.35075443230974546,"4":-0.0035414836002190886,"5":-0.38908602299808054,"6":-0.3508006543913984,"7":-2.126154200207288e-105,"8":-0.2994040042324289}},{"sx":1,"sy":1,"depth":9,"w":{"0":-0.3538852124570674,"1":-3.3651968586954327e-146,"2":-0.2849231687039246,"3":-0.3514168751673835,"4":-0.004805547581775628,"5":-0.3781583736557407,"6":-0.3557997335121722,"7":-1.8756699821788324e-59,"8":-0.2954807840568174}},{"sx":1,"sy":1,"depth":9,"w":{"0":-0.34348351122483745,"1":-1.5803290701791494e-31,"2":-0.2763533069958102,"3":-0.3503302648505996,"4":-0.005675882799672148,"5":-0.35612539926326514,"6":-0.34850682326067356,"7":7.173963753423434e-284,"8":-0.2976166068547611}},{"sx":1,"sy":1,"depth":9,"w":{"0":-0.34404230273748954,"1":-1.1996152167972731e-26,"2":-0.294126524626128,"3":-0.3513833924219059,"4":-0.004812106180523666,"5":-0.35739007566891245,"6":-0.40101261622274015,"7":-2e-323,"8":-0.3222287925558914}},{"sx":1,"sy":1,"depth":9,"w":{"0":-0.3437386669248851,"1":-8.55052203652751e-64,"2":-0.29247037725287284,"3":-0.3707920752415034,"4":-0.003614681467634725,"5":-0.3574136845595112,"6":-0.3935194299000621,"7":-6.020252869018496e-27,"8":-0.2959208819193099}},{"sx":1,"sy":1,"depth":9,"w":{"0":-0.3497021221945944,"1":-9.08593733118733e-17,"2":-0.3028806866609963,"3":-0.35034648839803956,"4":-0.0037739316859513074,"5":-0.3713157114086184,"6":-0.3585012248649443,"7":-3.7577721573328696e-76,"8":-0.29531000850053907}},{"sx":1,"sy":1,"depth":9,"w":{"0":-0.3421951925053541,"1":-1.0796479925914722e-29,"2":-0.27831810403281265,"3":-0.35052373306143986,"4":-0.004956788937489125,"5":-0.35465006166500396,"6":-0.3941099065956905,"7":-1.1997943485387613e-41,"8":-0.2947404697515314}},{"sx":1,"sy":1,"depth":9,"w":{"0":-0.3613003422230597,"1":-1.4143044257701526e-31,"2":-0.28196201975981267,"3":-0.35739477118004154,"4":-0.003531213530150241,"5":-0.36425498830444397,"6":-0.3607292848736807,"7":-3.1817858408072505e-90,"8":-0.2991186039897183}},{"sx":1,"sy":1,"depth":9,"w":{"0":-0.3633249116067745,"1":-1.284139559291095e-206,"2":-0.28389868032566756,"3":-0.35022384502604315,"4":-0.0037029004327165356,"5":-0.35752354365184313,"6":-0.34890561230587813,"7":-3.1297288932107784e-301,"8":-0.3095012549665785}},{"sx":1,"sy":1,"depth":9,"w":{"0":-0.3423288719343189,"1":-2.3539763623756967e-69,"2":-0.27655187349884097,"3":-0.3510635406531975,"4":-0.0037374342349047337,"5":-0.39909706386660826,"6":-0.34881885178176125,"7":1.7674048554914958e-23,"8":-0.29524165212255615}},{"sx":1,"sy":1,"depth":9,"w":{"0":-0.34404567790321805,"1":-2.1868825482969997e-33,"2":-0.2961138508098985,"3":-0.3518913947165361,"4":-0.004104489164790181,"5":-0.35610044503891364,"6":-0.41028075693516564,"7":2e-323,"8":-0.2949859472577517}},{"sx":1,"sy":1,"depth":9,"w":{"0":-0.3423603796173677,"1":-3.748327352475176e-67,"2":-0.28091589154704666,"3":-0.35027889162108483,"4":-0.003634869150559464,"5":-0.3811556338947284,"6":-0.34971456875590556,"7":2.7032460013757877e-34,"8":-0.38126477036089784}},{"sx":1,"sy":1,"depth":9,"w":{"0":-0.34815015983497377,"1":-1.223164355899187e-226,"2":-0.27993359982711113,"3":-0.35235472178740457,"4":-0.003572138202214802,"5":-0.3690024296748621,"6":-0.364894253982889,"7":-1.206857656842934e-48,"8":-0.31132590246750774}},{"sx":1,"sy":1,"depth":9,"w":{"0":-0.3451428315433634,"1":-1.6090604281891697e-106,"2":-0.2763042728664374,"3":-0.3508066844627601,"4":-0.005081200254981575,"5":-0.3553336566376994,"6":-0.3658144146819273,"7":2.599274014906532e-295,"8":-0.2976140434372706}},{"sx":1,"sy":1,"depth":9,"w":{"0":-0.3470203937287651,"1":-4.2393780283966566e-92,"2":-0.3117230370337468,"3":-0.350496860158308,"4":-0.004361411240127627,"5":-0.35427372531070933,"6":-0.3778754304730733,"7":-3e-323,"8":-0.2996696438946543}},{"sx":1,"sy":1,"depth":9,"w":{"0":-0.3491581505074129,"1":-8.576007321971478e-32,"2":-0.3158224370424787,"3":-0.3502222490585205,"4":-0.003611982040299799,"5":-0.3524206737357839,"6":-0.3570391705342725,"7":9.727274427541335e-15,"8":-0.29567963033170686}},{"sx":1,"sy":1,"depth":9,"w":{"0":-0.34262440189592513,"1":-1.0613368381280991e-15,"2":-0.28388762772813686,"3":-0.35700493219356777,"4":-0.0030818364754570324,"5":-0.3537299381035793,"6":-0.38075531994366213,"7":4.2579573520377207e-287,"8":-0.3069549020733761}},{"sx":1,"sy":1,"depth":9,"w":{"0":-0.3423878697284387,"1":-8.821945726243164e-240,"2":-0.3102907828671786,"3":-0.3835636034334417,"4":-0.005024168056607587,"5":-0.3523923269870937,"6":-0.3945740335005691,"7":-1e-323,"8":-0.29585216308224377}},{"sx":1,"sy":1,"depth":9,"w":{"0":-0.34245304122881143,"1":-1.3638975801750157e-81,"2":-0.3116497433678601,"3":-0.4166609679878514,"4":-0.00512113402222959,"5":-0.3534367949725674,"6":-0.3516454396809085,"7":-6.086800951840825e-66,"8":-0.3720966269492279}},{"sx":1,"sy":1,"depth":9,"w":{"0":-0.34687860829543005,"1":-3.381578151920803e-36,"2":-0.27659236139430016,"3":-0.351412859519092,"4":-0.004554660711312064,"5":-0.35404654299387606,"6":-0.3493516058187377,"7":-9.055462560132185e-10,"8":-0.2984378401350157}},{"sx":1,"sy":1,"depth":9,"w":{"0":-0.3436323985066449,"1":-9.874736675568161e-54,"2":-0.334726647468194,"3":-0.36798300924340616,"4":-0.0036946733595935735,"5":-0.40713627716385714,"6":-0.367136195346933,"7":-1.0408760665867352e-110,"8":-0.2946446715677031}},{"sx":1,"sy":1,"depth":9,"w":{"0":-0.35060687558540315,"1":-5e-324,"2":-0.278725847632639,"3":-0.351949264631617,"4":-0.0037048631711260743,"5":-0.37927051831429975,"6":-0.35104701075166456,"7":-5.578782544949658e-30,"8":-0.3490332748034691}},{"sx":1,"sy":1,"depth":9,"w":{"0":-0.34588444293832826,"1":-5.1058841675127886e-107,"2":-0.28142332073154397,"3":-0.4006020478308558,"4":-0.003559461400496862,"5":-0.36158097105036824,"6":-0.36231398295995587,"7":-6e-323,"8":-0.2952125634191178}},{"sx":1,"sy":1,"depth":9,"w":{"0":-0.3674957011760359,"1":-1.3465187021816755e-99,"2":-0.27607324609318484,"3":-0.3524376609396538,"4":-0.0031960310316768836,"5":-0.3627573659724062,"6":-0.35038379526951835,"7":-2.0477793363584743e-221,"8":-0.29470347169430805}},{"sx":1,"sy":1,"depth":9,"w":{"0":-0.3423427093953666,"1":-2.7361868064104e-28,"2":-0.2783055917460113,"3":-0.3553592734955312,"4":-0.0034738787329907997,"5":-0.39224903968546126,"6":-0.4247978895128941,"7":0,"8":-0.3438256552305709}},{"sx":1,"sy":1,"depth":9,"w":{"0":-0.3423032956989346,"1":-3.216640720525826e-238,"2":-0.2827558877745952,"3":-0.355521860563811,"4":-0.003199086894744906,"5":-0.38395452127434604,"6":-0.348501497598794,"7":-4.345875444464734e-49,"8":-0.37813143030422214}},{"sx":1,"sy":1,"depth":9,"w":{"0":-0.3423313032160083,"1":3e-323,"2":-0.28537868137477795,"3":-0.35027306502298194,"4":-0.003965820322697519,"5":-0.35951107674469657,"6":-0.34897463742826007,"7":-8.945665843836514e-38,"8":-0.29461030158027623}},{"sx":1,"sy":1,"depth":9,"w":{"0":-0.3525443484691467,"1":-5.996665120385249e-70,"2":-0.27704724931014874,"3":-0.35458293532677765,"4":-0.005571444378610055,"5":-0.35363788631938703,"6":-0.35091256979656904,"7":-2.596291165035921e-155,"8":-0.29524406056828084}},{"sx":1,"sy":1,"depth":9,"w":{"0":-0.3433225190065163,"1":-7.591672042021232e-34,"2":-0.2786448073924716,"3":-0.3506600016446205,"4":-0.0037557279455774314,"5":-0.37702434818969693,"6":-0.35085816399278874,"7":-1.7933961313051724e-38,"8":-0.29494418687967366}},{"sx":1,"sy":1,"depth":9,"w":{"0":-0.3447097806722868,"1":-4.167604651995283e-149,"2":-0.3192767471704207,"3":-0.3512187820751833,"4":-0.004414088354459251,"5":-0.3594855720883314,"6":-0.3503235922976352,"7":-4.811481638297862e-64,"8":-0.30625254731964785}},{"sx":1,"sy":1,"depth":9,"w":{"0":-0.37898345065329336,"1":-2.303492454997003e-30,"2":-0.2764533621151845,"3":-0.350739825635899,"4":-0.0032796350311577183,"5":-0.3533486245544829,"6":-0.35175295736222506,"7":-2.3355388520918565e-96,"8":-0.2946701627600176}},{"sx":1,"sy":1,"depth":9,"w":{"0":-0.34414990150582814,"1":-2.980598541691612e-37,"2":-0.27652979546240675,"3":-0.35326463522918633,"4":-0.004761173820801465,"5":-0.3567250206409992,"6":-0.34849263122187774,"7":-4.967459641654356e-36,"8":-0.2999495482664414}},{"sx":1,"sy":1,"depth":9,"w":{"0":-0.34287161179721154,"1":-8.945229876636609e-295,"2":-0.27642654860870125,"3":-0.40314620431328957,"4":-0.0038612515876056738,"5":-0.3551050671979456,"6":-0.3500188263550791,"7":-2.231508034094158e-248,"8":-0.33109874825838603}},{"sx":1,"sy":1,"depth":9,"w":{"0":-0.3468412965624222,"1":-5e-324,"2":-0.27662027406103223,"3":-0.35340327355607104,"4":-0.004778864766637685,"5":-0.3752821587989247,"6":-0.360351260460596,"7":-9.489143848627017e-45,"8":-0.2960754986298414}},{"sx":1,"sy":1,"depth":9,"w":{"0":-0.3527895598584695,"1":-1.2149056262421525e-18,"2":-0.27649244530743855,"3":-0.35025025532776366,"4":-0.003163821673836612,"5":-0.35857421529871736,"6":-0.35266395426309693,"7":9.876464751911645e-282,"8":-0.321204290405787}},{"sx":1,"sy":1,"depth":9,"w":{"0":-0.3592758199501588,"1":-1.2760285854437962e-232,"2":-0.2835922436858316,"3":-0.36982261078390777,"4":-0.00718065796078403,"5":-0.35451387148374824,"6":-0.3520048313074051,"7":-3.2127775680157465e-66,"8":-0.29965347225304023}},{"sx":1,"sy":1,"depth":9,"w":{"0":-0.3518695562805241,"1":-1.011317969646603e-24,"2":-0.32329882366999774,"3":-0.35270224143879664,"4":-0.003064540141400473,"5":-0.37694291667745233,"6":-0.3787642932282461,"7":-7.606554299086099e-60,"8":-0.3275918292623897}},{"sx":1,"sy":1,"depth":9,"w":{"0":-0.35903454062110624,"1":-1.4760388953979834e-27,"2":-0.2827844597225578,"3":-0.350668189812984,"4":-0.0032555280683100626,"5":-0.3614328840622038,"6":-0.34969367442383387,"7":-3.4572534661948696e-98,"8":-0.34146300911130845}},{"sx":1,"sy":1,"depth":9,"w":{"0":-0.34274690768936217,"1":-4.945934818453546e-11,"2":-0.2855783250154746,"3":-0.35136000710394977,"4":-0.0038129259579891845,"5":-0.3589227796377477,"6":-0.3487676750346713,"7":-3.712253200481461e-44,"8":-0.29548732943255573}},{"sx":1,"sy":1,"depth":9,"w":{"0":-0.34305368920983725,"1":-1.472638589528083e-255,"2":-0.28247785131946657,"3":-0.37322785743861,"4":-0.0037581383703612996,"5":-0.3543897730011081,"6":-0.3964369524395468,"7":-1.650968651092178e-202,"8":-0.29573837932574554}},{"sx":1,"sy":1,"depth":9,"w":{"0":-0.34242879697517625,"1":-2.5295260694265555e-33,"2":-0.29289788716770565,"3":-0.3507835012674471,"4":-0.005026764496225066,"5":-0.3532561042882851,"6":-0.3502513942300483,"7":-2.075679027243482e-77,"8":-0.30776975367548626}},{"sx":1,"sy":1,"depth":9,"w":{"0":-0.41052222980656067,"1":1e-323,"2":-0.3540557399520586,"3":-0.35062406259009943,"4":-0.003042791082796663,"5":-0.3591372273744994,"6":-0.34980093238537563,"7":-2.2993922022036405e-31,"8":-0.29567497197397086}},{"sx":1,"sy":1,"depth":9,"w":{"0":-0.3501368181779487,"1":-7.214532172201393e-182,"2":-0.28838830945299987,"3":-0.3532082804218541,"4":-0.003688411783899114,"5":-0.35290089200169733,"6":-0.36542433415250897,"7":3.5e-323,"8":-0.29477131313793575}},{"sx":1,"sy":1,"depth":9,"w":{"0":-0.34257181867230213,"1":-2.677249113257182e-239,"2":-0.28703410796244516,"3":-0.3515873194662465,"4":-0.00448426103616159,"5":-0.3602354251419682,"6":-0.3520046009514006,"7":-2e-323,"8":-0.29768013061007315}},{"sx":1,"sy":1,"depth":9,"w":{"0":-0.3435682929771913,"1":-4.297043959770547e-25,"2":-0.2806298886790263,"3":-0.3506639954640828,"4":-0.003089761544549274,"5":-0.37872746332737217,"6":-0.34906893308351733,"7":-2.172200831330731e-119,"8":-0.3188457113960456}},{"sx":1,"sy":1,"depth":9,"w":{"0":-0.3431684805811307,"1":-3e-323,"2":-0.28886482117295226,"3":-0.4013719141149392,"4":-0.0034876451565744233,"5":-0.36082567602394394,"6":-0.36986137175660294,"7":-2.9890374412675983e-223,"8":-0.29670494096787176}},{"sx":1,"sy":1,"depth":9,"w":{"0":-0.3442589259044993,"1":-5.242535435627502e-26,"2":-0.2809617129563351,"3":-0.3506445315296895,"4":-0.0034584203642010194,"5":-0.358375183277828,"6":-0.36766867912185186,"7":-1.616827122901708e-241,"8":-0.2967242163865277}},{"sx":1,"sy":1,"depth":9,"w":{"0":-0.34282752981266873,"1":-1.8398579364068112e-22,"2":-0.2820768765574751,"3":-0.3504720219213015,"4":-0.0034664303907128878,"5":-0.353634040048386,"6":-0.3592048167483598,"7":-1.741573537119874e-131,"8":-0.3206638313128407}},{"sx":1,"sy":1,"depth":9,"w":{"0":-0.34426619669874386,"1":-4.3928593373442114e-54,"2":-0.2764396360255243,"3":-0.351428024211249,"4":-0.0036409710411028206,"5":-0.3733572483342747,"6":-0.3500585469035283,"7":-4.103114049076116e-138,"8":-0.29790549746359973}},{"sx":1,"sy":1,"depth":9,"w":{"0":-0.3440459899204518,"1":-1.119187232462493e-130,"2":-0.3324190670725979,"3":-0.3553196523511889,"4":-0.003616328416374237,"5":-0.3880242202113604,"6":-0.34866092670128596,"7":-6.007759988695357e-124,"8":-0.3488298632497347}},{"sx":1,"sy":1,"depth":9,"w":{"0":-0.3423379670098945,"1":-2.308489163261928e-31,"2":-0.28216065541021385,"3":-0.36813105479226854,"4":-0.003477574783407584,"5":-0.3701122590423443,"6":-0.3519545007320802,"7":-1.556420965926632e-265,"8":-0.29467186591128824}},{"sx":1,"sy":1,"depth":9,"w":{"0":-0.3428594457218079,"1":-4.293230064919103e-236,"2":-0.3005060479672117,"3":-0.39514882198948975,"4":-0.0036500129664134165,"5":-0.3529685697378603,"6":-0.40360566938283887,"7":-5.5547613633295e-133,"8":-0.2955866668462197}},{"sx":1,"sy":1,"depth":9,"w":{"0":-0.3461330509489999,"1":-1.6124934331688316e-177,"2":-0.32222016814910626,"3":-0.35353802761984326,"4":-0.003010652519612603,"5":-0.35541134660838647,"6":-0.36044809660408733,"7":-5.61874680593871e-36,"8":-0.32963172921983447}},{"sx":1,"sy":1,"depth":9,"w":{"0":-0.3422468740442266,"1":-5.644385339565614e-75,"2":-0.2765826898051733,"3":-0.35024559516425635,"4":-0.004221335950429421,"5":-0.3937833089408667,"6":-0.3484647607056996,"7":5.187918942114775e-32,"8":-0.29499318222734794}},{"sx":1,"sy":1,"depth":9,"w":{"0":-0.3453635855853036,"1":-1.9077313781016572e-101,"2":-0.3267808569770882,"3":-0.3809582384826553,"4":-0.0033590326758147844,"5":-0.3530627387544304,"6":-0.3541605268779661,"7":-1.7930924066357918e-303,"8":-0.294973402841772}},{"sx":1,"sy":1,"depth":9,"w":{"0":-0.34610153161043977,"1":2e-323,"2":-0.2771331855535435,"3":-0.35358689095659507,"4":-0.004126277458352337,"5":-0.3543312043349445,"6":-0.3612278655563452,"7":-3.9004240172359324e-81,"8":-0.30152628866681785}},{"sx":1,"sy":1,"depth":9,"w":{"0":-0.3580348096944565,"1":-2.34162617308932e-127,"2":-0.27702726625568164,"3":-0.35178737793427595,"4":-0.004152250458909388,"5":-0.3568924686728041,"6":-0.3625475939101889,"7":2.5e-323,"8":-0.29470717288228265}},{"sx":1,"sy":1,"depth":9,"w":{"0":-0.3736053259782543,"1":-3.87694121848719e-266,"2":-0.27625697971895996,"3":-0.4197926982060179,"4":-0.0027645511994177662,"5":-0.35219128151211765,"6":-0.3548345702218437,"7":-3.071993893743147e-26,"8":-0.3601039531850261}},{"sx":1,"sy":1,"depth":9,"w":{"0":-0.3504934056971836,"1":-9.629605770388811e-92,"2":-0.2863436526036247,"3":-0.35319681426747723,"4":-0.005600674832050172,"5":-0.36799664813804295,"6":-0.4134192325063902,"7":-2.7019493615757516e-82,"8":-0.3312271372363359}},{"sx":1,"sy":1,"depth":9,"w":{"0":-0.3616777329504765,"1":-2.062764410291271e-99,"2":-0.2825931065812069,"3":-0.388153953643747,"4":-0.005269094273319045,"5":-0.3707199039224495,"6":-0.3516227889615413,"7":-1.1533236836404132e-237,"8":-0.3046371689844369}},{"sx":1,"sy":1,"depth":9,"w":{"0":-0.3458379397765732,"1":-2.2636087283925206e-47,"2":-0.2781323098527076,"3":-0.35225736980914685,"4":-0.0034937382515012943,"5":-0.3913542077322892,"6":-0.34849121144178896,"7":2.5797553964095374e-273,"8":-0.29806779152476587}},{"sx":1,"sy":1,"depth":9,"w":{"0":-0.3446345315936355,"1":-2.1448381819636684e-32,"2":-0.29096785123008534,"3":-0.35032524965889505,"4":-0.0035261621983545327,"5":-0.35314712111842966,"6":-0.36013578195037854,"7":7.666375147075555e-28,"8":-0.2958711448224052}},{"sx":1,"sy":1,"depth":9,"w":{"0":-0.34749556625081623,"1":-1.101168573067877e-193,"2":-0.27636326199777483,"3":-0.38972341835477387,"4":-0.004323841664212223,"5":-0.35353954100868357,"6":-0.37151968565439747,"7":-2.12779829863093e-55,"8":-0.29579493924858963}},{"sx":1,"sy":1,"depth":9,"w":{"0":-0.40294266327089184,"1":-1.9394290529930357e-234,"2":-0.28516228291381357,"3":-0.350840630875616,"4":-0.005773826142241694,"5":-0.3535921692011519,"6":-0.4099143178027649,"7":-2.456260739132564e-156,"8":-0.29536621596734325}},{"sx":1,"sy":1,"depth":9,"w":{"0":-0.35602434823460954,"1":-1.0154360160733012e-300,"2":-0.3045336944910814,"3":-0.36002641234000393,"4":-0.004012749163708299,"5":-0.3543935470982575,"6":-0.3603790218386877,"7":-8.424884593921719e-124,"8":-0.30231023474736857}},{"sx":1,"sy":1,"depth":9,"w":{"0":-0.3443719036403874,"1":-6.553317651015261e-175,"2":-0.2953080997150519,"3":-0.3540735497491732,"4":-0.00369621148494989,"5":-0.3579223541566743,"6":-0.3560053758626695,"7":-1.848748455452733e-42,"8":-0.295175853374097}},{"sx":1,"sy":1,"depth":9,"w":{"0":-0.3438418559474524,"1":-1.1286215759710524e-267,"2":-0.2763933835143801,"3":-0.3707801439765269,"4":-0.0034907214872585157,"5":-0.35285529963672424,"6":-0.34884599023874385,"7":1.5247165454784598e-24,"8":-0.2968870607558352}},{"sx":1,"sy":1,"depth":9,"w":{"0":-0.396189473349251,"1":-1.5958672760993442e-190,"2":-0.30912107531664934,"3":-0.3501997226579069,"4":-0.0032530171869921934,"5":-0.3551595982559628,"6":-0.35625352943095245,"7":-3.311266402049065e-58,"8":-0.2975758005166389}},{"sx":1,"sy":1,"depth":9,"w":{"0":-0.34597960760231516,"1":-2.62461541919465e-203,"2":-0.29248270922571984,"3":-0.367328800862805,"4":-0.018200612297045532,"5":-0.3554222756026349,"6":-0.37836356877634436,"7":-5.596012929840435e-97,"8":-0.29437177357801786}},{"sx":1,"sy":1,"depth":9,"w":{"0":-0.38585485656061536,"1":-7.024336567654065e-240,"2":-0.3118870261998002,"3":-0.3502046378782039,"4":-0.0037785747361569894,"5":-0.3895094954155511,"6":-0.3854875838284573,"7":-9.103468216145032e-33,"8":-0.2955632431806284}},{"sx":1,"sy":1,"depth":9,"w":{"0":-0.34514119069365673,"1":-2.8442699046433684e-33,"2":-0.3133751108517842,"3":-0.3508809701680919,"4":-0.005271897266329913,"5":-0.3559481745064886,"6":-0.38047064732561425,"7":1.7767657891450953e-26,"8":-0.29458312675411374}},{"sx":1,"sy":1,"depth":9,"w":{"0":-0.3432311645951515,"1":-1.8386429675028056e-173,"2":-0.2917826477246346,"3":-0.3509851362233239,"4":-0.00351957661614563,"5":-0.3555808918650255,"6":-0.3583784664546154,"7":-1.7864446922278441e-125,"8":-0.32599512805920416}},{"sx":1,"sy":1,"depth":9,"w":{"0":-0.344844827336767,"1":-1.1207134413518035e-45,"2":-0.2828071251663305,"3":-0.35190535388365585,"4":-0.005002493052561222,"5":-0.3584616720887347,"6":-0.34875725809530606,"7":1.0268730295781465e-298,"8":-0.2950172227897358}},{"sx":1,"sy":1,"depth":9,"w":{"0":-0.3497741522627036,"1":-1.8779384389074195e-26,"2":-0.30263202159633457,"3":-0.35676745678560223,"4":-0.0047230830987231775,"5":-0.35583515117558295,"6":-0.3601263841580417,"7":-5.415127472205489e-53,"8":-0.3015556838927791}},{"sx":1,"sy":1,"depth":9,"w":{"0":-0.3426471320087997,"1":-3.7281531586845354e-33,"2":-0.27603657758599165,"3":-0.37299602704560436,"4":-0.003134219700197992,"5":-0.35339079366184856,"6":-0.3520512804679603,"7":1.2268119023851554e-277,"8":-0.29948410879215104}},{"sx":1,"sy":1,"depth":9,"w":{"0":-0.3432180608003117,"1":-2.0373982234829724e-21,"2":-0.30006067595597863,"3":-0.3509634228839571,"4":-0.00588679678746762,"5":-0.3527038513528187,"6":-0.3605410464297592,"7":-1.0064226698483818e-25,"8":-0.29541823959062585}},{"sx":1,"sy":1,"depth":9,"w":{"0":-0.3426962355034761,"1":-3.525376494626327e-57,"2":-0.2950844514235333,"3":-0.3526682796094481,"4":-0.005073580338046596,"5":-0.3627184541783025,"6":-0.35031554684562694,"7":2.381934277374387e-302,"8":-0.31395600058059303}},{"sx":1,"sy":1,"depth":9,"w":{"0":-0.34234083840164015,"1":-9.300120974945239e-56,"2":-0.2873114191879398,"3":-0.3502446786934674,"4":-0.006198355150329416,"5":-0.38020034734361235,"6":-0.40486818721302625,"7":-1.9279346695599463e-216,"8":-0.3031328039407588}},{"sx":1,"sy":1,"depth":9,"w":{"0":-0.3527471913595386,"1":-3.0989580107041516e-103,"2":-0.2763164668993631,"3":-0.36154606101351566,"4":-0.005168256543637589,"5":-0.35390470556210285,"6":-0.35374268782948387,"7":-4.235387601979088e-56,"8":-0.296522830062966}},{"sx":1,"sy":1,"depth":9,"w":{"0":-0.3598727393512195,"1":-2e-323,"2":-0.30170301292701596,"3":-0.3729832147062787,"4":-0.004006075550558689,"5":-0.40170653202592776,"6":-0.35950923547242114,"7":1.8496385749221795e-29,"8":-0.295816347646137}},{"sx":1,"sy":1,"depth":9,"w":{"0":-0.35042837670704635,"1":2e-323,"2":-0.29038908252596274,"3":-0.36582482696209545,"4":-0.0035736764696736203,"5":-0.35538478430408993,"6":-0.36632678462746143,"7":1.0968131765670863e-32,"8":-0.2953521519454408}},{"sx":1,"sy":1,"depth":9,"w":{"0":-0.34327408146905625,"1":1.5e-323,"2":-0.27722930821351355,"3":-0.35214435572508024,"4":-0.0036796557864223825,"5":-0.35337676431218684,"6":-0.38633700121613823,"7":-5.6731780403669184e-136,"8":-0.29584311481611925}},{"sx":1,"sy":1,"depth":9,"w":{"0":-0.39600505793567975,"1":-4.315145940325511e-36,"2":-0.28809869071681377,"3":-0.3508437627881149,"4":-0.0066921597496277605,"5":-0.35475183408898847,"6":-0.35597774894874396,"7":-3.4267511627134255e-236,"8":-0.30035696185519617}},{"sx":1,"sy":1,"depth":9,"w":{"0":-0.34475785005139653,"1":1.5e-323,"2":-0.2758587243277996,"3":-0.37344905592909466,"4":-0.0035893562274584385,"5":-0.35618082312915067,"6":-0.34991010014021406,"7":-3e-323,"8":-0.29476391264473945}},{"sx":1,"sy":1,"depth":9,"w":{"0":-0.368764807519082,"1":-2.8845858437546527e-30,"2":-0.29284731344027043,"3":-0.35853016833594437,"4":-0.003094816315538621,"5":-0.3533177379495262,"6":-0.35661759450309355,"7":-1.8115266998202409e-72,"8":-0.2951503708328351}},{"sx":1,"sy":1,"depth":9,"w":{"0":-0.3423553666378993,"1":-2.1798181655541205e-39,"2":-0.2808350646936043,"3":-0.38011723626684907,"4":-0.005950844088897243,"5":-0.36828375540705355,"6":-0.3609266575235535,"7":3.3274342744874386e-280,"8":-0.2950376684273146}},{"sx":1,"sy":1,"depth":9,"w":{"0":-0.3630395085355573,"1":-1.0853380588189076e-214,"2":-0.27686953507151113,"3":-0.3878215214537111,"4":-0.0034914276341432254,"5":-0.3700716642520313,"6":-0.4239646020229292,"7":-1.28000233361661e-174,"8":-0.30938217828204306}},{"sx":1,"sy":1,"depth":9,"w":{"0":-0.39267896322074847,"1":-2.076708973811705e-25,"2":-0.2932092028344435,"3":-0.35022816271743945,"4":-0.003968765808487724,"5":-0.36265122233784053,"6":-0.3629325282936719,"7":-4.6151585263759715e-65,"8":-0.29607400954460444}},{"sx":1,"sy":1,"depth":9,"w":{"0":-0.3433221966123911,"1":-1.874436159636008e-38,"2":-0.30107033025002583,"3":-0.35194011828155936,"4":-0.0047673080506943095,"5":-0.3684598681433321,"6":-0.34835445746541754,"7":9.928477391889804e-19,"8":-0.2950543298689834}},{"sx":1,"sy":1,"depth":9,"w":{"0":-0.3437625822228487,"1":-2.048403984830183e-22,"2":-0.27660846194327027,"3":-0.3502088677899548,"4":-0.004982700272130495,"5":-0.3675015394494551,"6":-0.36497253379995354,"7":-1.0092401545275068e-87,"8":-0.2964291692169643}},{"sx":1,"sy":1,"depth":9,"w":{"0":-0.34347777016529446,"1":-2.702572105860885e-221,"2":-0.27789753032108594,"3":-0.35018866956257017,"4":-0.004476036747519645,"5":-0.3583960849954299,"6":-0.35787294470471376,"7":2.7486381769122695e-302,"8":-0.2953859291416531}},{"sx":1,"sy":1,"depth":9,"w":{"0":-0.3519317184444145,"1":-3.3833497928469834e-186,"2":-0.30122674853977677,"3":-0.3783416433554592,"4":-0.003661790226335705,"5":-0.35831337523124646,"6":-0.37460352722028345,"7":-3.4901561917787027e-183,"8":-0.3257969787741087}},{"sx":1,"sy":1,"depth":9,"w":{"0":-0.34917265719844215,"1":-1.9841663570189282e-120,"2":-0.3236062792376007,"3":-0.3507137868063085,"4":-0.0033751292002158896,"5":-0.39534207623297446,"6":-0.3943353044973536,"7":-1.1009955256356459e-44,"8":-0.30956439071936814}},{"sx":1,"sy":1,"depth":9,"w":{"0":-0.3832189376619759,"1":-4.142342660427204e-300,"2":-0.3193906914339232,"3":-0.35076556630076733,"4":-0.00358927239999622,"5":-0.38363015062478334,"6":-0.3484678763834362,"7":-1.9558094221129433e-262,"8":-0.29579790553869206}},{"sx":1,"sy":1,"depth":9,"w":{"0":-0.3570686625152881,"1":-1.2828581378257414e-114,"2":-0.30408518422868364,"3":-0.35497266577994063,"4":-0.0047982570847451295,"5":-0.3558604516827634,"6":-0.37973572052411125,"7":-4.395386671060144e-142,"8":-0.3009979211245628}},{"sx":1,"sy":1,"depth":9,"w":{"0":-0.342371794425363,"1":-3.44388307325652e-232,"2":-0.2907076899147526,"3":-0.3517218986667945,"4":-0.005113370639547194,"5":-0.35488080281974266,"6":-0.3503570502634278,"7":3.443726180324604e-30,"8":-0.29502921428729784}},{"sx":1,"sy":1,"depth":9,"w":{"0":-0.3489695583091398,"1":-9.318248806455169e-45,"2":-0.28865381673494905,"3":-0.35324631740605844,"4":-0.0035387180914787436,"5":-0.353007529553013,"6":-0.3963592556294197,"7":-1.4353908753612435e-73,"8":-0.3081067175531713}},{"sx":1,"sy":1,"depth":9,"w":{"0":-0.3488977445726835,"1":-7.24090694068252e-114,"2":-0.2838750266847418,"3":-0.3514173054655272,"4":-0.0042519107229638505,"5":-0.36534578438419996,"6":-0.35862312913079036,"7":1.3238949776047248e-275,"8":-0.33582382310156605}},{"sx":1,"sy":1,"depth":9,"w":{"0":-0.35865159209618913,"1":-1.5887348502728066e-244,"2":-0.2920604634068137,"3":-0.3573830369226246,"4":-0.004367629630194157,"5":-0.35599890943783025,"6":-0.34832132283649225,"7":-1.4764489686641317e-47,"8":-0.29496217714246276}},{"sx":1,"sy":1,"depth":9,"w":{"0":-0.3716269458402015,"1":-3.561798725086779e-74,"2":-0.28380766270629537,"3":-0.372610663345288,"4":-0.0035524862939882297,"5":-0.3921059059414075,"6":-0.3516736382524231,"7":1.2398642644598703e-273,"8":-0.30250038916877875}},{"sx":1,"sy":1,"depth":9,"w":{"0":-0.34236831373504395,"1":-8.256457369918645e-33,"2":-0.2772935173777901,"3":-0.37127263613476524,"4":-0.002729525593512939,"5":-0.3549942278797545,"6":-0.3533372801109642,"7":-8.378981264090941e-74,"8":-0.2953222629823282}},{"sx":1,"sy":1,"depth":9,"w":{"0":-0.38717889491069507,"1":-1.3047575594004923e-147,"2":-0.36071428326542215,"3":-0.351798007815359,"4":-0.003936065560799706,"5":-0.41680366440621425,"6":-0.35073311652274386,"7":-4.2600801486024736e-52,"8":-0.30608301093043483}},{"sx":1,"sy":1,"depth":9,"w":{"0":-0.3438049127455874,"1":-1.1972971273478505e-82,"2":-0.27632423481909385,"3":-0.35056816192537055,"4":-0.0031070162883930345,"5":-0.3524291004564991,"6":-0.35707346108194904,"7":3.913544070451248e-268,"8":-0.2948840361993449}},{"sx":1,"sy":1,"depth":9,"w":{"0":-0.34388682265711534,"1":-5.762787314564131e-60,"2":-0.28249691867042254,"3":-0.36805835435561424,"4":-0.005164246093978099,"5":-0.3523750312387619,"6":-0.356687473506922,"7":2.2488583463065726e-31,"8":-0.3032387270861383}},{"sx":1,"sy":1,"depth":9,"w":{"0":-0.35009469046728287,"1":-9.486762354629726e-237,"2":-0.299718474982235,"3":-0.35018893405017226,"4":-0.0035750254187598522,"5":-0.35657516970794245,"6":-0.36333934190155437,"7":-4.587962748789617e-305,"8":-0.3112105724301483}},{"sx":1,"sy":1,"depth":9,"w":{"0":-0.3685722635239605,"1":1.5e-323,"2":-0.3043816119236474,"3":-0.3502575875799362,"4":-0.00486820203100503,"5":-0.4249052507788171,"6":-0.36971748403226634,"7":-2e-323,"8":-0.30538785253013456}},{"sx":1,"sy":1,"depth":9,"w":{"0":-0.3431774742878133,"1":-7.9787073031148815e-202,"2":-0.29600188513447356,"3":-0.3501826453545087,"4":-0.004491481386159232,"5":-0.37669382050812605,"6":-0.3645290646919243,"7":-2.8167014555115164e-134,"8":-0.2961965017028215}},{"sx":1,"sy":1,"depth":9,"w":{"0":-0.34543022922723016,"1":-8.402777506533959e-86,"2":-0.2853349995080793,"3":-0.36565542303313825,"4":-0.0030369843042758306,"5":-0.36643629091615076,"6":-0.3960541843216125,"7":4.4858912339636275e-287,"8":-0.2952816683435764}},{"sx":1,"sy":1,"depth":9,"w":{"0":-0.3428545614972241,"1":-1.5717917284368375e-70,"2":-0.32503748594058673,"3":-0.3514780087069688,"4":-0.00269739818813239,"5":-0.353133740934935,"6":-0.3498982938045161,"7":-3.5e-323,"8":-0.30626601446924057}},{"sx":1,"sy":1,"depth":9,"w":{"0":-0.34214611883578405,"1":-3.479791598143845e-150,"2":-0.2825437170318212,"3":-0.35953955648570857,"4":-0.00385228143386407,"5":-0.3581288946704221,"6":-0.3483370190752783,"7":-9.015133269126901e-205,"8":-0.29710499989519856}},{"sx":1,"sy":1,"depth":9,"w":{"0":-0.37268539520190647,"1":-1.2097134801832624e-234,"2":-0.3056368263154535,"3":-0.35017988315729137,"4":-0.0035747175925659675,"5":-0.38180596077444046,"6":-0.3502580515713659,"7":-3.582400588483443e-98,"8":-0.30283435183232216}},{"sx":1,"sy":1,"depth":9,"w":{"0":-0.34615536967940785,"1":-8.588857236842319e-66,"2":-0.30804656107479506,"3":-0.37620055103634653,"4":-0.010381801541341894,"5":-0.3650596161095851,"6":-0.3535948435164439,"7":4.500091966864158e-280,"8":-0.30026576160968144}},{"sx":1,"sy":1,"depth":9,"w":{"0":-0.343214997837773,"1":-1.330359970399103e-161,"2":-0.2776619992168709,"3":-0.35072778531510873,"4":-0.00394227531339517,"5":-0.3558238386649531,"6":-0.37079359388471916,"7":9.540013984733551e-293,"8":-0.2949924257240081}},{"sx":1,"sy":1,"depth":9,"w":{"0":-0.3615698025664611,"1":-1.7801037661700144e-216,"2":-0.27640621471439514,"3":-0.3540494868768872,"4":-0.003805374353418655,"5":-0.36631834419254583,"6":-0.3489520765072886,"7":-1.1612552223235851e-80,"8":-0.29952462213714476}},{"sx":1,"sy":1,"depth":9,"w":{"0":-0.34261575905139213,"1":-4.610879104752903e-296,"2":-0.29786583132188854,"3":-0.35332933204219646,"4":-0.002803151008298738,"5":-0.4256364550153439,"6":-0.3490433913725516,"7":-6.695564145929441e-57,"8":-0.29586596058592746}},{"sx":1,"sy":1,"depth":9,"w":{"0":-0.3444510101392843,"1":-1.0323708680114975e-221,"2":-0.3134241911420576,"3":-0.35080288717762376,"4":-0.006231980825475131,"5":-0.3665919892979978,"6":-0.3734301568115593,"7":1.5528035076797946e-291,"8":-0.30522526796184357}},{"sx":1,"sy":1,"depth":9,"w":{"0":-0.3684868717435078,"1":-1.9496439196437654e-208,"2":-0.3183825202379157,"3":-0.40012003039273886,"4":-0.003989134416864613,"5":-0.35226225997996946,"6":-0.3488776416969475,"7":3.7721228207724806e-16,"8":-0.35366277051118616}},{"sx":1,"sy":1,"depth":9,"w":{"0":-0.3736798136575981,"1":-1.6469112479383873e-48,"2":-0.2760749843184364,"3":-0.374253576511793,"4":-0.00314794039151445,"5":-0.36440377721076744,"6":-0.3524056300062189,"7":4.963757898291581e-23,"8":-0.31167336486204106}},{"sx":1,"sy":1,"depth":9,"w":{"0":-0.3972857149716613,"1":-1.4611993692898567e-239,"2":-0.2880801020875964,"3":-0.35159844853137956,"4":-0.005563364996621017,"5":-0.3810409726250859,"6":-0.3501867462087718,"7":1.5211255659922904e-278,"8":-0.3042115413131686}},{"sx":1,"sy":1,"depth":9,"w":{"0":-0.37932751390631675,"1":-6.910350518142796e-100,"2":-0.28181081946642006,"3":-0.35309179024026327,"4":-0.0034483921532351717,"5":-0.3573784448700308,"6":-0.3488429785184411,"7":-2.5045806934570225e-175,"8":-0.2946151316987381}},{"sx":1,"sy":1,"depth":9,"w":{"0":-0.3428108046165884,"1":-8.736833375106637e-240,"2":-0.3453911510031305,"3":-0.3526793515774535,"4":-0.0038476628498940743,"5":-0.3538688700439766,"6":-0.3716219379874865,"7":1.557271925571125e-24,"8":-0.3000852632190281}},{"sx":1,"sy":1,"depth":9,"w":{"0":-0.3487200792016342,"1":-1.966478540587208e-185,"2":-0.3066590687925557,"3":-0.3737730639468271,"4":-0.0031950275579041665,"5":-0.3748953244895751,"6":-0.3539516067968808,"7":-1.2991009399025e-310,"8":-0.29704299784948185}},{"sx":1,"sy":1,"depth":9,"w":{"0":-0.34623840765621294,"1":-4.220199483765829e-147,"2":-0.2784618896839598,"3":-0.35135078857870694,"4":-0.004247697499113206,"5":-0.3566679988194096,"6":-0.349453213709105,"7":5.804474425935912e-291,"8":-0.2956945903448879}},{"sx":1,"sy":1,"depth":9,"w":{"0":-0.35788197535135,"1":1.5e-323,"2":-0.28480056699865336,"3":-0.3519227269749298,"4":-0.003876278149557468,"5":-0.3534965996578264,"6":-0.3544098079032378,"7":-4.975718711618273e-69,"8":-0.2949904147780545}},{"sx":1,"sy":1,"depth":9,"w":{"0":-0.34558385404370917,"1":4.483543966524158e-18,"2":-0.27635224683924503,"3":-0.4026644904494003,"4":-0.0047067258292550745,"5":-0.417842480280984,"6":-0.3626727258140184,"7":2.0413111921264594e-274,"8":-0.2963960145902133}},{"sx":1,"sy":1,"depth":9,"w":{"0":-0.3426439639089296,"1":-1.7245859467207178e-162,"2":-0.29595426664377217,"3":-0.35118865870350796,"4":-0.005333690612644888,"5":-0.3532159887103999,"6":-0.4075728666621143,"7":-3.3296485017915995e-64,"8":-0.29734727095673064}},{"sx":1,"sy":1,"depth":9,"w":{"0":-0.40347049261217466,"1":-2.5234943215696536e-48,"2":-0.30558992897682624,"3":-0.36964921456808375,"4":-0.005967840729983484,"5":-0.35326323650727504,"6":-0.38010846987686797,"7":-2.5227156873254427e-141,"8":-0.296279451443374}},{"sx":1,"sy":1,"depth":9,"w":{"0":-0.3451739954131855,"1":-2.077357106643635e-87,"2":-0.27681273018733465,"3":-0.3754949757810018,"4":-0.004375554875005255,"5":-0.36020311921404213,"6":-0.34864155371769356,"7":4.8106979634196843e-300,"8":-0.2969674874302674}},{"sx":1,"sy":1,"depth":9,"w":{"0":-0.3490196462211092,"1":-1.3422572789474435e-110,"2":-0.3250417343437009,"3":-0.35053269556630395,"4":-0.005859489132801389,"5":-0.35366431548062,"6":-0.39031349396039045,"7":-7.1477484068507245e-301,"8":-0.2956742968597689}},{"sx":1,"sy":1,"depth":9,"w":{"0":-0.42618261171381905,"1":-1.7856096227502377e-23,"2":-0.30389301852376943,"3":-0.3507955477015157,"4":-0.004980524846887336,"5":-0.36648090904636377,"6":-0.4105821803534459,"7":-5.399712918581518e-42,"8":-0.3563549351594999}},{"sx":1,"sy":1,"depth":9,"w":{"0":-0.34225726659274697,"1":-8.845355885106545e-69,"2":-0.3123532255108841,"3":-0.4132669945717414,"4":-0.004151357598758933,"5":-0.35221994879094165,"6":-0.377406204189686,"7":5e-324,"8":-0.30408449389673564}},{"sx":1,"sy":1,"depth":9,"w":{"0":-0.3421596243347251,"1":0,"2":-0.2981616945803379,"3":-0.3631483237086871,"4":-0.003767661405151355,"5":-0.35378923625569886,"6":-0.34940572432852945,"7":-5e-324,"8":-0.30095028606742175}},{"sx":1,"sy":1,"depth":9,"w":{"0":-0.4333254861787688,"1":-1.25321483423317e-35,"2":-0.3288398922962817,"3":-0.4318978821847816,"4":-0.003141085279776976,"5":-0.3797027077139286,"6":-0.35257623290548906,"7":-1.1359995693794151e-96,"8":-0.38526080780576605}},{"sx":1,"sy":1,"depth":9,"w":{"0":-0.39351927580870105,"1":-2.810886645176065e-41,"2":-0.32263602888485293,"3":-0.35169075175070713,"4":-0.0038566483787454853,"5":-0.3577370592957444,"6":-0.3511504204522594,"7":-7.582289217737675e-202,"8":-0.295307548158823}},{"sx":1,"sy":1,"depth":9,"w":{"0":-0.34256501998181055,"1":-1.2194369112743014e-28,"2":-0.31181532760155023,"3":-0.3518401483522156,"4":-0.0064319406798892965,"5":-0.36670879454625216,"6":-0.391105297058886,"7":-2.5422930615893027e-212,"8":-0.3148124895179383}},{"sx":1,"sy":1,"depth":9,"w":{"0":-0.3421847959759754,"1":-3.58735650654786e-238,"2":-0.278106151827587,"3":-0.35030408115012684,"4":-0.003212216693976405,"5":-0.3552221220389572,"6":-0.3848437313728654,"7":3.820237716277667e-12,"8":-0.36585632844033444}},{"sx":1,"sy":1,"depth":9,"w":{"0":-0.38995925580095864,"1":-3.5e-323,"2":-0.2761246027693621,"3":-0.3506344145914237,"4":-0.0034365202205561655,"5":-0.3595206190893035,"6":-0.40807316952667183,"7":6.362296429271232e-14,"8":-0.3005434023447465}},{"sx":1,"sy":1,"depth":9,"w":{"0":-0.3435890834987452,"1":-9.236200126306524e-30,"2":-0.321796434605382,"3":-0.35037504743350134,"4":-0.0037697335399651775,"5":-0.38870245462793157,"6":-0.35331810296888916,"7":5e-324,"8":-0.29536111357702566}},{"sx":1,"sy":1,"depth":9,"w":{"0":-0.3422859378437111,"1":-1.1692229214847677e-33,"2":-0.28202488812020626,"3":-0.3616544083219722,"4":-0.006234849051256464,"5":-0.3526961177044049,"6":-0.3500959974028922,"7":-1.1636764234624644e-53,"8":-0.30388164706158527}},{"sx":1,"sy":1,"depth":9,"w":{"0":-0.34233566214924,"1":-7.1030813492778e-279,"2":-0.2765789226534585,"3":-0.35095671095771125,"4":-0.006148301873509724,"5":-0.35828273416537126,"6":-0.3491648683806081,"7":1.369092029504266e-31,"8":-0.2949107291862606}},{"sx":1,"sy":1,"depth":9,"w":{"0":-0.34502759522192744,"1":-1.0391961508438523e-29,"2":-0.2979472748368547,"3":-0.3512826603254919,"4":-0.004696336202974031,"5":-0.35644242066493564,"6":-0.3711385723497266,"7":2.8862060119694868e-285,"8":-0.29512064702461394}},{"sx":1,"sy":1,"depth":9,"w":{"0":-0.34854069405276694,"1":-3.5e-323,"2":-0.2760164339027464,"3":-0.36792724695664053,"4":-0.003503891455205142,"5":-0.3722561481002212,"6":-0.3496776585528089,"7":-3.895561039947521e-58,"8":-0.3007511042095005}},{"sx":1,"sy":1,"depth":9,"w":{"0":-0.34438169219988585,"1":-1.8287656809688417e-221,"2":-0.31632661854964983,"3":-0.35736682647879203,"4":-0.00653712078090108,"5":-0.3517510139853496,"6":-0.350635033764484,"7":-8.367351185092642e-45,"8":-0.31627218703826154}},{"sx":1,"sy":1,"depth":9,"w":{"0":-0.34856786301908205,"1":-2.8606971875708716e-49,"2":-0.2761366033340929,"3":-0.3536193331955889,"4":-0.0035995504035694534,"5":-0.35822188312353936,"6":-0.35199492381262965,"7":2.6436565194153414e-278,"8":-0.2956775908194087}},{"sx":1,"sy":1,"depth":9,"w":{"0":-0.36497804677011103,"1":-8.015726551316239e-40,"2":-0.2775983619290508,"3":-0.38456289482251005,"4":-0.003962277030960097,"5":-0.38070170879104626,"6":-0.35122717376430623,"7":3.9487116071803326e-12,"8":-0.29857861346137005}},{"sx":1,"sy":1,"depth":9,"w":{"0":-0.3460917346569529,"1":-1.5907364045215037e-217,"2":-0.2890456193322106,"3":-0.3591593488311781,"4":-0.0043160333700849205,"5":-0.3729505080829256,"6":-0.3505013058956555,"7":6.385489032539898e-289,"8":-0.29537734574761243}},{"sx":1,"sy":1,"depth":9,"w":{"0":-0.41543217610247873,"1":-4.681133948801978e-230,"2":-0.30258872357506506,"3":-0.35269586261886393,"4":-0.007163747571348716,"5":-0.3831553616094054,"6":-0.3747004678973744,"7":1.082727856506787e-285,"8":-0.32736857720651313}},{"sx":1,"sy":1,"depth":9,"w":{"0":-0.37458203278825497,"1":-6.116295032217862e-29,"2":-0.2984561939862101,"3":-0.35089955170086407,"4":-0.004281260708764861,"5":-0.3553609279942639,"6":-0.34935566811747676,"7":-2.671699194992601e-63,"8":-0.29657458471928744}},{"sx":1,"sy":1,"depth":9,"w":{"0":-0.342259755939467,"1":-4.908542789502218e-120,"2":-0.2953566244043434,"3":-0.3536391096041124,"4":-0.004462722946430621,"5":-0.3526171316653519,"6":-0.35232979579575313,"7":-5.18516007641675e-52,"8":-0.2977894224294613}},{"sx":1,"sy":1,"depth":9,"w":{"0":-0.35334907767944024,"1":-7.823806380952001e-59,"2":-0.2790076741037844,"3":-0.36410881744788426,"4":-0.003550385983849452,"5":-0.38175129564581595,"6":-0.3537051330783511,"7":5e-323,"8":-0.31594810532338274}},{"sx":1,"sy":1,"depth":9,"w":{"0":-0.34467473885469435,"1":-1.1268585502780231e-21,"2":-0.27660214074247785,"3":-0.35358837073648863,"4":-0.003968491879669306,"5":-0.36075033029672815,"6":-0.35464300096690315,"7":6.46762712761855e-29,"8":-0.2952494456692648}},{"sx":1,"sy":1,"depth":9,"w":{"0":-0.35558571841433506,"1":-5.106840473542616e-25,"2":-0.2768560024655823,"3":-0.352395777507266,"4":-0.004948087984142363,"5":-0.3562654157613492,"6":-0.3490698772340331,"7":5.489599210266594e-284,"8":-0.29590371601325893}},{"sx":1,"sy":1,"depth":9,"w":{"0":-0.37605150100123386,"1":-3.292462508279215e-35,"2":-0.3625564301620888,"3":-0.3863357923936265,"4":-0.003347572323589982,"5":-0.4113974177126139,"6":-0.3489272524339462,"7":4e-323,"8":-0.3744209072168088}},{"sx":1,"sy":1,"depth":9,"w":{"0":-0.3432060025333259,"1":-1.6502579066581308e-101,"2":-0.3297487574199303,"3":-0.3542377216233886,"4":-0.005124473608881687,"5":-0.3577526581970688,"6":-0.4289886810378076,"7":-3.8365332601808813e-35,"8":-0.3032182910382845}},{"sx":1,"sy":1,"depth":9,"w":{"0":-0.35791061952410314,"1":-7.932747342172237e-72,"2":-0.28804368630929195,"3":-0.3521419187075519,"4":-0.004291038802166834,"5":-0.37346126370455274,"6":-0.3483534597384549,"7":-2.912170947990309e-53,"8":-0.29595265300650064}},{"sx":1,"sy":1,"depth":9,"w":{"0":-0.3720682866608836,"1":-3.8696815516518956e-32,"2":-0.27658873587732596,"3":-0.3504735296601562,"4":-0.006755221187382704,"5":-0.3791164683213508,"6":-0.35246303497683745,"7":-4.893488638146777e-28,"8":-0.29570517680347325}},{"sx":1,"sy":1,"depth":9,"w":{"0":-0.34272842591245395,"1":-2.2193046135218915e-163,"2":-0.3225578918528664,"3":-0.3521319262300601,"4":-0.004739669498272635,"5":-0.36110922809561086,"6":-0.35129370739621885,"7":1.8791031328517954e-287,"8":-0.3060400754721066}},{"sx":1,"sy":1,"depth":9,"w":{"0":-0.34880077324754605,"1":-5.9650574755333186e-89,"2":-0.3063553292068212,"3":-0.35266417796366034,"4":-0.00503123227471638,"5":-0.38519873434318125,"6":-0.3568200634216025,"7":7.048200570643099e-285,"8":-0.3165539289567465}},{"sx":1,"sy":1,"depth":9,"w":{"0":-0.34257463257661575,"1":-2.3197421857862598e-51,"2":-0.29359472221165006,"3":-0.3596853346174784,"4":-0.006672393476250997,"5":-0.3578299046429481,"6":-0.3739632564855349,"7":0,"8":-0.31249926926043853}},{"sx":1,"sy":1,"depth":9,"w":{"0":-0.34360443913944033,"1":-8.685556839156108e-216,"2":-0.2905134125814076,"3":-0.383981349744758,"4":-0.003354342089637348,"5":-0.3554156321576523,"6":-0.39892435801792364,"7":-8.932608623656867e-92,"8":-0.33072190481868363}},{"sx":1,"sy":1,"depth":9,"w":{"0":-0.3434733150813894,"1":-5.006627269007181e-238,"2":-0.30232814576699263,"3":-0.3554506066236247,"4":-0.0046088745460545035,"5":-0.35444195147060564,"6":-0.35187630867998315,"7":2.5e-323,"8":-0.2953367495848198}},{"sx":1,"sy":1,"depth":9,"w":{"0":-0.3423917698589221,"1":2.5e-323,"2":-0.27763956373155074,"3":-0.36124296649645704,"4":-0.002878270950691101,"5":-0.35805611291832545,"6":-0.3641446568408351,"7":2.5e-323,"8":-0.29515826796680167}},{"sx":1,"sy":1,"depth":9,"w":{"0":-0.34355609752900096,"1":-2.2617166301285547e-194,"2":-0.29375417848938234,"3":-0.3506814527061826,"4":-0.003597170113130942,"5":-0.3541461011318607,"6":-0.35083715336898896,"7":-2.0234256580909096e-38,"8":-0.30784220165869547}},{"sx":1,"sy":1,"depth":9,"w":{"0":-0.342395345595719,"1":-1.7194396763047132e-104,"2":-0.2903733944627213,"3":-0.3518177742483428,"4":-0.005102698546102407,"5":-0.3548100590096288,"6":-0.34810399182701274,"7":-1.035061224066504e-74,"8":-0.29552860474901704}},{"sx":1,"sy":1,"depth":9,"w":{"0":-0.3422352354870138,"1":-7.113636882898551e-81,"2":-0.2826946988082897,"3":-0.35075257799536314,"4":-0.0036047465227477806,"5":-0.35508604855552284,"6":-0.3907183337161785,"7":2.803620078033625e-26,"8":-0.3186716000582774}},{"sx":1,"sy":1,"depth":9,"w":{"0":-0.378513543918667,"1":-1.5231891748896447e-145,"2":-0.3336661090545646,"3":-0.35097370601528344,"4":-0.003657612028056937,"5":-0.35491096868436006,"6":-0.3885727054409962,"7":-7.103661542928926e-77,"8":-0.3350308193727855}},{"sx":1,"sy":1,"depth":9,"w":{"0":-0.37887756229634756,"1":-1.8803333257765653e-214,"2":-0.31555052114496435,"3":-0.35285712858932644,"4":-0.004095106290412036,"5":-0.3569560627403642,"6":-0.35459260354558414,"7":5e-324,"8":-0.2977856890351117}},{"sx":1,"sy":1,"depth":9,"w":{"0":-0.3461030788694968,"1":-7.00759041988208e-64,"2":-0.31350007344670905,"3":-0.35233988247913717,"4":-0.004698942094754813,"5":-0.3552030539231959,"6":-0.3698450860575258,"7":-4.2668065839045075e-59,"8":-0.30659640075444433}},{"sx":1,"sy":1,"depth":9,"w":{"0":-0.3422339230698792,"1":-3.687730959962547e-238,"2":-0.3708715028315865,"3":-0.3530941773295607,"4":-0.004903784513842296,"5":-0.4429403850389134,"6":-0.37168767018496796,"7":2.5e-323,"8":-0.2957694580140877}},{"sx":1,"sy":1,"depth":9,"w":{"0":-0.3516065029752046,"1":-3.548847218026982e-45,"2":-0.2905305510544055,"3":-0.3511465640779271,"4":-0.00447725067558504,"5":-0.3819806592385279,"6":-0.3551199757704224,"7":3.1855463023227455e-302,"8":-0.2964699745512559}},{"sx":1,"sy":1,"depth":9,"w":{"0":-0.3551303839531335,"1":-1.5433641496251457e-25,"2":-0.2893553539397846,"3":-0.35024536728729116,"4":-0.006277465657584033,"5":-0.36086699100619707,"6":-0.35856993261611014,"7":-1.6197882599399428e-46,"8":-0.3040589155877478}},{"sx":1,"sy":1,"depth":9,"w":{"0":-0.37811538411198836,"1":-1.3006297073499705e-39,"2":-0.28197749489032053,"3":-0.3502781885943806,"4":-0.005571262634441671,"5":-0.35341355447087286,"6":-0.37424826808705286,"7":-2.3379839140742846e-65,"8":-0.3026786328450454}},{"sx":1,"sy":1,"depth":9,"w":{"0":-0.34241440777770904,"1":-7.30590892847438e-23,"2":-0.30420662825396594,"3":-0.4236845425362957,"4":-0.004715742935153483,"5":-0.38361549681420437,"6":-0.36315743045151944,"7":-2.1416910405532045e-59,"8":-0.30224787570559236}},{"sx":1,"sy":1,"depth":9,"w":{"0":-0.3427038709998296,"1":-4.5161806829157924e-262,"2":-0.3216006463825925,"3":-0.3525596710123395,"4":-0.007500805127469055,"5":-0.37874247798765737,"6":-0.3526030231485633,"7":-2.739531548706739e-65,"8":-0.2952751707760607}},{"sx":1,"sy":1,"depth":9,"w":{"0":-0.35442412916535876,"1":-4.844717378078932e-30,"2":-0.28421897873798435,"3":-0.35029805688483334,"4":-0.00545901998830242,"5":-0.3603638976895021,"6":-0.35917805968653177,"7":-4.56563013333097e-56,"8":-0.3034257743561832}},{"sx":1,"sy":1,"depth":9,"w":{"0":-0.3444739776613772,"1":-2.3721302518346667e-108,"2":-0.27878342393699473,"3":-0.35040961308953594,"4":-0.0030272865126906683,"5":-0.3553936986353694,"6":-0.3516927765876106,"7":-4.016839999682069e-155,"8":-0.33730366947348084}},{"sx":1,"sy":1,"depth":9,"w":{"0":-0.35110727984356965,"1":-3.5e-323,"2":-0.2828307767308943,"3":-0.371708499698971,"4":-0.002905804072041289,"5":-0.35275116355628044,"6":-0.3913088714844766,"7":-1.3526537934001678e-38,"8":-0.30156639753487624}},{"sx":1,"sy":1,"depth":9,"w":{"0":-0.3424318647987144,"1":-3.8276534011796935e-258,"2":-0.3513463052416776,"3":-0.35799823985675944,"4":-0.0026974513879330516,"5":-0.3546513996812513,"6":-0.36797407659579817,"7":-2.09388215159373e-152,"8":-0.29766721194744117}},{"sx":1,"sy":1,"depth":9,"w":{"0":-0.34263409197463557,"1":-4.77288663768216e-14,"2":-0.27635741213478593,"3":-0.3504801562745595,"4":-0.004461343261813126,"5":-0.35274655149329526,"6":-0.36568449948069187,"7":-2.2736619271222724e-35,"8":-0.2966369793972368}},{"sx":1,"sy":1,"depth":9,"w":{"0":-0.34308489870642234,"1":-1.0308646886725864e-74,"2":-0.2907795143008922,"3":-0.35023009058010657,"4":-0.0035052813652727203,"5":-0.39014205115346984,"6":-0.3491159337804236,"7":-7.955746429706585e-189,"8":-0.31922737447260313}},{"sx":1,"sy":1,"depth":9,"w":{"0":-0.34274228325662554,"1":-1.121325039518259e-128,"2":-0.27937801906003257,"3":-0.3612584718747114,"4":-0.008059293619062765,"5":-0.3534938772057559,"6":-0.3485524792183914,"7":-1.0898014620217224e-136,"8":-0.29474246968562584}},{"sx":1,"sy":1,"depth":9,"w":{"0":-0.367991203086579,"1":-3.6955771289013386e-25,"2":-0.27669505455559146,"3":-0.35297741910426217,"4":-0.0037784871775200972,"5":-0.36321684665673754,"6":-0.3488705983002607,"7":-4.737370809785346e-14,"8":-0.29495748933117666}},{"sx":1,"sy":1,"depth":9,"w":{"0":-0.35577973564329196,"1":1e-323,"2":-0.2840376033074371,"3":-0.3631948983327387,"4":-0.004246556500126922,"5":-0.35900651051355115,"6":-0.36877486644589597,"7":-1.1241011891820016e-47,"8":-0.30728934979042677}},{"sx":1,"sy":1,"depth":9,"w":{"0":-0.3939979473924858,"1":-1.6223334897293967e-233,"2":-0.2847171685261266,"3":-0.3519232079127162,"4":-0.003562447548706786,"5":-0.38737578728663813,"6":-0.3855298380228248,"7":-1.0927924290012225e-95,"8":-0.3389860074384784}},{"sx":1,"sy":1,"depth":9,"w":{"0":-0.3461915267443789,"1":-2.4746039357029945e-290,"2":-0.2760503019644864,"3":-0.37211742832348904,"4":-0.0035172420065237987,"5":-0.3549786311714637,"6":-0.35988635746073444,"7":-2.366983255834018e-154,"8":-0.2960038884982287}},{"sx":1,"sy":1,"depth":9,"w":{"0":-0.34291649508757915,"1":-7.475002082300902e-129,"2":-0.28151075247390567,"3":-0.35320877872646944,"4":-0.0035645200112261097,"5":-0.37478133194288754,"6":-0.3525497577451938,"7":-8.401144245618384e-30,"8":-0.320178184080087}},{"sx":1,"sy":1,"depth":9,"w":{"0":-0.3433341694877689,"1":-6.324915576326264e-92,"2":-0.2875398186605802,"3":-0.3705483996989734,"4":-0.005002730939971917,"5":-0.3524569255141483,"6":-0.3519166805003865,"7":-2.082467025258219e-102,"8":-0.30061701097603616}},{"sx":1,"sy":1,"depth":9,"w":{"0":-0.3433752308016973,"1":-3.541791858309609e-48,"2":-0.2890438512478745,"3":-0.3504862354210861,"4":-0.004880172516821194,"5":-0.354877041071203,"6":-0.3481695356596038,"7":-2e-323,"8":-0.2980473936889472}},{"sx":1,"sy":1,"depth":9,"w":{"0":-0.35725815029042435,"1":-1.1765790581368383e-36,"2":-0.30226647495176634,"3":-0.35035367975353016,"4":-0.003935459648531954,"5":-0.35492459344520527,"6":-0.3764386228185502,"7":7.60468739403321e-280,"8":-0.2952422312802036}},{"sx":1,"sy":1,"depth":9,"w":{"0":-0.3500414300168522,"1":-5.202582808412912e-229,"2":-0.304260286941379,"3":-0.35136992993254546,"4":-0.004593754093650697,"5":-0.35523075936172005,"6":-0.361478663519298,"7":-4.238611320132868e-40,"8":-0.2968469028181452}},{"sx":1,"sy":1,"depth":9,"w":{"0":-0.3423262423703601,"1":-2.4822792182765866e-43,"2":-0.294041677017538,"3":-0.35269310303798884,"4":-0.004094268678255184,"5":-0.38470182307311745,"6":-0.372545408221501,"7":2.1919891555525562e-290,"8":-0.2945542219592708}},{"sx":1,"sy":1,"depth":9,"w":{"0":-0.3470022528056481,"1":-2.0639369583187003e-172,"2":-0.2769529652492555,"3":-0.3700534921605258,"4":-0.003734534942755332,"5":-0.35475368125388773,"6":-0.368929386430847,"7":-1.2302410267675874e-45,"8":-0.30065694739451343}},{"sx":1,"sy":1,"depth":9,"w":{"0":-0.3424211727661476,"1":-1.0082763719918791e-222,"2":-0.3122042686986608,"3":-0.35659690136498357,"4":-0.0044436274126554345,"5":-0.3536404935054346,"6":-0.3696625255377446,"7":1.2364859160994005e-299,"8":-0.29514321843434593}},{"sx":1,"sy":1,"depth":9,"w":{"0":-0.3425167340922189,"1":-1.1667252527662993e-61,"2":-0.34982390644749134,"3":-0.38844821844674815,"4":-0.005222540855662964,"5":-0.35413130208532634,"6":-0.35865531084396707,"7":3.396171279727765e-26,"8":-0.34397264828021035}},{"sx":1,"sy":1,"depth":9,"w":{"0":-0.3527023932769893,"1":-3.149563710692269e-94,"2":-0.3089361195682131,"3":-0.3757931595702952,"4":-0.009937849108120313,"5":-0.35615120093229136,"6":-0.4141786416633446,"7":-1.1343624869101054e-51,"8":-0.3285807893662736}},{"sx":1,"sy":1,"depth":9,"w":{"0":-0.3455546910684743,"1":-8.298328014267682e-229,"2":-0.3367028421695314,"3":-0.36571362119126194,"4":-0.0035621978059462134,"5":-0.3526996317399173,"6":-0.35928481125277667,"7":-8.842598093688138e-97,"8":-0.2997886161261954}},{"sx":1,"sy":1,"depth":9,"w":{"0":-0.367133647701384,"1":-1.1113504297848872e-50,"2":-0.2798276191496954,"3":-0.3502780523745544,"4":-0.004321091834000488,"5":-0.36140208614759667,"6":-0.3494985156730939,"7":-1e-323,"8":-0.3066260312296794}},{"sx":1,"sy":1,"depth":9,"w":{"0":-0.344222662585027,"1":1.7776165520666603e-15,"2":-0.30712242885183655,"3":-0.35032467400079775,"4":-0.003948132583011899,"5":-0.3539741482657391,"6":-0.36948845593824814,"7":-4.073476367815042e-175,"8":-0.31731885908447893}},{"sx":1,"sy":1,"depth":9,"w":{"0":-0.36151745575581007,"1":-3.2081652129697753e-41,"2":-0.33517890733394173,"3":-0.3501207900714888,"4":-0.006978223785527519,"5":-0.3522527585283178,"6":-0.3512591727931308,"7":-1.2235768682925468e-73,"8":-0.30781987058285687}},{"sx":1,"sy":1,"depth":9,"w":{"0":-0.3430093798478856,"1":-1.5156259067341574e-207,"2":-0.27637387552200615,"3":-0.3507080697260777,"4":-0.004188663542606155,"5":-0.3758218732992006,"6":-0.41368740274512616,"7":-5.265291599798537e-91,"8":-0.29561422200470416}},{"sx":1,"sy":1,"depth":9,"w":{"0":-0.3473787512678196,"1":-6.945411004843654e-34,"2":-0.2871246143189956,"3":-0.35529803385083464,"4":-0.0036087020498097163,"5":-0.3992036167618227,"6":-0.35926575585380505,"7":2.8072684405487808e-15,"8":-0.3016336400890494}},{"sx":1,"sy":1,"depth":9,"w":{"0":-0.382752373942527,"1":-9.396919562219485e-35,"2":-0.2822624911283522,"3":-0.35180715340729457,"4":-0.002850623861180089,"5":-0.3523976143831457,"6":-0.35300434835899047,"7":-1.1370863189980327e-18,"8":-0.2955275236794548}},{"sx":1,"sy":1,"depth":9,"w":{"0":-0.34286983695548984,"1":-2.5445353177831417e-59,"2":-0.30556545485210823,"3":-0.3503035840632275,"4":-0.003510261698619099,"5":-0.3530119934541072,"6":-0.34908055432510593,"7":3.181115137682759e-19,"8":-0.2947082556108186}},{"sx":1,"sy":1,"depth":9,"w":{"0":-0.3513493525379051,"1":-6.898124670138462e-240,"2":-0.27790607604243517,"3":-0.35275970382214933,"4":-0.004011288556919235,"5":-0.4266478414160525,"6":-0.35102683491247366,"7":-1.2844907242309575e-61,"8":-0.2999364018586684}},{"sx":1,"sy":1,"depth":9,"w":{"0":-0.35511798373676434,"1":-1.2145188765168325e-221,"2":-0.3011467717077042,"3":-0.4043012284706944,"4":-0.0030749171922255848,"5":-0.36330516328718243,"6":-0.38250571260030214,"7":5.387438316147141e-280,"8":-0.30898487789581414}},{"sx":1,"sy":1,"depth":9,"w":{"0":-0.35445031367217994,"1":-1.0118324693966481e-47,"2":-0.27624890047559963,"3":-0.42136375025105693,"4":-0.0307729378375803,"5":-0.3523053547363079,"6":-0.3702707594784933,"7":-1.0664521971356692e-35,"8":-0.30019825343696394}},{"sx":1,"sy":1,"depth":9,"w":{"0":-0.377201126004161,"1":-8.974199864545022e-95,"2":-0.27635527673473725,"3":-0.3507313522004925,"4":-0.0035864889759264613,"5":-0.35250040324542836,"6":-0.36357255465924077,"7":-1.3277765346421523e-234,"8":-0.2946851092038967}},{"sx":1,"sy":1,"depth":9,"w":{"0":-0.35410091078808215,"1":-1.975260757079839e-221,"2":-0.27656048160687713,"3":-0.3503008454099545,"4":-0.0031413667245400903,"5":-0.3629364719297929,"6":-0.3622640482142461,"7":-3.304502367606586e-130,"8":-0.322228609014377}},{"sx":1,"sy":1,"depth":9,"w":{"0":-0.3501871349330058,"1":-3.0431080908302004e-182,"2":-0.27719351414764215,"3":-0.35118255028886775,"4":-0.004717127085922125,"5":-0.356760990070268,"6":-0.3549603735152999,"7":5.865532520533098e-302,"8":-0.32356109293370144}},{"sx":1,"sy":1,"depth":9,"w":{"0":-0.34421151148039314,"1":-1.153991685490128e-293,"2":-0.33322804174408427,"3":-0.35125356026150323,"4":-0.0035781622041390028,"5":-0.36201981680595274,"6":-0.34848207695202454,"7":-7.044322977274372e-96,"8":-0.29492315989869977}},{"sx":1,"sy":1,"depth":9,"w":{"0":-0.3423087362588175,"1":-2.145768053742958e-90,"2":-0.2993198499571003,"3":-0.35050643010081695,"4":-0.004549295767755873,"5":-0.35822698199191333,"6":-0.3484023477991902,"7":6.137451053847277e-274,"8":-0.3005042131104843}},{"sx":1,"sy":1,"depth":9,"w":{"0":-0.34590587484756546,"1":-1.3636428837355584e-216,"2":-0.28179213152087623,"3":-0.3502351956181517,"4":-0.005963598920358226,"5":-0.3596040307664342,"6":-0.35122598035278113,"7":-5.181095914580881e-44,"8":-0.30399331019279874}},{"sx":1,"sy":1,"depth":9,"w":{"0":-0.34242696103284104,"1":-3e-323,"2":-0.28638688496372694,"3":-0.36345102413027025,"4":-0.005416237491659663,"5":-0.3530917687537687,"6":-0.34869929145103756,"7":3e-323,"8":-0.29525509328038674}},{"sx":1,"sy":1,"depth":9,"w":{"0":-0.35096578536442496,"1":-2.281785064948446e-56,"2":-0.2764261782553201,"3":-0.3829344928357695,"4":-0.0027482325157567726,"5":-0.35644498227263033,"6":-0.35268015436446265,"7":1.4407726001625218e-23,"8":-0.2956536885114475}},{"sx":1,"sy":1,"depth":9,"w":{"0":-0.417085181157491,"1":-9.697654976282917e-36,"2":-0.2970518020333808,"3":-0.37251112061923847,"4":-0.0065192314182982705,"5":-0.3526057024776249,"6":-0.36309379955406457,"7":6.283196869492992e-279,"8":-0.3000474843098125}},{"sx":1,"sy":1,"depth":9,"w":{"0":-0.3578948617427368,"1":-5.449048107589258e-249,"2":-0.2874394862155672,"3":-0.3504313382425284,"4":-0.003262783378408018,"5":-0.3527026692237031,"6":-0.3943370350777346,"7":-2.8108933393664306e-40,"8":-0.347502569257851}},{"sx":1,"sy":1,"depth":9,"w":{"0":-0.34790341125570784,"1":-2.3016657391008755e-217,"2":-0.28083671319617914,"3":-0.3771315350433339,"4":-0.00393075903626187,"5":-0.3527171078422608,"6":-0.3625387591927825,"7":-4.82836728397172e-134,"8":-0.2946066278312719}},{"sx":1,"sy":1,"depth":9,"w":{"0":-0.3423568592520292,"1":-3e-323,"2":-0.31769748692676575,"3":-0.4036652861675966,"4":-0.0038168185512843724,"5":-0.353973424785058,"6":-0.3563325745108625,"7":-2e-323,"8":-0.31763070478130195}},{"sx":1,"sy":1,"depth":9,"w":{"0":-0.3436162855268064,"1":-9.86256593619135e-152,"2":-0.31466314222494207,"3":-0.3504072517844216,"4":-0.004852291048459416,"5":-0.35255626951271185,"6":-0.38582966307709915,"7":1e-323,"8":-0.29523399844084147}},{"sx":1,"sy":1,"depth":9,"w":{"0":-0.34263721963346966,"1":-4.0971241241227365e-28,"2":-0.27612071817090345,"3":-0.37067916993488037,"4":-0.011558688539059211,"5":-0.35637424643668386,"6":-0.4063958952600152,"7":1.1147727445633145e-302,"8":-0.2954837511251773}},{"sx":1,"sy":1,"depth":9,"w":{"0":-0.3421800127312567,"1":-2.1399347038500204e-136,"2":-0.2854099860265062,"3":-0.35030642257511435,"4":-0.0032192631209554336,"5":-0.3663288978470158,"6":-0.3704791277389686,"7":0,"8":-0.31635786511681174}},{"sx":1,"sy":1,"depth":9,"w":{"0":-0.38956293856159624,"1":-4.3649816151334917e-32,"2":-0.320940108048641,"3":-0.35052194643223133,"4":-0.0035481438861705095,"5":-0.3696574149344876,"6":-0.3515074077908968,"7":-6.6152331803836436e-52,"8":-0.3367984003960975}},{"sx":1,"sy":1,"depth":9,"w":{"0":-0.3421897849719588,"1":-1.5343221240631524e-58,"2":-0.30791283443364476,"3":-0.3521694155928986,"4":-0.004103438564092957,"5":-0.35366626066253276,"6":-0.3592003801208067,"7":-2.8367187981791204e-41,"8":-0.2948452390267255}},{"sx":1,"sy":1,"depth":9,"w":{"0":-0.3455558778633867,"1":-5.080978317959444e-29,"2":-0.2883724094179218,"3":-0.35020803739346146,"4":-0.004528112359422597,"5":-0.3698359746623199,"6":-0.3728880783858733,"7":-1e-323,"8":-0.2950232231622594}},{"sx":1,"sy":1,"depth":9,"w":{"0":-0.34824637683072196,"1":2e-323,"2":-0.289644713891533,"3":-0.3683716745424123,"4":-0.003617870499520781,"5":-0.35237147158983434,"6":-0.38169553782021315,"7":-3.1888539002956215e-35,"8":-0.3224687028124545}},{"sx":1,"sy":1,"depth":9,"w":{"0":-0.3425846778724278,"1":1.5e-323,"2":-0.2778764116070803,"3":-0.3551990970476932,"4":-0.0034896107616150668,"5":-0.35275361089579904,"6":-0.38755004791980646,"7":-3.157438330286309e-96,"8":-0.2946999884940346}},{"sx":1,"sy":1,"depth":9,"w":{"0":-0.34901619279349544,"1":-1.0917294123130398e-66,"2":-0.28324681186837714,"3":-0.35035528881522315,"4":-0.004540579030298511,"5":-0.3632569920285193,"6":-0.3484314075561367,"7":-1.280896009769248e-70,"8":-0.29475182541830514}},{"sx":1,"sy":1,"depth":9,"w":{"0":-0.34468844086749967,"1":-3.3104321069961833e-40,"2":-0.27655004774194764,"3":-0.36710624847117573,"4":-0.008775411938244647,"5":-0.35545340464895786,"6":-0.35215089828127366,"7":-4.138824062638328e-56,"8":-0.29509156961282607}},{"sx":1,"sy":1,"depth":9,"w":{"0":-0.3911143543608631,"1":-1.337115649642241e-199,"2":-0.31511442927695965,"3":-0.3557842064786471,"4":-0.003847619824806107,"5":-0.36234925773636634,"6":-0.3507051867805614,"7":1.7180635294112006e-15,"8":-0.29502895095848297}},{"sx":1,"sy":1,"depth":9,"w":{"0":-0.34264968632830334,"1":-5.779400140563747e-74,"2":-0.3039486713589648,"3":-0.35023427054739703,"4":-0.0036082203040164796,"5":-0.3952550560922992,"6":-0.35515254977865696,"7":1e-323,"8":-0.2950345183194644}},{"sx":1,"sy":1,"depth":9,"w":{"0":-0.345573931386167,"1":-1.1318244412958706e-233,"2":-0.2790457386109203,"3":-0.35159334008254023,"4":-0.00402788280563191,"5":-0.3559400775629754,"6":-0.3552147243316556,"7":-9.157872758633e-312,"8":-0.297273788016825}},{"sx":1,"sy":1,"depth":9,"w":{"0":-0.36976166218542417,"1":-6.711565742005284e-217,"2":-0.2913918705644399,"3":-0.3530476190902832,"4":-0.002954447849591918,"5":-0.40332284565012955,"6":-0.351291421414814,"7":-6.689636444214091e-108,"8":-0.3343656648690066}},{"sx":1,"sy":1,"depth":9,"w":{"0":-0.42735556389172225,"1":-1.718772395203841e-17,"2":-0.28792973159193186,"3":-0.36317023704854645,"4":-0.00395502380741926,"5":-0.4047415089681939,"6":-0.3609962342184315,"7":-1.0323025090945606e-126,"8":-0.2993271541547841}},{"sx":1,"sy":1,"depth":9,"w":{"0":-0.3423600967307592,"1":-6.177263999058742e-180,"2":-0.277830791084516,"3":-0.40660841622168065,"4":-0.02251485587981477,"5":-0.3528142612952905,"6":-0.3485535240368521,"7":-6.305116553920927e-20,"8":-0.32512890620877377}},{"sx":1,"sy":1,"depth":9,"w":{"0":-0.34288505148485127,"1":-3.059981488193097e-125,"2":-0.27628060156689777,"3":-0.35342273397851914,"4":-0.004093896335471715,"5":-0.35270478512064996,"6":-0.3540604634310527,"7":-1.9098017400943113e-198,"8":-0.2950070422449189}},{"sx":1,"sy":1,"depth":9,"w":{"0":-0.4322257507950663,"1":-9.554552424926188e-30,"2":-0.27854218941925646,"3":-0.3961108933137357,"4":-0.003518856008810068,"5":-0.43680763885629414,"6":-0.350147478463184,"7":-4.707659780335218e-225,"8":-0.3109500152253659}},{"sx":1,"sy":1,"depth":9,"w":{"0":-0.3818130143096303,"1":-5.069167465269841e-62,"2":-0.2763454240219988,"3":-0.35005530878216706,"4":-0.003167473059999594,"5":-0.35237312983001895,"6":-0.3704474937166639,"7":-3.5288879967752195e-40,"8":-0.2999543420876425}},{"sx":1,"sy":1,"depth":9,"w":{"0":-0.3423960146465949,"1":-8.756863228857855e-59,"2":-0.31370398404118394,"3":-0.354679030830719,"4":-0.003566781989145432,"5":-0.3556669530545634,"6":-0.35194573265744306,"7":5.377723739412977e-35,"8":-0.295469768159873}},{"sx":1,"sy":1,"depth":9,"w":{"0":-0.3425993118987296,"1":5e-324,"2":-0.27683898463475815,"3":-0.3549603405305646,"4":-0.004901502184644622,"5":-0.3523829342220295,"6":-0.35284025250497025,"7":4.551125043615463e-293,"8":-0.3237169717322076}},{"sx":1,"sy":1,"depth":9,"w":{"0":-0.34260569734517504,"1":-4.818346995881636e-238,"2":-0.28296594009893644,"3":-0.35054956475014687,"4":-0.01363907504856501,"5":-0.3571558953051841,"6":-0.4256492334125834,"7":-4.499000996996289e-223,"8":-0.37626059567995496}},{"sx":1,"sy":1,"depth":9,"w":{"0":-0.36053882659317293,"1":-7.356314566540301e-154,"2":-0.314422480089509,"3":-0.3528119297714935,"4":-0.0031803886195635074,"5":-0.3821751421636845,"6":-0.3680925067290514,"7":3.2393934197375806e-279,"8":-0.33195353781654113}},{"sx":1,"sy":1,"depth":9,"w":{"0":-0.38178138548548435,"1":-1.1194009506098983e-22,"2":-0.3081746265032841,"3":-0.37523966776033896,"4":-0.004483647993428696,"5":-0.36471544803919853,"6":-0.3933631185484112,"7":-1.1332640491381814e-17,"8":-0.30776401843453094}},{"sx":1,"sy":1,"depth":9,"w":{"0":-0.34422034650330396,"1":3e-323,"2":-0.2773608257239535,"3":-0.3504610343386974,"4":-0.007931027566985544,"5":-0.3571515366238959,"6":-0.41589498477042525,"7":2e-323,"8":-0.32156846410729584}},{"sx":1,"sy":1,"depth":9,"w":{"0":-0.34820417072525256,"1":-6.221409586568449e-91,"2":-0.28689391680289605,"3":-0.40788475336470936,"4":-0.025202181176896234,"5":-0.3523065049768206,"6":-0.36781646272642987,"7":-4.792665790321309e-45,"8":-0.3047034017328497}},{"sx":1,"sy":1,"depth":9,"w":{"0":-0.3423334490558019,"1":-5.127439713942061e-280,"2":-0.2897423370253828,"3":-0.35301793487356103,"4":-0.0064348203152815205,"5":-0.3624307191437774,"6":-0.3517259948425282,"7":-1.3035401366875693e-39,"8":-0.29458830736844716}},{"sx":1,"sy":1,"depth":9,"w":{"0":-0.37674294196244795,"1":-1.1891262310952065e-216,"2":-0.32132658188060464,"3":-0.3517724757700616,"4":-0.004768334592785705,"5":-0.3891618328064119,"6":-0.35240373714574225,"7":1.8304206934514711e-302,"8":-0.29722382393679364}},{"sx":1,"sy":1,"depth":9,"w":{"0":-0.3450364188571867,"1":-3.760747420697244e-45,"2":-0.27636992379537034,"3":-0.3508942762794496,"4":-0.0039599595421466694,"5":-0.365143480555133,"6":-0.34837418993676283,"7":3.034246959931044e-296,"8":-0.29492594459349936}},{"sx":1,"sy":1,"depth":9,"w":{"0":-0.34245423451307616,"1":-3.023649999742833e-86,"2":-0.29395061187541877,"3":-0.36631286363833016,"4":-0.00456955336337307,"5":-0.3529914274909351,"6":-0.41855405366182896,"7":-9.708649554126591e-233,"8":-0.29560378827348244}},{"sx":1,"sy":1,"depth":9,"w":{"0":-0.34389639642434805,"1":-6.601955049431013e-47,"2":-0.3088824866619072,"3":-0.3559479876208293,"4":-0.004546727269848003,"5":-0.41055264426896687,"6":-0.38899218261299023,"7":8.432032248914061e-272,"8":-0.3003077618451946}},{"sx":1,"sy":1,"depth":9,"w":{"0":-0.34250653647569207,"1":-7.196455652154663e-245,"2":-0.28607131835652383,"3":-0.3517278427247427,"4":-0.003070719943387201,"5":-0.3537411991653211,"6":-0.3505881013267574,"7":-3.8634268045e-313,"8":-0.3089377119850452}},{"sx":1,"sy":1,"depth":9,"w":{"0":-0.3422954096243343,"1":-1.8262616143621499e-214,"2":-0.2904539421565418,"3":-0.36969298783475696,"4":-0.0036259299087105326,"5":-0.37778531930700104,"6":-0.3574603018917014,"7":2.96e-322,"8":-0.3051360194808793}},{"sx":1,"sy":1,"depth":9,"w":{"0":-0.34220822810647344,"1":-8.97895376748448e-95,"2":-0.3020134449600743,"3":-0.3803562497666922,"4":-0.00464516248148534,"5":-0.35485254925098464,"6":-0.3727598655472147,"7":-8.101666397915177e-38,"8":-0.30833970269372263}},{"sx":1,"sy":1,"depth":9,"w":{"0":-0.3652484913663832,"1":-2.7540313069115594e-93,"2":-0.2760304729882237,"3":-0.43197266388055916,"4":-0.03827509574144996,"5":-0.3524639096926625,"6":-0.3503700199380966,"7":-2.981178976579958e-29,"8":-0.29486769717358813}},{"sx":1,"sy":1,"depth":9,"w":{"0":-0.34415053888304825,"1":1.0458117424010499e-13,"2":-0.2762083738375455,"3":-0.351281643732147,"4":-0.004127831868943277,"5":-0.35783197209205314,"6":-0.3487347400005218,"7":-4.912930548381951e-129,"8":-0.3225687972239248}},{"sx":1,"sy":1,"depth":9,"w":{"0":-0.41159684330469837,"1":-1.317347898851785e-29,"2":-0.2807256366289783,"3":-0.41677611675849763,