{"nets":[{"layers":[{"out_depth":5,"out_sx":1,"out_sy":1,"layer_type":"input"},{"out_depth":1460,"out_sx":1,"out_sy":1,"layer_type":"fc","num_inputs":5,"l1_decay_mul":0,"l2_decay_mul":1,"filters":[{"sx":1,"sy":1,"depth":5,"w":{"0":-0.004234008245612745,"1":-0.0006382584132567415,"2":-0.0015352292192169286,"3":-0.0034194846197245117,"4":-0.17028870209521474}},{"sx":1,"sy":1,"depth":5,"w":{"0":-0.0067364320282505665,"1":-0.0020644961999354023,"2":-0.003238046874805627,"3":-0.005490339240917725,"4":-0.17238946991139203}},{"sx":1,"sy":1,"depth":5,"w":{"0":-0.006170228362741908,"1":-0.0024647491000679652,"2":-0.0035104057562701852,"3":-0.005268997962326315,"4":-0.17163547442955607}},{"sx":1,"sy":1,"depth":5,"w":{"0":-0.004752221454246823,"1":-0.00007297750968426517,"2":-0.0016699260788097586,"3":-0.004174642961887848,"4":-0.17057579692874192}},{"sx":1,"sy":1,"depth":5,"w":{"0":-0.004507274734336814,"1":-0.0008634509640501325,"2":-0.0014101002200362046,"3":-0.003685504865880176,"4":-0.17035729911186548}},{"sx":1,"sy":1,"depth":5,"w":{"0":-0.003501148466724834,"1":-0.0007670438796356931,"2":-0.0007744203674119089,"3":-0.0028315906092074732,"4":-0.17012531949716397}},{"sx":1,"sy":1,"depth":5,"w":{"0":-0.003790516738829723,"1":0.00028253034282731083,"2":-0.0011379206286695454,"3":-0.0033930058948622777,"4":-0.17019215043053573}},{"sx":1,"sy":1,"depth":5,"w":{"0":-0.0036798189764156,"1":0.0003605753296887235,"2":-0.0010494538139332915,"3":-0.003351195819600223,"4":-0.17029762259892148}},{"sx":1,"sy":1,"depth":5,"w":{"0":-0.006146336788290626,"1":-0.0007275847892395127,"2":-0.0021392045946025265,"3":-0.004981831239343329,"4":-0.17185357934590526}},{"sx":1,"sy":1,"depth":5,"w":{"0":-0.004094619425953806,"1":0.0005481942942761196,"2":-0.0006923126532369242,"3":-0.0031803244909369395,"4":-0.17040781453537376}},{"sx":1,"sy":1,"depth":5,"w":{"0":-0.005321393389528317,"1":-0.0017145290566830678,"2":-0.002279497274587628,"3":-0.0043879125434089904,"4":-0.1709541854745907}},{"sx":1,"sy":1,"depth":5,"w":{"0":-0.006718287882655736,"1":-0.0022991539966066917,"2":-0.0032492411324336087,"3":-0.005504896032361432,"4":-0.17232321613936402}},{"sx":1,"sy":1,"depth":5,"w":{"0":-0.005203116720737094,"1":-0.000058171556698406214,"2":-0.001805935979923469,"3":-0.004441662969006339,"4":-0.17084510601184486}},{"sx":1,"sy":1,"depth":5,"w":{"0":-0.0029495666292953127,"1":0.0013472471254622953,"2":0.001003860148585025,"3":-0.0018089878945783096,"4":-0.17301080855410644}},{"sx":1,"sy":1,"depth":5,"w":{"0":-0.003814028540333901,"1":-0.0008506457631968146,"2":-0.0010624258603498286,"3":-0.003076181172118607,"4":-0.17009564576082664}},{"sx":1,"sy":1,"depth":5,"w":{"0":-0.0031569206039180715,"1":0.000023067824191245188,"2":0.000001882633999580191,"3":-0.0022852871964450724,"4":-0.1708478075081539}},{"sx":1,"sy":1,"depth":5,"w":{"0":-0.006783925955243781,"1":-0.001494410350051842,"2":-0.0034998132935200165,"3":-0.00578070823676159,"4":-0.17223697722739814}},{"sx":1,"sy":1,"depth":5,"w":{"0":-0.006400234709563817,"1":-0.0008642859548925928,"2":-0.002321073816248746,"3":-0.00521492941301443,"4":-0.1719847306258287}},{"sx":1,"sy":1,"depth":5,"w":{"0":-0.006553842297312371,"1":-0.000992461775241104,"2":-0.0026091518267492048,"3":-0.005472991350525843,"4":-0.17231827004057756}},{"sx":1,"sy":1,"depth":5,"w":{"0":-0.006515599533254713,"1":-0.00046531293329532607,"2":-0.002486518514224216,"3":-0.005400237780580303,"4":-0.17212348024567586}},{"sx":1,"sy":1,"depth":5,"w":{"0":-0.0031293095684925814,"1":-0.00022151908090871212,"2":-0.000138103933630309,"3":-0.002350643813471994,"4":-0.17066156413308142}},{"sx":1,"sy":1,"depth":5,"w":{"0":-0.0036900237322230445,"1":-0.00041146904025455736,"2":-0.0007494075343950487,"3":-0.00296407066931037,"4":-0.17005591707578338}},{"sx":1,"sy":1,"depth":5,"w":{"0":-0.0030053519673514054,"1":0.00006058953475738594,"2":0.000035249048080743164,"3":-0.0022493397972674755,"4":-0.17068443608117967}},{"sx":1,"sy":1,"depth":5,"w":{"0":-0.003902056947549761,"1":0.0005892404350915956,"2":-0.0006215352153120038,"3":-0.003061128160210674,"4":-0.1702701260548473}},{"sx":1,"sy":1,"depth":5,"w":{"0":-0.007651305546630627,"1":-0.002710570219011209,"2":-0.004267445737535058,"3":-0.006414229448231651,"4":-0.17381606369990343}},{"sx":1,"sy":1,"depth":5,"w":{"0":-0.006748974542383449,"1":-0.001045797462240683,"2":-0.0026521361539394114,"3":-0.005576229901621649,"4":-0.17244088165424665}},{"sx":1,"sy":1,"depth":5,"w":{"0":-0.0023383723598994696,"1":-0.00022914975296477435,"2":0.00007369859122315558,"3":-0.0016011980403841677,"4":-0.17040264173528516}},{"sx":1,"sy":1,"depth":5,"w":{"0":-0.002772259871223837,"1":0.0006889686034853297,"2":0.00042263460188999647,"3":-0.0018825263822870525,"4":-0.17138394220485523}},{"sx":1,"sy":1,"depth":5,"w":{"0":-0.0058166456647947935,"1":-0.0022857457566528793,"2":-0.0034151365115636352,"3":-0.00491303244709059,"4":-0.17165633081122528}},{"sx":1,"sy":1,"depth":5,"w":{"0":-0.006693621422025571,"1":-0.002401734702526147,"2":-0.0031196167401069054,"3":-0.005471243892842697,"4":-0.17235561388510923}},{"sx":1,"sy":1,"depth":5,"w":{"0":-0.002997144661223478,"1":-0.000058627310913735085,"2":0.00006452654255017674,"3":-0.002186973146279152,"4":-0.1708208669295572}},{"sx":1,"sy":1,"depth":5,"w":{"0":-0.00635979187827308,"1":-0.000987726042308408,"2":-0.002471545842208409,"3":-0.005251016558893649,"4":-0.17198584600205946}},{"sx":1,"sy":1,"depth":5,"w":{"0":-0.0028984258049884973,"1":0.00007858075168226111,"2":0.0002671067708506264,"3":-0.002039901913425045,"4":-0.17130849240283388}},{"sx":1,"sy":1,"depth":5,"w":{"0":-0.004443620447602722,"1":-0.001323130839867277,"2":-0.0017295692083794333,"3":-0.0036322598278225263,"4":-0.1704533066787703}},{"sx":1,"sy":1,"depth":5,"w":{"0":-0.006884414326410113,"1":-0.001523703514831519,"2":-0.0036940278633002697,"3":-0.00570742471888997,"4":-0.17239180312249608}},{"sx":1,"sy":1,"depth":5,"w":{"0":-0.004080011162688267,"1":-0.0011100465508606095,"2":-0.0025122777342956727,"3":-0.00376331966608311,"4":-0.17015969744558415}},{"sx":1,"sy":1,"depth":5,"w":{"0":-0.004868789846326938,"1":-0.0009528506164604083,"2":-0.0027765862836506747,"3":-0.0042227188041236985,"4":-0.17078795918077155}},{"sx":1,"sy":1,"depth":5,"w":{"0":-0.003044030074096438,"1":0.0012744017733617723,"2":0.0008527013558730298,"3":-0.0019731622715429553,"4":-0.17193984469356532}},{"sx":1,"sy":1,"depth":5,"w":{"0":-0.008101281749888138,"1":-0.003044168058109007,"2":-0.004440198785715366,"3":-0.0066646527294231305,"4":-0.17401012407413005}},{"sx":1,"sy":1,"depth":5,"w":{"0":-0.006693778711680802,"1":-0.001528052968461588,"2":-0.0034351712255727045,"3":-0.005570701069710672,"4":-0.1721482306556894}},{"sx":1,"sy":1,"depth":5,"w":{"0":-0.005733954536022584,"1":0.000016385260660655657,"2":-0.001672797504378433,"3":-0.0046869185177467,"4":-0.17131873646975276}},{"sx":1,"sy":1,"depth":5,"w":{"0":-0.006296310458346279,"1":-0.002168376673539401,"2":-0.0033592429879846304,"3":-0.0053642922292598295,"4":-0.1717232474444451}},{"sx":1,"sy":1,"depth":5,"w":{"0":-0.00564964852077298,"1":-0.0019447252882823368,"2":-0.002507356566275285,"3":-0.0046500305312503105,"4":-0.171273454265904}},{"sx":1,"sy":1,"depth":5,"w":{"0":-0.006594481142283365,"1":-0.0018304372582940095,"2":-0.003630415025605465,"3":-0.00556760964274329,"4":-0.1722730061186074}},{"sx":1,"sy":1,"depth":5,"w":{"0":-0.005770851825140541,"1":-0.000660354039607094,"2":-0.0022033322789563638,"3":-0.004919845677747371,"4":-0.17136950620461222}},{"sx":1,"sy":1,"depth":5,"w":{"0":-0.0010330033346337185,"1":0.0006531259985457737,"2":0.0006373249522288287,"3":-0.000452111370798384,"4":-0.16986274292227016}},{"sx":1,"sy":1,"depth":5,"w":{"0":-0.003023392388179829,"1":0.00013506058537014125,"2":0.00027227327158446495,"3":-0.002073679854077092,"4":-0.1711725388117516}},{"sx":1,"sy":1,"depth":5,"w":{"0":-0.006684300155446252,"1":-0.0010548771796608462,"2":-0.002689341976601752,"3":-0.005504287470619314,"4":-0.17238714219372117}},{"sx":1,"sy":1,"depth":5,"w":{"0":-0.00793164689741887,"1":-0.002687377495566999,"2":-0.004340820206977418,"3":-0.0065614441733280494,"4":-0.17399187345458825}},{"sx":1,"sy":1,"depth":5,"w":{"0":-0.0027314073529823638,"1":0.00157122759088067,"2":0.0009435631125940024,"3":-0.0018077191414455265,"4":-0.17249550030210598}},{"sx":1,"sy":1,"depth":5,"w":{"0":-0.007344047391887295,"1":-0.001871268156411679,"2":-0.0037809293842191133,"3":-0.006068942992700854,"4":-0.17310912148457408}},{"sx":1,"sy":1,"depth":5,"w":{"0":-0.006710659455372688,"1":-0.0015845861545348088,"2":-0.0034324514301064244,"3":-0.005610884935720501,"4":-0.17236780859654302}},{"sx":1,"sy":1,"depth":5,"w":{"0":-0.00658614601325801,"1":-0.0009876037516817469,"2":-0.002539844036471747,"3":-0.005423679871575927,"4":-0.17219130464918916}},{"sx":1,"sy":1,"depth":5,"w":{"0":-0.002911408166877482,"1":0.0006310622975047137,"2":0.0003546040459522755,"3":-0.0020051708235099405,"4":-0.17126687371821137}},{"sx":1,"sy":1,"depth":5,"w":{"0":-0.006155443145903517,"1":-0.0023529498089034763,"2":-0.0033456993642435387,"3":-0.005256523269847147,"4":-0.1716140065747539}},{"sx":1,"sy":1,"depth":5,"w":{"0":-0.0049295235020162705,"1":-0.0000111416050311312,"2":-0.0015903263373589684,"3":-0.004271995201633301,"4":-0.17067679619084386}},{"sx":1,"sy":1,"depth":5,"w":{"0":-0.007213209705356233,"1":-0.002399161872361261,"2":-0.003732017532858343,"3":-0.005873339150843921,"4":-0.17286903637931145}},{"sx":1,"sy":1,"depth":5,"w":{"0":-0.0036844218990992627,"1":0.00028669073046613336,"2":-0.0010742215543434787,"3":-0.0032664047382539286,"4":-0.17014587622330105}},{"sx":1,"sy":1,"depth":5,"w":{"0":-0.0037173029407524955,"1":-0.001697423506637387,"2":-0.002313127900771058,"3":-0.003471368672302859,"4":-0.17028722336675567}},{"sx":1,"sy":1,"depth":5,"w":{"0":-0.003365112223043704,"1":0.00006652866096237874,"2":-0.0004730706709875909,"3":-0.0026220093199779636,"4":-0.1702840494442835}},{"sx":1,"sy":1,"depth":5,"w":{"0":-0.004561316052037263,"1":-0.0018478745405951821,"2":-0.0027052405092692056,"3":-0.004081150488581829,"4":-0.17048269709494415}},{"sx":1,"sy":1,"depth":5,"w":{"0":-0.0034978238997134246,"1":0.0009759602772222145,"2":-0.00003823927707410305,"3":-0.0027189245439434443,"4":-0.1703077348000397}},{"sx":1,"sy":1,"depth":5,"w":{"0":-0.0042194695266338095,"1":-0.0019178818448744549,"2":-0.0024927692535545373,"3":-0.0038249431477340445,"4":-0.17028929677416846}},{"sx":1,"sy":1,"depth":5,"w":{"0":-0.003913770274568553,"1":-0.0015029604239922753,"2":-0.002421267214295458,"3":-0.0035817709028574418,"4":-0.1701660825383105}},{"sx":1,"sy":1,"depth":5,"w":{"0":-0.003171045421175486,"1":0.00108151494886223,"2":0.00013905945866422853,"3":-0.002425421272327572,"4":-0.17035092626527382}},{"sx":1,"sy":1,"depth":5,"w":{"0":-0.00631769623386946,"1":-0.0025508115977836737,"2":-0.003717074393023479,"3":-0.005348962401946502,"4":-0.17171067814530305}},{"sx":1,"sy":1,"depth":5,"w":{"0":-0.00451202259009492,"1":0.0003069190674095637,"2":-0.0011126236136165205,"3":-0.003591251311886148,"4":-0.17050030550162293}},{"sx":1,"sy":1,"depth":5,"w":{"0":-0.003926321019991335,"1":-0.0018778760039521504,"2":-0.0025308446519290467,"3":-0.00361364000928663,"4":-0.1702599893904139}},{"sx":1,"sy":1,"depth":5,"w":{"0":-0.0057415029680041064,"1":-0.0014873200915239953,"2":-0.0032503000832847704,"3":-0.004851065452110571,"4":-0.17161827542846075}},{"sx":1,"sy":1,"depth":5,"w":{"0":-0.0065744575608728175,"1":-0.002645674852091037,"2":-0.003699994456864803,"3":-0.005520044355417652,"4":-0.17227443756522814}},{"sx":1,"sy":1,"depth":5,"w":{"0":-0.0038969429861523503,"1":0.00026862909458807765,"2":-0.0012194416714240157,"3":-0.00350491481306408,"4":-0.170237041490386}},{"sx":1,"sy":1,"depth":5,"w":{"0":-0.0066236498159248725,"1":-0.0024103853653865224,"2":-0.0032857146461045847,"3":-0.005421682843002456,"4":-0.17218293787494518}},{"sx":1,"sy":1,"depth":5,"w":{"0":-0.0043534929815993795,"1":0.0005504865831911562,"2":-0.0006212173476953628,"3":-0.003523916029235026,"4":-0.17030611898983344}},{"sx":1,"sy":1,"depth":5,"w":{"0":-0.0078119578188161195,"1":-0.001736492975001711,"2":-0.0038462503434608924,"3":-0.006405932849425549,"4":-0.17372182900468372}},{"sx":1,"sy":1,"depth":5,"w":{"0":-0.004665019901595007,"1":-0.002034800342394322,"2":-0.0027680850447329565,"3":-0.004127803141291698,"4":-0.17048702322851667}},{"sx":1,"sy":1,"depth":5,"w":{"0":-0.0034341695076028672,"1":0.0007824651978209202,"2":-0.00020388085525928443,"3":-0.002710049281669496,"4":-0.17025342132961405}},{"sx":1,"sy":1,"depth":5,"w":{"0":-0.007025102846623818,"1":-0.0015026558658400306,"2":-0.0034187937367822245,"3":-0.005724031240101917,"4":-0.172657942456875}},{"sx":1,"sy":1,"depth":5,"w":{"0":-0.005540156265370504,"1":-0.0012688770290294662,"2":-0.0030574773404384074,"3":-0.0048345148967961155,"4":-0.17117083328458266}},{"sx":1,"sy":1,"depth":5,"w":{"0":-0.0073372443387882845,"1":-0.0010753622646852016,"2":-0.0028840265033459192,"3":-0.005939222724492514,"4":-0.1732653858908556}},{"sx":1,"sy":1,"depth":5,"w":{"0":-0.0033019277188368204,"1":0.000016015233246765084,"2":-0.00007955424524141563,"3":-0.002424950183346763,"4":-0.170615230797388}},{"sx":1,"sy":1,"depth":5,"w":{"0":-0.0034917945169912904,"1":0.000739216121570613,"2":-0.0004337853620961195,"3":-0.0027339157156989436,"4":-0.17028906943062344}},{"sx":1,"sy":1,"depth":5,"w":{"0":-0.004782897911358301,"1":-0.00029426706748395437,"2":-0.0015925731859698408,"3":-0.0039066886204730195,"4":-0.17060968725284997}},{"sx":1,"sy":1,"depth":5,"w":{"0":-0.003116083458167905,"1":0.0014549777086048658,"2":0.0006936749627657422,"3":-0.0021135949770843933,"4":-0.17128594039469094}},{"sx":1,"sy":1,"depth":5,"w":{"0":-0.002939877360637346,"1":0.001496510790674897,"2":0.0008956556760683363,"3":-0.00191758439546315,"4":-0.1718857145761686}},{"sx":1,"sy":1,"depth":5,"w":{"0":-0.002833788952798036,"1":0.0013201541227733354,"2":0.0009331958845606933,"3":-0.0016166208488334428,"4":-0.17285729896531196}},{"sx":1,"sy":1,"depth":5,"w":{"0":-0.005844881614577335,"1":-0.000794420294127472,"2":-0.0022635672212506066,"3":-0.004933556426514468,"4":-0.1715004849344054}},{"sx":1,"sy":1,"depth":5,"w":{"0":-0.005883720601387605,"1":-0.0024795588173454355,"2":-0.003189674535090001,"3":-0.005031688598532843,"4":-0.17148506779413084}},{"sx":1,"sy":1,"depth":5,"w":{"0":-0.005019188079125976,"1":-0.0004130939000131055,"2":-0.001771389444192482,"3":-0.0041220234122254255,"4":-0.17069782134782618}},{"sx":1,"sy":1,"depth":5,"w":{"0":-0.0032641668081784285,"1":0.00035935680278165465,"2":-0.000031775483752854126,"3":-0.0024301674679815294,"4":-0.17072599848147402}},{"sx":1,"sy":1,"depth":5,"w":{"0":-0.006451208007434472,"1":-0.0008766769487603531,"2":-0.0022855042309028353,"3":-0.005195625439216826,"4":-0.1721806412304329}},{"sx":1,"sy":1,"depth":5,"w":{"0":-0.005146091496362143,"1":-0.0022872051855504995,"2":-0.0032247227448438482,"3":-0.004529304071751485,"4":-0.17077984324856532}},{"sx":1,"sy":1,"depth":5,"w":{"0":-0.002855957277686648,"1":0.000540675695338352,"2":0.00026319449187843253,"3":-0.0020885629244852206,"4":-0.1709683231265925}},{"sx":1,"sy":1,"depth":5,"w":{"0":-0.00737586040575474,"1":-0.002131655486172883,"2":-0.003752080264281133,"3":-0.0059903252082580995,"4":-0.17304759854897664}},{"sx":1,"sy":1,"depth":5,"w":{"0":-0.005729301586845536,"1":-0.001701319901085989,"2":-0.002551693786379211,"3":-0.004716403796299555,"4":-0.17128658411632355}},{"sx":1,"sy":1,"depth":5,"w":{"0":-0.00504644252326151,"1":-0.0013897298919627338,"2":-0.0028892368894775757,"3":-0.004401616932611059,"4":-0.17077372181027992}},{"sx":1,"sy":1,"depth":5,"w":{"0":-0.004533446792780995,"1":-0.0013187131533021253,"2":-0.001723367796453706,"3":-0.003731539813829834,"4":-0.17047319100603814}},{"sx":1,"sy":1,"depth":5,"w":{"0":-0.003047112581677355,"1":0.0008728536408317018,"2":0.0004907430693919966,"3":-0.002164937714042691,"4":-0.17085712622313654}},{"sx":1,"sy":1,"depth":5,"w":{"0":-0.003876673987411124,"1":-0.0006598539716398049,"2":-0.0010267251520999666,"3":-0.003138183598027172,"4":-0.17026425966926137}},{"sx":1,"sy":1,"depth":5,"w":{"0":-0.007540822705038917,"1":-0.0014954036113425623,"2":-0.003703867812302954,"3":-0.006181092503031356,"4":-0.17324168751731944}},{"sx":1,"sy":1,"depth":5,"w":{"0":-0.005088050141103438,"1":-0.0021620403556571535,"2":-0.00301698288930806,"3":-0.004506690250105716,"4":-0.17071152006359464}},{"sx":1,"sy":1,"depth":5,"w":{"0":-0.005814122538971654,"1":-0.000037755039924183744,"2":-0.0018246961983509487,"3":-0.0047787575879089834,"4":-0.17133496194761305}},{"sx":1,"sy":1,"depth":5,"w":{"0":-0.0030910125412223046,"1":0.000019201969143060557,"2":0.00005949622390433087,"3":-0.0022495768488663137,"4":-0.17085306345270274}},{"sx":1,"sy":1,"depth":5,"w":{"0":-0.005218668642908826,"1":-0.0014075587935294728,"2":-0.0029043291954397345,"3":-0.004552602227946491,"4":-0.17089377026465807}},{"sx":1,"sy":1,"depth":5,"w":{"0":-0.006708143256323285,"1":-0.002768301526169134,"2":-0.0036809324891818687,"3":-0.00570232673639298,"4":-0.17240190211254955}},{"sx":1,"sy":1,"depth":5,"w":{"0":-0.005973196601525095,"1":-0.0005374688901972529,"2":-0.0022181688972970058,"3":-0.005029130048111242,"4":-0.17159383153222238}},{"sx":1,"sy":1,"depth":5,"w":{"0":-0.007958427102330405,"1":-0.003116668707876341,"2":-0.004437339206447664,"3":-0.006552690063240963,"4":-0.17372245582134502}},{"sx":1,"sy":1,"depth":5,"w":{"0":-0.002794251335384781,"1":0.00004705209106718885,"2":0.00013909538666565966,"3":-0.002023564770107176,"4":-0.17075210805662816}},{"sx":1,"sy":1,"depth":5,"w":{"0":-0.006540793092563,"1":-0.0021646961211415697,"2":-0.0033715498825968707,"3":-0.0054279834821939375,"4":-0.17201955299087768}},{"sx":1,"sy":1,"depth":5,"w":{"0":-0.006210232282933112,"1":-0.0008750384927283552,"2":-0.002406327193151706,"3":-0.0052433171041864676,"4":-0.17190403467814147}},{"sx":1,"sy":1,"depth":5,"w":{"0":-0.004619239550622417,"1":-0.0019129608248802418,"2":-0.002800009556085788,"3":-0.00415330147346143,"4":-0.17045355676373408}},{"sx":1,"sy":1,"depth":5,"w":{"0":-0.0027443721423619045,"1":0.00014128335420595913,"2":0.0004639329245664397,"3":-0.0018313726632267074,"4":-0.17150714752475527}},{"sx":1,"sy":1,"depth":5,"w":{"0":-0.0065134826305834476,"1":-0.0021751484225730495,"2":-0.0032596379767131224,"3":-0.00537834537467596,"4":-0.17205745215839632}},{"sx":1,"sy":1,"depth":5,"w":{"0":-0.003573961176794824,"1":-0.0006464897572844269,"2":-0.0007939776311588411,"3":-0.002907966335693262,"4":-0.17021061712446448}},{"sx":1,"sy":1,"depth":5,"w":{"0":-0.0027757395323093747,"1":0.0017608974632133678,"2":0.0011575644806255036,"3":-0.0017392057390882565,"4":-0.17296089518145127}},{"sx":1,"sy":1,"depth":5,"w":{"0":-0.0030167063767252613,"1":0.00018148303340661718,"2":0.0001409605891646501,"3":-0.0021834812442679047,"4":-0.1710932942814835}},{"sx":1,"sy":1,"depth":5,"w":{"0":-0.00509464665806297,"1":-0.0013502784603514136,"2":-0.002859429487823065,"3":-0.004500312673075952,"4":-0.1707541329251672}},{"sx":1,"sy":1,"depth":5,"w":{"0":-0.005559601887446176,"1":-0.0005903773156505107,"2":-0.002078212115602415,"3":-0.004678716102473427,"4":-0.1711317606541962}},{"sx":1,"sy":1,"depth":5,"w":{"0":-0.0033247546261747207,"1":0.00036164303322248296,"2":-0.0007978056943514767,"3":-0.002343182584542602,"4":-0.1701715469303927}},{"sx":1,"sy":1,"depth":5,"w":{"0":-0.004351813861910612,"1":-0.00005682148863757905,"2":-0.0013264585071331002,"3":-0.0035297947270167503,"4":-0.17032687055474696}},{"sx":1,"sy":1,"depth":5,"w":{"0":-0.006840640964567917,"1":-0.002841915973277418,"2":-0.004018838396857704,"3":-0.005830986851683232,"4":-0.17258532633318538}},{"sx":1,"sy":1,"depth":5,"w":{"0":-0.003883426138523736,"1":-0.0008083761220476555,"2":-0.001140401421200437,"3":-0.0031958879989150042,"4":-0.17024330169595017}},{"sx":1,"sy":1,"depth":5,"w":{"0":-0.004367218790633149,"1":-0.0010985629522352767,"2":-0.0012940562930592516,"3":-0.0035124242391594497,"4":-0.17030033094657124}},{"sx":1,"sy":1,"depth":5,"w":{"0":-0.002931905788099011,"1":0.001455899374443613,"2":0.0007840976553336191,"3":-0.002051442865434092,"4":-0.17084964497323704}},{"sx":1,"sy":1,"depth":5,"w":{"0":-0.0030973364025124453,"1":0.0012223179607530861,"2":0.0003947450379548278,"3":-0.002193838227288156,"4":-0.17123276191848963}},{"sx":1,"sy":1,"depth":5,"w":{"0":-0.002979241580998232,"1":0.0014001392573915715,"2":0.0003692661187634271,"3":-0.002127311431539592,"4":-0.17128923807507188}},{"sx":1,"sy":1,"depth":5,"w":{"0":-0.004306088131427137,"1":-0.0011000692423539943,"2":-0.001568194380245914,"3":-0.003533729533548716,"4":-0.17033964648057126}},{"sx":1,"sy":1,"depth":5,"w":{"0":-0.0030130456536127193,"1":0.00010712304439737747,"2":0.00023475926076405983,"3":-0.002186164434561361,"4":-0.1712652189335415}},{"sx":1,"sy":1,"depth":5,"w":{"0":-0.006807287654158261,"1":-0.002559289013753227,"2":-0.003749833302850665,"3":-0.005640994880661701,"4":-0.172394131662721}},{"sx":1,"sy":1,"depth":5,"w":{"0":-0.006201651742992043,"1":-0.0008817456447744142,"2":-0.0027035423697571257,"3":-0.005121173399449426,"4":-0.17179013074287486}},{"sx":1,"sy":1,"depth":5,"w":{"0":-0.008132820023221892,"1":-0.0030478999310241195,"2":-0.0044477843694876035,"3":-0.006687545259916503,"4":-0.17402293068223673}},{"sx":1,"sy":1,"depth":5,"w":{"0":-0.0045901941655120794,"1":-0.0010836262193019766,"2":-0.0014853475665933726,"3":-0.003732199195546163,"4":-0.17043469349298832}},{"sx":1,"sy":1,"depth":5,"w":{"0":-0.006491305836800756,"1":-0.0021455493481805973,"2":-0.003155747107440907,"3":-0.005351386003576472,"4":-0.17203327263826587}},{"sx":1,"sy":1,"depth":5,"w":{"0":-0.003960307550560535,"1":0.00022952169786102624,"2":-0.0013004375155215215,"3":-0.0035730494920387327,"4":-0.17023172546672244}},{"sx":1,"sy":1,"depth":5,"w":{"0":-0.007947177619811181,"1":-0.002406704601754865,"2":-0.0041261496476710825,"3":-0.0064568537664674045,"4":-0.17392822916711184}},{"sx":1,"sy":1,"depth":5,"w":{"0":-0.0070332340600057705,"1":-0.0014265620300610898,"2":-0.0036427478989197143,"3":-0.005947634670753104,"4":-0.17258836985033926}},{"sx":1,"sy":1,"depth":5,"w":{"0":-0.006618881280845765,"1":-0.0017864819696599894,"2":-0.003277549412240806,"3":-0.005430101852226675,"4":-0.17222519699981553}},{"sx":1,"sy":1,"depth":5,"w":{"0":-0.003207323353111826,"1":-0.00031158899468786166,"2":-0.0004813661825508746,"3":-0.002503200189914015,"4":-0.1702436074037235}},{"sx":1,"sy":1,"depth":5,"w":{"0":-0.0050247174744115185,"1":-0.00011331480063148124,"2":-0.0017440467499514212,"3":-0.004345826902188016,"4":-0.17078259136193458}},{"sx":1,"sy":1,"depth":5,"w":{"0":-0.005973514588192786,"1":-0.00227463211865953,"2":-0.003494110256483932,"3":-0.005171479724647053,"4":-0.17151088522273272}},{"sx":1,"sy":1,"depth":5,"w":{"0":-0.006920522464891315,"1":-0.0026827043634027087,"2":-0.0038561165768108275,"3":-0.005803688114042428,"4":-0.17255423708354686}},{"sx":1,"sy":1,"depth":5,"w":{"0":-0.0040263008957112,"1":0.00015273376935208503,"2":-0.0011946913531308534,"3":-0.003592813799649231,"4":-0.1703242389879961}},{"sx":1,"sy":1,"depth":5,"w":{"0":-0.003317136949504191,"1":-0.0003503012329878098,"2":-0.00042212919936395876,"3":-0.002536954100850778,"4":-0.17043403391181042}},{"sx":1,"sy":1,"depth":5,"w":{"0":-0.005927456022643794,"1":-0.0007050531236082124,"2":-0.0024775922525790022,"3":-0.004856948209966005,"4":-0.17151851410706265}},{"sx":1,"sy":1,"depth":5,"w":{"0":-0.0057458317151384474,"1":-0.0018094044713055468,"2":-0.002339260282453344,"3":-0.0046833957370982565,"4":-0.17137095755392656}},{"sx":1,"sy":1,"depth":5,"w":{"0":-0.004510367655569177,"1":-0.0013571982948180124,"2":-0.002791604995345814,"3":-0.003993712961292131,"4":-0.17044039408599188}},{"sx":1,"sy":1,"depth":5,"w":{"0":-0.0027155580022841398,"1":0.00032425847802573446,"2":0.00044242982934405463,"3":-0.001869841303214802,"4":-0.1715113795341462}},{"sx":1,"sy":1,"depth":5,"w":{"0":-0.005266298208224416,"1":-0.0016344912627440284,"2":-0.002247465421828228,"3":-0.0043413923876547056,"4":-0.1709039514150827}},{"sx":1,"sy":1,"depth":5,"w":{"0":-0.00756415982737743,"1":-0.0012360911632611805,"2":-0.003109263763107741,"3":-0.006110632508505395,"4":-0.17347580934234805}},{"sx":1,"sy":1,"depth":5,"w":{"0":-0.0028970085752718843,"1":0.00020750570116181998,"2":0.00037042849028356755,"3":-0.0019910575247782643,"4":-0.17125495314954606}},{"sx":1,"sy":1,"depth":5,"w":{"0":-0.0007459587173094953,"1":0.0011369285160456651,"2":0.0010584256890455706,"3":-0.00023051304207939586,"4":-0.1695824705028941}},{"sx":1,"sy":1,"depth":5,"w":{"0":-0.007262462897059535,"1":-0.002615748697834664,"2":-0.0037957918673243406,"3":-0.005963235369977375,"4":-0.17291643758014658}},{"sx":1,"sy":1,"depth":5,"w":{"0":-0.0014616051424729288,"1":0.001594499224994409,"2":0.0012081927022229771,"3":-0.0007077404349704469,"4":-0.17067895723337317}},{"sx":1,"sy":1,"depth":5,"w":{"0":-0.002784462349242741,"1":0.00041668930239151854,"2":0.00041387332321604674,"3":-0.0019827932421795655,"4":-0.1714995760899028}},{"sx":1,"sy":1,"depth":5,"w":{"0":-0.0032482093983354776,"1":-0.0003033283902742972,"2":-0.000439153261184164,"3":-0.002583385653519822,"4":-0.17041347986700778}},{"sx":1,"sy":1,"depth":5,"w":{"0":-0.0074757685089400705,"1":-0.0029861614159440147,"2":-0.004143985749338383,"3":-0.006259183460472569,"4":-0.17336822331001553}},{"sx":1,"sy":1,"depth":5,"w":{"0":-0.005594674563925407,"1":-0.0014804486650795618,"2":-0.003139696653051408,"3":-0.004854350123261114,"4":-0.17121737029549441}},{"sx":1,"sy":1,"depth":5,"w":{"0":-0.002987654444888214,"1":-0.00012761047600908957,"2":-0.00015115005813769785,"3":-0.002269765577830355,"4":-0.1704083876602305}},{"sx":1,"sy":1,"depth":5,"w":{"0":-0.0032583204904441066,"1":0.0011578489675646117,"2":0.00028488152089711,"3":-0.002477172107497041,"4":-0.1703545804225405}},{"sx":1,"sy":1,"depth":5,"w":{"0":-0.003056177995560086,"1":-0.000008754986873374393,"2":-0.000016531160762473397,"3":-0.0022533170743326853,"4":-0.17063307227840446}},{"sx":1,"sy":1,"depth":5,"w":{"0":-0.006014571199222612,"1":-0.0008203524259718455,"2":-0.0023884063318513763,"3":-0.005087234691584927,"4":-0.1717067940370618}},{"sx":1,"sy":1,"depth":5,"w":{"0":-0.003125981645262321,"1":-0.0000866591103041122,"2":0.00004594064316614226,"3":-0.0022648556841639777,"4":-0.17082318004527236}},{"sx":1,"sy":1,"depth":5,"w":{"0":-0.004210556859897078,"1":-0.0007255685309344443,"2":-0.0011980253811602845,"3":-0.003437993187788111,"4":-0.1703386065607517}},{"sx":1,"sy":1,"depth":5,"w":{"0":-0.006437987411027075,"1":-0.0023851632810373558,"2":-0.003682241208039205,"3":-0.005502115693352524,"4":-0.1721006416485216}},{"sx":1,"sy":1,"depth":5,"w":{"0":-0.006133699813391454,"1":-0.0025996839442856893,"2":-0.0033040349127235026,"3":-0.005232182721907373,"4":-0.1716437010028584}},{"sx":1,"sy":1,"depth":5,"w":{"0":-0.0040270111872372175,"1":-0.0013508938165028206,"2":-0.002423184211584722,"3":-0.003696076165604036,"4":-0.17019219500950894}},{"sx":1,"sy":1,"depth":5,"w":{"0":-0.0056136466163592535,"1":-0.0005666947847738307,"2":-0.002125981254527024,"3":-0.004749647333060288,"4":-0.17126181796138537}},{"sx":1,"sy":1,"depth":5,"w":{"0":-0.005238477825739511,"1":-0.0015280768035334854,"2":-0.0023774275777782034,"3":-0.004274629031082389,"4":-0.17103429140412102}},{"sx":1,"sy":1,"depth":5,"w":{"0":-0.004239991464948354,"1":0.00037588951664529807,"2":-0.0009862989883502376,"3":-0.0034716641340554275,"4":-0.17019681809542386}},{"sx":1,"sy":1,"depth":5,"w":{"0":-0.005751936444888618,"1":-0.0002260538274988103,"2":-0.0020140114420431126,"3":-0.004874271174271698,"4":-0.17133577165922734}},{"sx":1,"sy":1,"depth":5,"w":{"0":-0.005320796864323397,"1":-0.0022286832878604954,"2":-0.003082975328001196,"3":-0.004628929912167833,"4":-0.1709330274845235}},{"sx":1,"sy":1,"depth":5,"w":{"0":-0.0028828557824025595,"1":0.000023047621630980304,"2":0.00013053640938210688,"3":-0.0021236213818468146,"4":-0.17093498080703046}},{"sx":1,"sy":1,"depth":5,"w":{"0":-0.005391890892517313,"1":-0.00008624419697605013,"2":-0.001471939601295888,"3":-0.0043849888320587485,"4":-0.17105675117507338}},{"sx":1,"sy":1,"depth":5,"w":{"0":-0.0025917096776026808,"1":0.0002454741788432697,"2":0.00031472684515427337,"3":-0.001968520135361123,"4":-0.17124098911829894}},{"sx":1,"sy":1,"depth":5,"w":{"0":-0.0061524795678419815,"1":-0.000768773959381993,"2":-0.002610345042894795,"3":-0.005052304883253799,"4":-0.171759109294052}},{"sx":1,"sy":1,"depth":5,"w":{"0":-0.006425236361907833,"1":-0.00216102429333863,"2":-0.003702832697861821,"3":-0.005457649502409801,"4":-0.17214133028791498}},{"sx":1,"sy":1,"depth":5,"w":{"0":-0.005392883087104155,"1":-0.0015121812558859264,"2":-0.0031095147670251572,"3":-0.004674394427587913,"4":-0.1709812274296716}},{"sx":1,"sy":1,"depth":5,"w":{"0":-0.0033058164965764528,"1":-0.00027957562715245346,"2":-0.00032700790632310926,"3":-0.0025441659353132046,"4":-0.17024406600844008}},{"sx":1,"sy":1,"depth":5,"w":{"0":-0.006184911065227974,"1":-0.0008743223347639479,"2":-0.0024293182830561018,"3":-0.005216732135596481,"4":-0.17182136266391757}},{"sx":1,"sy":1,"depth":5,"w":{"0":-0.003634000734454821,"1":0.0004340271550010489,"2":-0.0010018150830379956,"3":-0.003297198988762774,"4":-0.17031623133692522}},{"sx":1,"sy":1,"depth":5,"w":{"0":-0.0059249592079305274,"1":-0.00029278309360850703,"2":-0.0019893253994277653,"3":-0.004942803501752978,"4":-0.1714815586626493}},{"sx":1,"sy":1,"depth":5,"w":{"0":-0.007122609219933401,"1":-0.002539027098515124,"2":-0.0036250272357120444,"3":-0.005860491096905838,"4":-0.1728658019651819}},{"sx":1,"sy":1,"depth":5,"w":{"0":-0.003069426190447897,"1":0.0009420391871442636,"2":0.00041258326322706016,"3":-0.002289818356170744,"4":-0.17029563600234346}},{"sx":1,"sy":1,"depth":5,"w":{"0":-0.003110610733676051,"1":-0.00013788177913212326,"2":-0.00014344225687153243,"3":-0.002395157899372422,"4":-0.17048006021580955}},{"sx":1,"sy":1,"depth":5,"w":{"0":-0.0028304936105497175,"1":0.00018972498852025052,"2":0.0003039546037300698,"3":-0.001965528561106368,"4":-0.1712006525117044}},{"sx":1,"sy":1,"depth":5,"w":{"0":-0.006296058009966687,"1":-0.0023434008400569787,"2":-0.0034298614329260502,"3":-0.005260116584334574,"4":-0.17174602125590546}},{"sx":1,"sy":1,"depth":5,"w":{"0":-0.005132808898123314,"1":-0.00014888992670664277,"2":-0.0019117527842813422,"3":-0.004428287458617429,"4":-0.1708641283761065}},{"sx":1,"sy":1,"depth":5,"w":{"0":-0.006735673812124699,"1":-0.002473485631608063,"2":-0.0035827461755528495,"3":-0.0056509381954752275,"4":-0.17226093881202229}},{"sx":1,"sy":1,"depth":5,"w":{"0":-0.0069234283919421625,"1":-0.0006358978901546486,"2":-0.0025910897009989793,"3":-0.005684354007832439,"4":-0.1725689511460548}},{"sx":1,"sy":1,"depth":5,"w":{"0":-0.0071504163297993854,"1":-0.001945459868515632,"2":-0.003849285446304304,"3":-0.0059589076589944365,"4":-0.17283611169740562}},{"sx":1,"sy":1,"depth":5,"w":{"0":-0.006575713825637568,"1":-0.0005136572165401303,"2":-0.0025143775296101577,"3":-0.005462013931995619,"4":-0.17225924345708926}},{"sx":1,"sy":1,"depth":5,"w":{"0":-0.006815955671901495,"1":-0.0015647030794959634,"2":-0.003458536121567999,"3":-0.00575279397099772,"4":-0.17245044089756242}},{"sx":1,"sy":1,"depth":5,"w":{"0":-0.002874618289009351,"1":0.00015947070089213414,"2":0.0002760435299200242,"3":-0.0018525922975284985,"4":-0.1711808120437871}},{"sx":1,"sy":1,"depth":5,"w":{"0":-0.0028558929773333562,"1":0.0001448448975452472,"2":0.00019574562869464256,"3":-0.0021210984176507734,"4":-0.1711068001254074}},{"sx":1,"sy":1,"depth":5,"w":{"0":-0.0028781073439906957,"1":0.0016268658650643781,"2":0.0009923615226258217,"3":-0.0018644605377477934,"4":-0.17156827087634788}},{"sx":1,"sy":1,"depth":5,"w":{"0":-0.00293849573770707,"1":0.0001838325283565008,"2":0.00018017416789535643,"3":-0.002101302490159338,"4":-0.1709217503266502}},{"sx":1,"sy":1,"depth":5,"w":{"0":-0.0036946186470979206,"1":0.0005560863698847208,"2":-0.0006555167689061021,"3":-0.002908927457111137,"4":-0.17016316236295945}},{"sx":1,"sy":1,"depth":5,"w":{"0":-0.0063556585599440045,"1":-0.0008138769909376042,"2":-0.0022963620676971774,"3":-0.005178898960689462,"4":-0.1719816664122684}},{"sx":1,"sy":1,"depth":5,"w":{"0":-0.002706756534582769,"1":0.0011081249625318063,"2":0.0009049148695270265,"3":-0.0018833000355180764,"4":-0.17187412396273735}},{"sx":1,"sy":1,"depth":5,"w":{"0":-0.004107401327049094,"1":0.0002758229811369228,"2":-0.0012083617924735237,"3":-0.003659950451401304,"4":-0.17028236094783453}},{"sx":1,"sy":1,"depth":5,"w":{"0":-0.0036398675451709294,"1":0.00030419652828747807,"2":-0.0010203663018367262,"3":-0.003309268714999988,"4":-0.17027591276363754}},{"sx":1,"sy":1,"depth":5,"w":{"0":-0.002796275180467293,"1":0.00009617990072540166,"2":0.00011306443655875308,"3":-0.0020829972683921163,"4":-0.17081376103452472}},{"sx":1,"sy":1,"depth":5,"w":{"0":-0.003897774779694357,"1":-0.0007924767075628374,"2":-0.0010812462343992805,"3":-0.003123814758640417,"4":-0.1702080691560393}},{"sx":1,"sy":1,"depth":5,"w":{"0":-0.004625119840265419,"1":-0.0000054026942519463505,"2":-0.0014568369824248773,"3":-0.0037790519953392406,"4":-0.1704440211510352}},{"sx":1,"sy":1,"depth":5,"w":{"0":-0.004916149918263704,"1":-0.0008867165793022096,"2":-0.0019150951833481686,"3":-0.0037256799312153535,"4":-0.17158334544719597}},{"sx":1,"sy":1,"depth":5,"w":{"0":-0.003237204873623965,"1":0.001101884164449125,"2":0.00008004232202328022,"3":-0.0025590994894885396,"4":-0.17006058643024796}},{"sx":1,"sy":1,"depth":5,"w":{"0":-0.0040777657422848045,"1":0.00031453615887350184,"2":-0.0011730420233347456,"3":-0.0036298191615402715,"4":-0.1702939710200473}},{"sx":1,"sy":1,"depth":5,"w":{"0":-0.005974226169530048,"1":-0.0013619216079693566,"2":-0.0032277242566175566,"3":-0.005159025724100613,"4":-0.17154128942738922}},{"sx":1,"sy":1,"depth":5,"w":{"0":-0.0031517353610182085,"1":0.00008494853835237857,"2":0.00007996870244225511,"3":-0.0022430140087282965,"4":-0.17090596309288278}},{"sx":1,"sy":1,"depth":5,"w":{"0":-0.007659777521692433,"1":-0.0029398120342816934,"2":-0.00425348861672945,"3":-0.00637543029145898,"4":-0.17340654740265837}},{"sx":1,"sy":1,"depth":5,"w":{"0":-0.006294433539960782,"1":-0.0004902391630758501,"2":-0.0024952893335728264,"3":-0.005234693519979979,"4":-0.17200090491751885}},{"sx":1,"sy":1,"depth":5,"w":{"0":-0.0067051253153807295,"1":-0.0021877057599749106,"2":-0.003417591804662429,"3":-0.0055325899068467055,"4":-0.17225434712619886}},{"sx":1,"sy":1,"depth":5,"w":{"0":-0.00563325696637034,"1":0.000013192522644786802,"2":-0.002041552308925947,"3":-0.004769378142362463,"4":-0.171225180786964}},{"sx":1,"sy":1,"depth":5,"w":{"0":-0.007010112372740638,"1":-0.0006343613281622328,"2":-0.0026360573363510215,"3":-0.005797562108423026,"4":-0.17279227259565866}},{"sx":1,"sy":1,"depth":5,"w":{"0":-0.00606313227686261,"1":-0.0003147718829505902,"2":-0.0021327748718396704,"3":-0.004965426322420162,"4":-0.17151943415913237}},{"sx":1,"sy":1,"depth":5,"w":{"0":-0.0030728970677835823,"1":0.00015425466064055045,"2":0.00014697839003905908,"3":-0.0021457202892287246,"4":-0.17095911646490172}},{"sx":1,"sy":1,"depth":5,"w":{"0":-0.006534511522152596,"1":-0.0003489308592782895,"2":-0.0023104684588937654,"3":-0.005340923621905559,"4":-0.17210799367632326}},{"sx":1,"sy":1,"depth":5,"w":{"0":-0.0072100317173041,"1":-0.002827268713026233,"2":-0.004094194337617773,"3":-0.006058159266927949,"4":-0.17294528855593294}},{"sx":1,"sy":1,"depth":5,"w":{"0":-0.002919457536788326,"1":0.0012580681560865879,"2":0.0008582812369226749,"3":-0.0018924329326376653,"4":-0.1719368759041861}},{"sx":1,"sy":1,"depth":5,"w":{"0":-0.003534193172841475,"1":-0.00046679760033204083,"2":-0.0006857944863142716,"3":-0.002772820284909706,"4":-0.1703206350315675}},{"sx":1,"sy":1,"depth":5,"w":{"0":-0.0057349240659555125,"1":-0.0015306803044358157,"2":-0.0032108300577291565,"3":-0.004950526326418913,"4":-0.1713390731666141}},{"sx":1,"sy":1,"depth":5,"w":{"0":-0.008029821932564445,"1":-0.0029910547495661083,"2":-0.004363141662375031,"3":-0.006673322472420818,"4":-0.17396715344073785}},{"sx":1,"sy":1,"depth":5,"w":{"0":-0.0044593196610666,"1":0.0004983848802186373,"2":-0.0005901449747600352,"3":-0.0035587924259491287,"4":-0.17043195638723918}},{"sx":1,"sy":1,"depth":5,"w":{"0":-0.006720551756266978,"1":-0.0015918796478922624,"2":-0.0033497819939339313,"3":-0.005593131326695994,"4":-0.17230360280287843}},{"sx":1,"sy":1,"depth":5,"w":{"0":-0.0029331961124852163,"1":0.000932304669252038,"2":0.00013500226391874705,"3":-0.002270747057679278,"4":-0.17051283282761195}},{"sx":1,"sy":1,"depth":5,"w":{"0":-0.0066293472909293594,"1":-0.0014224831443050132,"2":-0.0033344004512104505,"3":-0.005601298354848926,"4":-0.17221799462445553}},{"sx":1,"sy":1,"depth":5,"w":{"0":-0.007158740544784235,"1":-0.0011860288625698276,"2":-0.002817130210811574,"3":-0.005877574877585763,"4":-0.17299516736990475}},{"sx":1,"sy":1,"depth":5,"w":{"0":-0.0022344930735789118,"1":-0.0003111975003770388,"2":0.00030543419187123097,"3":-0.0013651948646207688,"4":-0.1704632206446332}},{"sx":1,"sy":1,"depth":5,"w":{"0":-0.005205163956923518,"1":-0.0020686036440556626,"2":-0.00301290796021087,"3":-0.004540466540937355,"4":-0.1708042667932656}},{"sx":1,"sy":1,"depth":5,"w":{"0":-0.004459376887269854,"1":-0.0000060911923423871955,"2":-0.0013196642307695015,"3":-0.0036151115579326105,"4":-0.17034611405250927}},{"sx":1,"sy":1,"depth":5,"w":{"0":-0.005303711416852166,"1":0.00011201507766604333,"2":-0.0013515396573708061,"3":-0.00431631086934367,"4":-0.17094676217638421}},{"sx":1,"sy":1,"depth":5,"w":{"0":-0.00341124591507299,"1":0.0007958765394134042,"2":-0.0002619273804377567,"3":-0.00262603425584573,"4":-0.1703995756900848}},{"sx":1,"sy":1,"depth":5,"w":{"0":-0.0031368043199484193,"1":0.0013054078264007314,"2":0.0005619122469541007,"3":-0.0021239060669584345,"4":-0.1710884889613547}},{"sx":1,"sy":1,"depth":5,"w":{"0":-0.006730274238503758,"1":-0.0022866723506379657,"2":-0.00360561590516072,"3":-0.00547918263835262,"4":-0.17241148691382607}},{"sx":1,"sy":1,"depth":5,"w":{"0":-0.0032870748370919514,"1":-0.00018619003097492513,"2":-0.00020228952467122663,"3":-0.002462296207212311,"4":-0.17037064995737844}},{"sx":1,"sy":1,"depth":5,"w":{"0":-0.0037283713023309427,"1":-0.001904736290110357,"2":-0.0023221403356646947,"3":-0.0034881460160923936,"4":-0.17022438534253134}},{"sx":1,"sy":1,"depth":5,"w":{"0":-0.005200112723622143,"1":-0.0000652538167915267,"2":-0.0018115534511954773,"3":-0.004395278278894123,"4":-0.17107341506784443}},{"sx":1,"sy":1,"depth":5,"w":{"0":-0.002846325332960773,"1":-0.000001920313515987567,"2":0.0001983543850083403,"3":-0.0020509074975372027,"4":-0.1708286995869936}},{"sx":1,"sy":1,"depth":5,"w":{"0":-0.003036246998199746,"1":0.0001603823723738808,"2":0.0001294401566347362,"3":-0.0022039542482765384,"4":-0.17095182633423958}},{"sx":1,"sy":1,"depth":5,"w":{"0":-0.0031260610450285758,"1":0.0010874578221099387,"2":0.00041888603031283757,"3":-0.0022395861960754354,"4":-0.17071656531865315}},{"sx":1,"sy":1,"depth":5,"w":{"0":-0.006036808990092712,"1":-0.00020671921552801661,"2":-0.001865258718850157,"3":-0.004879593603008322,"4":-0.1716600982734934}},{"sx":1,"sy":1,"depth":5,"w":{"0":-0.0070355850427268034,"1":-0.0019684936754716877,"2":-0.0035489670657404865,"3":-0.005782585142341949,"4":-0.17271544861395804}},{"sx":1,"sy":1,"depth":5,"w":{"0":-0.007968390418896402,"1":-0.001844166823558477,"2":-0.004192212434610395,"3":-0.006566290632919319,"4":-0.17405467238764413}},{"sx":1,"sy":1,"depth":5,"w":{"0":-0.004018528464606155,"1":0.0006870979714932346,"2":-0.00037875241941272286,"3":-0.0031292915077201083,"4":-0.1705154542995159}},{"sx":1,"sy":1,"depth":5,"w":{"0":-0.0039724276344359575,"1":-0.0008103837786801581,"2":-0.0010430699416188608,"3":-0.0032103667113518755,"4":-0.17016012165094163}},{"sx":1,"sy":1,"depth":5,"w":{"0":-0.0028919438001491077,"1":0.001301812563652329,"2":0.00113613737185021,"3":-0.0017131222769022712,"4":-0.17314402986636085}},{"sx":1,"sy":1,"depth":5,"w":{"0":-0.0054975676335094915,"1":-0.001236583547210801,"2":-0.0029778718801244356,"3":-0.004618688191318097,"4":-0.171606129530251}},{"sx":1,"sy":1,"depth":5,"w":{"0":-0.006763698230624547,"1":-0.0023624923338170832,"2":-0.0034407192557566724,"3":-0.005566017859247183,"4":-0.17223628767581828}},{"sx":1,"sy":1,"depth":5,"w":{"0":-0.005836435663203876,"1":-0.0002966000170782214,"2":-0.002260269784062529,"3":-0.00493003803555652,"4":-0.17146183282200908}},{"sx":1,"sy":1,"depth":5,"w":{"0":-0.0029656423490583414,"1":0.0012718213413574074,"2":0.0007306934672704282,"3":-0.0019348156708899073,"4":-0.17243254789153162}},{"sx":1,"sy":1,"depth":5,"w":{"0":-0.005699502607811137,"1":-0.00002307085194446076,"2":-0.0016117920561817458,"3":-0.0046236618714183535,"4":-0.17136056421282178}},{"sx":1,"sy":1,"depth":5,"w":{"0":-0.0031226499432666496,"1":-0.00002688277463996436,"2":-0.00005261714545715243,"3":-0.002219411794886411,"4":-0.17076475858490583}},{"sx":1,"sy":1,"depth":5,"w":{"0":-0.002950539273370397,"1":0.00014119393350952116,"2":0.00015888733956403132,"3":-0.0020589292751370747,"4":-0.17098811415662954}},{"sx":1,"sy":1,"depth":5,"w":{"0":-0.004269961222921107,"1":0.000238868112416584,"2":-0.0014790826485631676,"3":-0.0037591365961824894,"4":-0.1703527435765909}},{"sx":1,"sy":1,"depth":5,"w":{"0":-0.005196505584824972,"1":-0.0001534824418039846,"2":-0.001864591575270204,"3":-0.004471291883193421,"4":-0.17092176727749311}},{"sx":1,"sy":1,"depth":5,"w":{"0":-0.0063669518364325274,"1":-0.0024355860266114366,"2":-0.003590874386719748,"3":-0.005479936090088825,"4":-0.17203317388695827}},{"sx":1,"sy":1,"depth":5,"w":{"0":-0.004422807523430727,"1":0.0005224735514407185,"2":-0.0007199184032547264,"3":-0.003580184816718994,"4":-0.1703414551893142}},{"sx":1,"sy":1,"depth":5,"w":{"0":-0.007089759770634325,"1":-0.001499071665593623,"2":-0.003528814214304131,"3":-0.0058765313042811115,"4":-0.17265153734695388}},{"sx":1,"sy":1,"depth":5,"w":{"0":-0.003922841573236385,"1":0.000767372043110363,"2":-0.00035413336174277025,"3":-0.0032062674204784937,"4":-0.1702759763149821}},{"sx":1,"sy":1,"depth":5,"w":{"0":-0.005792059670939304,"1":-0.0023530755750890515,"2":-0.0031408820213201733,"3":-0.004978865970485839,"4":-0.17144034937810854}},{"sx":1,"sy":1,"depth":5,"w":{"0":-0.0027599687631948353,"1":0.0012908300420246175,"2":0.0008144357268621838,"3":-0.0017795529037668264,"4":-0.1723037673404409}},{"sx":1,"sy":1,"depth":5,"w":{"0":-0.005681134663034499,"1":-0.0016389246183212863,"2":-0.00229828529596409,"3":-0.004642052092266706,"4":-0.17130784713340813}},{"sx":1,"sy":1,"depth":5,"w":{"0":-0.006608041821941555,"1":-0.0014671714145409948,"2":-0.003519211401922154,"3":-0.005595215997731344,"4":-0.17220443881300002}},{"sx":1,"sy":1,"depth":5,"w":{"0":-0.0054756468739159975,"1":-0.0020718484401518822,"2":-0.0029188289365940034,"3":-0.004701479475034059,"4":-0.1711381260809273}},{"sx":1,"sy":1,"depth":5,"w":{"0":-0.006060628495184293,"1":-0.002400600208149899,"2":-0.0034879819787378414,"3":-0.005224525868532778,"4":-0.17155918826271677}},{"sx":1,"sy":1,"depth":5,"w":{"0":-0.005916349748234689,"1":-0.0007302524121974178,"2":-0.002204442355846869,"3":-0.004936350948557693,"4":-0.17146347584727412}},{"sx":1,"sy":1,"depth":5,"w":{"0":-0.0028685409093601698,"1":0.0013304214502391416,"2":0.0005371808725324187,"3":-0.001984617763601657,"4":-0.17153709424391242}},{"sx":1,"sy":1,"depth":5,"w":{"0":-0.0030378780519625627,"1":0.00009431085646851006,"2":0.00003114505056445258,"3":-0.0022094609661549745,"4":-0.17081965093551668}},{"sx":1,"sy":1,"depth":5,"w":{"0":-0.004513816358624177,"1":0.00004267647788709422,"2":-0.001205421699753885,"3":-0.003682423829556158,"4":-0.1703924927348788}},{"sx":1,"sy":1,"depth":5,"w":{"0":-0.0032331881563257402,"1":0.0006895977181672441,"2":-0.00018596095329532483,"3":-0.002485161018692471,"4":-0.1703897719848455}},{"sx":1,"sy":1,"depth":5,"w":{"0":-0.003912478585032133,"1":-0.00028200187690618085,"2":-0.0010934923190358456,"3":-0.0031185272885173795,"4":-0.17016364108002482}},{"sx":1,"sy":1,"depth":5,"w":{"0":-0.004039249774141216,"1":-0.0005781339442802744,"2":-0.001009586335754348,"3":-0.00326924050481092,"4":-0.17025650097232328}},{"sx":1,"sy":1,"depth":5,"w":{"0":-0.006105290352747542,"1":-0.0022823824388167424,"2":-0.003368245261064875,"3":-0.0052648154535546296,"4":-0.17157134065372817}},{"sx":1,"sy":1,"depth":5,"w":{"0":-0.008262548375518666,"1":-0.0020609377068814038,"2":-0.004368112363842296,"3":-0.006769543540562733,"4":-0.17436861623179517}},{"sx":1,"sy":1,"depth":5,"w":{"0":-0.005906916785836762,"1":-0.0023188938527965537,"2":-0.0034397457186645984,"3":-0.005097921076057298,"4":-0.17136752758443516}},{"sx":1,"sy":1,"depth":5,"w":{"0":-0.0028813622641931354,"1":0.00020214366839248687,"2":0.00028590444777768734,"3":-0.002010563129140383,"4":-0.1712162245723695}},{"sx":1,"sy":1,"depth":5,"w":{"0":-0.0058562784237766235,"1":-0.0018908239523288154,"2":-0.002800203937742708,"3":-0.004803265272354353,"4":-0.17141686703612538}},{"sx":1,"sy":1,"depth":5,"w":{"0":-0.0028964550230790595,"1":0.000013414335177372948,"2":0.00003809264336637492,"3":-0.0021492877720655007,"4":-0.1706136386961555}},{"sx":1,"sy":1,"depth":5,"w":{"0":-0.002749252966497958,"1":0.0008529592821802439,"2":0.0004416732340061934,"3":-0.0018416672878600326,"4":-0.1715658688464858}},{"sx":1,"sy":1,"depth":5,"w":{"0":-0.0028838179781857107,"1":0.00005206527319930889,"2":0.00009025695756148793,"3":-0.002032445964483923,"4":-0.17086173681750674}},{"sx":1,"sy":1,"depth":5,"w":{"0":-0.005717828408023349,"1":0.000044837427673415173,"2":-0.0016761524884025144,"3":-0.004695955532700032,"4":-0.1712763418963518}},{"sx":1,"sy":1,"depth":5,"w":{"0":-0.003596472406761689,"1":0.0003025204276218057,"2":-0.000980003730501627,"3":-0.0032643037498849455,"4":-0.17030815895091744}},{"sx":1,"sy":1,"depth":5,"w":{"0":-0.005862816323095614,"1":-0.001687890045178005,"2":-0.002584581308544902,"3":-0.004832160035616209,"4":-0.17144281003019185}},{"sx":1,"sy":1,"depth":5,"w":{"0":-0.004208380361548603,"1":0.00022780726949014072,"2":-0.0013207604983688209,"3":-0.0036578074240723544,"4":-0.17031873619985213}},{"sx":1,"sy":1,"depth":5,"w":{"0":-0.0034680086833777817,"1":0.0011114472955147938,"2":0.00010040275294701971,"3":-0.0025347214684225856,"4":-0.1704988632066907}},{"sx":1,"sy":1,"depth":5,"w":{"0":-0.004661287166720209,"1":-0.0012331423745358548,"2":-0.001658304083097335,"3":-0.003827865805325292,"4":-0.1704711778393608}},{"sx":1,"sy":1,"depth":5,"w":{"0":-0.006771911334053198,"1":-0.002362584322887586,"2":-0.0034463386730872797,"3":-0.005623462815056337,"4":-0.1722716378929686}},{"sx":1,"sy":1,"depth":5,"w":{"0":-0.003826860017327921,"1":-0.00019010109021026463,"2":-0.0009275175603375826,"3":-0.0030743671611515857,"4":-0.1701513456727223}},{"sx":1,"sy":1,"depth":5,"w":{"0":-0.003201188539437211,"1":-0.00018865249194299435,"2":-0.00022969144889197933,"3":-0.002415355629470213,"4":-0.17059924181795577}},{"sx":1,"sy":1,"depth":5,"w":{"0":-0.006691838350764824,"1":-0.0021885649055599613,"2":-0.003355224414859807,"3":-0.005522547818309579,"4":-0.17236155217265073}},{"sx":1,"sy":1,"depth":5,"w":{"0":-0.0029923429980684424,"1":0.00015018858765965433,"2":0.0001236349701047297,"3":-0.002203333080072003,"4":-0.17100615439136277}},{"sx":1,"sy":1,"depth":5,"w":{"0":-0.005142720644911089,"1":-0.0003198875182345781,"2":-0.0018737286348695053,"3":-0.004216453130888951,"4":-0.17082136026160105}},{"sx":1,"sy":1,"depth":5,"w":{"0":-0.002909696121962603,"1":0.001543017001631008,"2":0.0008096813905408874,"3":-0.00181339693434428,"4":-0.1718074102064495}},{"sx":1,"sy":1,"depth":5,"w":{"0":-0.0028658465352999598,"1":0.00021953109252957886,"2":0.0002863991960616189,"3":-0.002062021608798561,"4":-0.1710936734799486}},{"sx":1,"sy":1,"depth":5,"w":{"0":-0.00278559727306929,"1":0.00020062037209716654,"2":0.00026195234167796953,"3":-0.002021099546535449,"4":-0.17111800121578713}},{"sx":1,"sy":1,"depth":5,"w":{"0":-0.004480463671353429,"1":-0.001886946459877486,"2":-0.002835653974076258,"3":-0.004075250612547361,"4":-0.17036525888003176}},{"sx":1,"sy":1,"depth":5,"w":{"0":-0.0030504008928221756,"1":0.0015148157653876865,"2":0.0008202391022785792,"3":-0.0019023076860244289,"4":-0.17271909096571852}},{"sx":1,"sy":1,"depth":5,"w":{"0":-0.0070130097051338235,"1":-0.001351998946383703,"2":-0.003351467683215535,"3":-0.005723164904307282,"4":-0.17261582273670392}},{"sx":1,"sy":1,"depth":5,"w":{"0":-0.00446461923260636,"1":-0.0011196269201748446,"2":-0.001566991276189501,"3":-0.0036502765678299636,"4":-0.1704162063662091}},{"sx":1,"sy":1,"depth":5,"w":{"0":-0.0030243474447403124,"1":-0.0000435283255662269,"2":0.000004876616842513712,"3":-0.0022038429360336925,"4":-0.1707961771789186}},{"sx":1,"sy":1,"depth":5,"w":{"0":-0.005886312443363267,"1":-0.00230173071599007,"2":-0.0029580510618249477,"3":-0.005101215294504595,"4":-0.17156392060236633}},{"sx":1,"sy":1,"depth":5,"w":{"0":-0.0036111087612220524,"1":0.00039606990895376943,"2":-0.00029078553986350416,"3":-0.002858937031405713,"4":-0.17020978046399887}},{"sx":1,"sy":1,"depth":5,"w":{"0":-0.007407760224171947,"1":-0.002340698930930468,"2":-0.003674197656090492,"3":-0.0060696930900098495,"4":-0.17321576779090667}},{"sx":1,"sy":1,"depth":5,"w":{"0":-0.004040517806690796,"1":0.0006999218729205289,"2":-0.00039178176975454386,"3":-0.0031499219600652282,"4":-0.17034246814149703}},{"sx":1,"sy":1,"depth":5,"w":{"0":-0.007911703490832938,"1":-0.0015200240741748481,"2":-0.0038891006618468017,"3":-0.0064523732077296355,"4":-0.17376991704587189}},{"sx":1,"sy":1,"depth":5,"w":{"0":-0.002982878958295904,"1":0.0015190208656863046,"2":0.0005187401352387301,"3":-0.002145334872088036,"4":-0.1715721488070063}},{"sx":1,"sy":1,"depth":5,"w":{"0":-0.0038096638135466073,"1":0.00041274071384872404,"2":-0.001106450415307295,"3":-0.0034490024620996264,"4":-0.17029086801980253}},{"sx":1,"sy":1,"depth":5,"w":{"0":-0.00518079122266029,"1":-0.0003865377335871155,"2":-0.0019077099013263604,"3":-0.004252160247448651,"4":-0.17086068858100262}},{"sx":1,"sy":1,"depth":5,"w":{"0":-0.0031855442066513516,"1":-0.0003184167968998743,"2":-0.000318763763849842,"3":-0.002482443653826813,"4":-0.17023248392288456}},{"sx":1,"sy":1,"depth":5,"w":{"0":-0.005725959106783484,"1":-0.000081377622459453,"2":-0.0016974113069309288,"3":-0.004724306096565316,"4":-0.17126309460564157}},{"sx":1,"sy":1,"depth":5,"w":{"0":-0.0034058403602568784,"1":0.0014013052726525289,"2":0.00020087850889347753,"3":-0.0025806283165283957,"4":-0.1702564066022272}},{"sx":1,"sy":1,"depth":5,"w":{"0":-0.004124815951662586,"1":-0.0006082426593212142,"2":-0.0014108573124076763,"3":-0.003126627326189446,"4":-0.1708628707717664}},{"sx":1,"sy":1,"depth":5,"w":{"0":-0.005416584389495586,"1":-0.0023668116769104755,"2":-0.0031665030827911817,"3":-0.004739252857025139,"4":-0.17106695726175664}},{"sx":1,"sy":1,"depth":5,"w":{"0":-0.0034608305549387428,"1":0.0009186466820510254,"2":0.000004668872004734252,"3":-0.0027448571663231,"4":-0.1702515500892336}},{"sx":1,"sy":1,"depth":5,"w":{"0":-0.0036909619020073846,"1":0.00023184059412995365,"2":-0.001161493513477464,"3":-0.0033515440596896392,"4":-0.170364330712367}},{"sx":1,"sy":1,"depth":5,"w":{"0":-0.0018015819011875161,"1":0.0006326310886347088,"2":0.0003380323582913114,"3":-0.00106410775381597,"4":-0.17020674169530156}},{"sx":1,"sy":1,"depth":5,"w":{"0":-0.0034282486370367064,"1":0.0011771070576223762,"2":0.00020382767005725465,"3":-0.002549313642902345,"4":-0.1705952520314364}},{"sx":1,"sy":1,"depth":5,"w":{"0":-0.0032237584280890496,"1":-0.00022307624657221035,"2":-0.0001416347528529708,"3":-0.002429635155413617,"4":-0.17044107453368051}},{"sx":1,"sy":1,"depth":5,"w":{"0":-0.0029540963520338862,"1":0.0009834265668248001,"2":0.0005717338785439794,"3":-0.0019496437080481158,"4":-0.1720011942984849}},{"sx":1,"sy":1,"depth":5,"w":{"0":-0.0030082925992241253,"1":-0.00010355919753191382,"2":-0.00007263232366797046,"3":-0.002190096044213012,"4":-0.17065923848161121}},{"sx":1,"sy":1,"depth":5,"w":{"0":-0.005769680045290408,"1":-0.0007271880918332889,"2":-0.0023685605940573107,"3":-0.004713515349782109,"4":-0.1714114989739586}},{"sx":1,"sy":1,"depth":5,"w":{"0":-0.00325937915421706,"1":-0.000440396906941489,"2":-0.0004955770082635082,"3":-0.002513260046658154,"4":-0.17028415604762587}},{"sx":1,"sy":1,"depth":5,"w":{"0":-0.005164929112589009,"1":0.00025659817993897065,"2":-0.0013610769363478579,"3":-0.004219204056545892,"4":-0.17085883180606692}},{"sx":1,"sy":1,"depth":5,"w":{"0":-0.002872239641566799,"1":0.0000982487427177161,"2":0.0001719796599820994,"3":-0.0021249617600792225,"4":-0.1708722910335918}},{"sx":1,"sy":1,"depth":5,"w":{"0":-0.006685611034827219,"1":-0.0012457597526342352,"2":-0.0033570749622648796,"3":-0.0056165692024561405,"4":-0.17214431538618408}},{"sx":1,"sy":1,"depth":5,"w":{"0":-0.006634783234213805,"1":-0.0021903445869494217,"2":-0.0037861475252773625,"3":-0.00564621187910222,"4":-0.17219498691358054}},{"sx":1,"sy":1,"depth":5,"w":{"0":-0.0028398733473115802,"1":0.0014527429864147428,"2":0.0007770566860820028,"3":-0.0020187314158566765,"4":-0.17088783984039246}},{"sx":1,"sy":1,"depth":5,"w":{"0":-0.006260289314337478,"1":-0.0008327302852326359,"2":-0.0025067319971672467,"3":-0.005276021497145469,"4":-0.17192695821263648}},{"sx":1,"sy":1,"depth":5,"w":{"0":-0.006579289194690283,"1":-0.00043965579564497087,"2":-0.0025516456590535105,"3":-0.00530945084132127,"4":-0.1724726345798543}},{"sx":1,"sy":1,"depth":5,"w":{"0":-0.0038685363517179418,"1":-0.0006620691515650679,"2":-0.0009938322189900273,"3":-0.0031298371748355583,"4":-0.17026085072059632}},{"sx":1,"sy":1,"depth":5,"w":{"0":-0.006458952377824554,"1":-0.0014165039066708182,"2":-0.0035090883300299223,"3":-0.0054955310344827375,"4":-0.17202300206403212}},{"sx":1,"sy":1,"depth":5,"w":{"0":-0.003334405686441911,"1":0.0006828170816436763,"2":-0.00024278537789973118,"3":-0.0026033312476086293,"4":-0.17018248489731708}},{"sx":1,"sy":1,"depth":5,"w":{"0":-0.007755238608238717,"1":-0.001846497756433073,"2":-0.003943350510710002,"3":-0.0064117667782220035,"4":-0.1737428730422096}},{"sx":1,"sy":1,"depth":5,"w":{"0":-0.005889681261898596,"1":-0.0008550375951648056,"2":-0.002418869552761875,"3":-0.004809458325992166,"4":-0.171515070988747}},{"sx":1,"sy":1,"depth":5,"w":{"0":-0.007961292034648211,"1":-0.0030518532386279813,"2":-0.004400084979714733,"3":-0.006578316494693216,"4":-0.1738677290368649}},{"sx":1,"sy":1,"depth":5,"w":{"0":-0.0035388935120594395,"1":-0.00031399145512696347,"2":-0.000494218189940737,"3":-0.002775785112121253,"4":-0.17017195859147244}},{"sx":1,"sy":1,"depth":5,"w":{"0":-0.0072862675101866385,"1":-0.0016583805159413423,"2":-0.003683533732258048,"3":-0.006007857737928908,"4":-0.173052327374418}},{"sx":1,"sy":1,"depth":5,"w":{"0":-0.0069354732057733594,"1":-0.0010845266041008385,"2":-0.0026630797407340276,"3":-0.005649957263971303,"4":-0.17280232329438014}},{"sx":1,"sy":1,"depth":5,"w":{"0":-0.005253396944239767,"1":-0.002215604544889927,"2":-0.0028783319229040588,"3":-0.00453021713193616,"4":-0.17090549492201595}},{"sx":1,"sy":1,"depth":5,"w":{"0":-0.0030678751989501466,"1":0.0005989273781216386,"2":0.0001588941038812631,"3":-0.0021780227133458667,"4":-0.17106982086729738}},{"sx":1,"sy":1,"depth":5,"w":{"0":-0.0035674623033020115,"1":0.00033928254988766643,"2":-0.0010172049049025846,"3":-0.0031921157954245636,"4":-0.17018554072919867}},{"sx":1,"sy":1,"depth":5,"w":{"0":-0.005243781216498256,"1":-0.0022725291969985344,"2":-0.0030202229288209125,"3":-0.004513320453568167,"4":-0.17081784501213063}},{"sx":1,"sy":1,"depth":5,"w":{"0":-0.006894114725324236,"1":-0.0026791862474250245,"2":-0.003603143102267002,"3":-0.005801744184408287,"4":-0.1725843203091188}},{"sx":1,"sy":1,"depth":5,"w":{"0":-0.005020861653560679,"1":-0.001018319817919119,"2":-0.0018701791986333624,"3":-0.0041261915659739365,"4":-0.1707171242714368}},{"sx":1,"sy":1,"depth":5,"w":{"0":-0.002791880939183088,"1":0.00010343815932497939,"2":0.0003873966961293659,"3":-0.0019250754511144002,"4":-0.17137287931290382}},{"sx":1,"sy":1,"depth":5,"w":{"0":-0.007382952264376448,"1":-0.0027043093954022255,"2":-0.0038130025545795162,"3":-0.006030373669054323,"4":-0.1729616245777872}},{"sx":1,"sy":1,"depth":5,"w":{"0":-0.0061863424354664225,"1":-0.002057213493028177,"2":-0.0032541660833361784,"3":-0.005285907006255511,"4":-0.17163555351905557}},{"sx":1,"sy":1,"depth":5,"w":{"0":-0.004873142252576567,"1":-0.0001946124759962971,"2":-0.0017309142013847366,"3":-0.004119750752319477,"4":-0.170728594007504}},{"sx":1,"sy":1,"depth":5,"w":{"0":-0.003935853627541485,"1":-0.0017974000928309458,"2":-0.0024409907094651313,"3":-0.0036124393174133884,"4":-0.17027116044486712}},{"sx":1,"sy":1,"depth":5,"w":{"0":-0.004514186614344256,"1":-0.00195026690583272,"2":-0.002610700467615268,"3":-0.004057092969977761,"4":-0.17043658055243605}},{"sx":1,"sy":1,"depth":5,"w":{"0":-0.004250107122793709,"1":0.00045785211694375364,"2":-0.0009601127126052514,"3":-0.00343795170329396,"4":-0.1701799321524081}},{"sx":1,"sy":1,"depth":5,"w":{"0":-0.005895168128504773,"1":-0.0006274320249558449,"2":-0.002286213396170462,"3":-0.004842988393644322,"4":-0.1715302400815483}},{"sx":1,"sy":1,"depth":5,"w":{"0":-0.0073344668635236705,"1":-0.002641295641730695,"2":-0.0037808333745688715,"3":-0.006018453428627687,"4":-0.17310505029603646}},{"sx":1,"sy":1,"depth":5,"w":{"0":-0.006647355148500596,"1":-0.0014447011416899955,"2":-0.003591834268467959,"3":-0.005689268499797147,"4":-0.1722446942860997}},{"sx":1,"sy":1,"depth":5,"w":{"0":-0.006931158134076243,"1":-0.0015695530946868647,"2":-0.0034601735767044724,"3":-0.0057722228985802,"4":-0.17249668152174594}},{"sx":1,"sy":1,"depth":5,"w":{"0":-0.005226370959556895,"1":0.00019473386099142214,"2":-0.0012242838281912292,"3":-0.004231864505600563,"4":-0.17094038436786257}},{"sx":1,"sy":1,"depth":5,"w":{"0":-0.006232019747228906,"1":-0.002763429290179426,"2":-0.0034867026154528184,"3":-0.005379344110969781,"4":-0.17187915575372342}},{"sx":1,"sy":1,"depth":5,"w":{"0":-0.0028963041010892955,"1":0.0012604928896102884,"2":0.0008205710389303025,"3":-0.0019113112673248287,"4":-0.1716210895751122}},{"sx":1,"sy":1,"depth":5,"w":{"0":-0.007192786580402512,"1":-0.0015770922812320671,"2":-0.003686838007224806,"3":-0.005949434003960278,"4":-0.17285916851482197}},{"sx":1,"sy":1,"depth":5,"w":{"0":-0.0032739517410300973,"1":0.0007281452759079939,"2":-0.00027213376853421406,"3":-0.0025221009267471423,"4":-0.17018720890219433}},{"sx":1,"sy":1,"depth":5,"w":{"0":-0.002782203252895063,"1":0.0014634628062996694,"2":0.0010274719983608032,"3":-0.0017467147475741258,"4":-0.17252250020996127}},{"sx":1,"sy":1,"depth":5,"w":{"0":-0.0029669017493689255,"1":0.0001105799796466884,"2":0.0001838890776465216,"3":-0.0020923983678675278,"4":-0.17082608444818428}},{"sx":1,"sy":1,"depth":5,"w":{"0":-0.0029390540607365486,"1":0.00020448995668509505,"2":0.0003135004595092852,"3":-0.0020065278948452414,"4":-0.1712529897968406}},{"sx":1,"sy":1,"depth":5,"w":{"0":-0.0050385756586198115,"1":-0.0003665199514616192,"2":-0.0017199710211213291,"3":-0.004325388565942863,"4":-0.17071910784432978}},{"sx":1,"sy":1,"depth":5,"w":{"0":-0.0028256954158904536,"1":0.0003450798995259989,"2":0.00032835015587663087,"3":-0.002033068354497186,"4":-0.17128320669431815}},{"sx":1,"sy":1,"depth":5,"w":{"0":-0.0068571050442500815,"1":-0.002283937039685653,"2":-0.0033420704011089116,"3":-0.005657800455197288,"4":-0.1723876770500348}},{"sx":1,"sy":1,"depth":5,"w":{"0":-0.0048457488569393315,"1":0.00047305758403686296,"2":-0.0009936349782687865,"3":-0.0038946380570371326,"4":-0.17065410642791487}},{"sx":1,"sy":1,"depth":5,"w":{"0":-0.00291657269880334,"1":0.0001123484208906129,"2":0.0002614991404379348,"3":-0.002083516344474323,"4":-0.17108548333100906}},{"sx":1,"sy":1,"depth":5,"w":{"0":-0.004135348223337935,"1":-0.0016139082966837874,"2":-0.002530464724765362,"3":-0.003766910388257739,"4":-0.17029454662778104}},{"sx":1,"sy":1,"depth":5,"w":{"0":-0.003388563338359069,"1":0.0011479870334678297,"2":0.0001368383811169633,"3":-0.002483133385041003,"4":-0.17069002804340738}},{"sx":1,"sy":1,"depth":5,"w":{"0":-0.0031904909911557077,"1":0.00021940275789391044,"2":-0.0002749368180130834,"3":-0.0024155890452996318,"4":-0.1704201736554135}},{"sx":1,"sy":1,"depth":5,"w":{"0":-0.007267393910612976,"1":-0.0023853356052438964,"2":-0.0036455596587336068,"3":-0.005908506091752336,"4":-0.17287119800909695}},{"sx":1,"sy":1,"depth":5,"w":{"0":-0.00752929310473856,"1":-0.0016910352880780812,"2":-0.0037189146726812118,"3":-0.006125261151320511,"4":-0.17331639362986703}},{"sx":1,"sy":1,"depth":5,"w":{"0":-0.004297551542002167,"1":-0.001829119838078637,"2":-0.0025623333968626755,"3":-0.0038621877073044507,"4":-0.17030171338853567}},{"sx":1,"sy":1,"depth":5,"w":{"0":-0.004256881088796653,"1":-0.0010023866605191434,"2":-0.00124590554254604,"3":-0.003481447835273305,"4":-0.17027016325308766}},{"sx":1,"sy":1,"depth":5,"w":{"0":-0.005305276184179778,"1":-0.001534348859293245,"2":-0.001994975169738347,"3":-0.0043304208256180095,"4":-0.17094818882655008}},{"sx":1,"sy":1,"depth":5,"w":{"0":-0.006927245738511191,"1":-0.00256485319649692,"2":-0.0032935519893173702,"3":-0.005664077876292164,"4":-0.17258614831353586}},{"sx":1,"sy":1,"depth":5,"w":{"0":-0.006445938277910161,"1":-0.0005979470032228835,"2":-0.002377323184660731,"3":-0.005310505758277537,"4":-0.17201594391407218}},{"sx":1,"sy":1,"depth":5,"w":{"0":-0.00307760357656562,"1":0.0003831259139557689,"2":-0.00003562570684193444,"3":-0.0023189338428172336,"4":-0.17068267532078316}},{"sx":1,"sy":1,"depth":5,"w":{"0":-0.00450406725039678,"1":0.00022163585442121084,"2":-0.0014666241892359248,"3":-0.003955739881412593,"4":-0.17046077809302848}},{"sx":1,"sy":1,"depth":5,"w":{"0":-0.006903159734862637,"1":-0.0005654954702222624,"2":-0.0026230575904342443,"3":-0.0056305738016890474,"4":-0.17259896230574176}},{"sx":1,"sy":1,"depth":5,"w":{"0":-0.0029235971953104423,"1":0.0012470776102623407,"2":0.00047446817585256214,"3":-0.0019165824297325586,"4":-0.17141073091958217}},{"sx":1,"sy":1,"depth":5,"w":{"0":-0.0028973058270521587,"1":0.00009257735394809646,"2":0.00010149848034184377,"3":-0.002182463790510193,"4":-0.1708259356833669}},{"sx":1,"sy":1,"depth":5,"w":{"0":-0.0029427650657774876,"1":0.0017022013114668189,"2":0.0012580142982495813,"3":-0.0016811432132570765,"4":-0.17324322325506547}},{"sx":1,"sy":1,"depth":5,"w":{"0":-0.006399891409599979,"1":-0.002184450466313934,"2":-0.0030395248309453807,"3":-0.005256264730444991,"4":-0.17194704379574138}},{"sx":1,"sy":1,"depth":5,"w":{"0":-0.005253478589594917,"1":-0.002151819575328169,"2":-0.003055380685676766,"3":-0.004606810292818109,"4":-0.17090422554493317}},{"sx":1,"sy":1,"depth":5,"w":{"0":-0.007486284751740239,"1":-0.001575501950581169,"2":-0.0035238759981910056,"3":-0.00600245350282789,"4":-0.1730163799243554}},{"sx":1,"sy":1,"depth":5,"w":{"0":-0.0038285877729025,"1":-0.0010558600783996978,"2":-0.0011043564921597343,"3":-0.0031271834942535187,"4":-0.1700915092965244}},{"sx":1,"sy":1,"depth":5,"w":{"0":-0.004537247752842857,"1":0.0006036384379997746,"2":-0.0009144678135306309,"3":-0.003624416887860224,"4":-0.17042772881110782}},{"sx":1,"sy":1,"depth":5,"w":{"0":-0.006636319469665973,"1":-0.0014901686543153992,"2":-0.0033471858945560585,"3":-0.00557305218864851,"4":-0.1722557137362012}},{"sx":1,"sy":1,"depth":5,"w":{"0":-0.004198203154458462,"1":-0.00042969394178923013,"2":-0.0019442743651066172,"3":-0.003169512858673624,"4":-0.1709318175830292}},{"sx":1,"sy":1,"depth":5,"w":{"0":-0.005557460138856698,"1":-0.00040663546486270283,"2":-0.002030219509958519,"3":-0.004724310100239899,"4":-0.17118163309396972}},{"sx":1,"sy":1,"depth":5,"w":{"0":-0.003031874670187635,"1":0.00011856168236645988,"2":0.00012419020210457628,"3":-0.0021817557411313625,"4":-0.170969246478766}},{"sx":1,"sy":1,"depth":5,"w":{"0":-0.004963083162616489,"1":-0.0022312515654250814,"2":-0.0029061409467348994,"3":-0.004385004776362579,"4":-0.17065699357584305}},{"sx":1,"sy":1,"depth":5,"w":{"0":-0.0028894401800528486,"1":0.0014183559909968918,"2":0.0009090027314873081,"3":-0.0018478518213080348,"4":-0.17272893880370566}},{"sx":1,"sy":1,"depth":5,"w":{"0":-0.006336076303636185,"1":-0.002441402586272498,"2":-0.003468741641067779,"3":-0.0052784361785306825,"4":-0.1719364973837929}},{"sx":1,"sy":1,"depth":5,"w":{"0":-0.006258857896385615,"1":-0.0009035017926257251,"2":-0.0024179989578047988,"3":-0.0052482133023473015,"4":-0.1718825377480787}},{"sx":1,"sy":1,"depth":5,"w":{"0":-0.005265271264397775,"1":-0.00005765903417114405,"2":-0.0018244141738754695,"3":-0.0044936852068405125,"4":-0.17089849926730338}},{"sx":1,"sy":1,"depth":5,"w":{"0":-0.006588672170477184,"1":-0.001354882064298085,"2":-0.003413671811462274,"3":-0.005577662479001445,"4":-0.17213505678793478}},{"sx":1,"sy":1,"depth":5,"w":{"0":-0.0028744700340870358,"1":0.0015401701635269559,"2":0.000919210947963791,"3":-0.001842279057903292,"4":-0.17222979598220461}},{"sx":1,"sy":1,"depth":5,"w":{"0":-0.0059915623863644255,"1":-0.001560940633076173,"2":-0.0032873714514697863,"3":-0.005109233760043953,"4":-0.1715346146334367}},{"sx":1,"sy":1,"depth":5,"w":{"0":-0.005346162754668357,"1":-0.0020983612920550043,"2":-0.0030550872831468672,"3":-0.004643223146526361,"4":-0.17093716018310404}},{"sx":1,"sy":1,"depth":5,"w":{"0":-0.007245268403581413,"1":-0.0026219372033651983,"2":-0.0036479921656151397,"3":-0.005815351247033892,"4":-0.17279401794930857}},{"sx":1,"sy":1,"depth":5,"w":{"0":-0.005711431169661205,"1":-0.0019856507000742497,"2":-0.0027743295768278913,"3":-0.004568367306243019,"4":-0.1719528516709101}},{"sx":1,"sy":1,"depth":5,"w":{"0":-0.0029281966640931703,"1":0.0009043026991986036,"2":0.000586255159074494,"3":-0.002068053161131886,"4":-0.17134728451925832}},{"sx":1,"sy":1,"depth":5,"w":{"0":-0.003737305635193985,"1":-0.0019584311853486688,"2":-0.0022891813629848223,"3":-0.0034710904872606763,"4":-0.17023349109066624}},{"sx":1,"sy":1,"depth":5,"w":{"0":-0.003587219968298984,"1":0.0004574467438527999,"2":-0.0009749387286397643,"3":-0.0032526526096319803,"4":-0.17033667174534597}},{"sx":1,"sy":1,"depth":5,"w":{"0":-0.0030887932569487377,"1":0.00010199913828038559,"2":0.00004954296917254741,"3":-0.0023049878547477826,"4":-0.1708256764857235}},{"sx":1,"sy":1,"depth":5,"w":{"0":-0.0052479591399354555,"1":-0.0022478683297543936,"2":-0.0032565352478042845,"3":-0.004323155283263162,"4":-0.17140364684471796}},{"sx":1,"sy":1,"depth":5,"w":{"0":-0.0035392119189763616,"1":-0.0004738651980622708,"2":-0.000618104327891537,"3":-0.002807667087272108,"4":-0.17011611671933757}},{"sx":1,"sy":1,"depth":5,"w":{"0":-0.007247234044974655,"1":-0.0025063890252396597,"2":-0.003718836666755246,"3":-0.00599946556144233,"4":-0.1728483427807232}},{"sx":1,"sy":1,"depth":5,"w":{"0":-0.006176889622375999,"1":-0.0026064761608569,"2":-0.0035661143622002546,"3":-0.00527731083434629,"4":-0.1717168937607723}},{"sx":1,"sy":1,"depth":5,"w":{"0":-0.0030525371925795523,"1":-0.000215353650664886,"2":-0.00011090278349783125,"3":-0.0023177631076769997,"4":-0.170642323881376}},{"sx":1,"sy":1,"depth":5,"w":{"0":-0.003013388379441745,"1":0.0004055478870573319,"2":-0.00004033655627194493,"3":-0.002304483133179825,"4":-0.17072785330436183}},{"sx":1,"sy":1,"depth":5,"w":{"0":-0.006818590785867556,"1":-0.002402233790702791,"2":-0.0032889853109514876,"3":-0.005542294817543624,"4":-0.17249766881345663}},{"sx":1,"sy":1,"depth":5,"w":{"0":-0.006552288245877943,"1":-0.00203335650552661,"2":-0.0031507146713366505,"3":-0.005399923751387406,"4":-0.1720073270459615}},{"sx":1,"sy":1,"depth":5,"w":{"0":-0.0031965026013913364,"1":-0.001689190914890257,"2":-0.0022366720695205394,"3":-0.0030492401866572772,"4":-0.17049035068418508}},{"sx":1,"sy":1,"depth":5,"w":{"0":-0.0032517385886353537,"1":0.00031123986673638627,"2":-0.00015994170822644215,"3":-0.0024682953844528495,"4":-0.1705739024354655}},{"sx":1,"sy":1,"depth":5,"w":{"0":-0.00556239523751118,"1":-0.0023630747207613856,"2":-0.003219590012246557,"3":-0.0048382485401037055,"4":-0.17113956232048683}},{"sx":1,"sy":1,"depth":5,"w":{"0":-0.005855795198267167,"1":-0.00021098006081457727,"2":-0.0021405364810908713,"3":-0.004928311354783828,"4":-0.17142804342774715}},{"sx":1,"sy":1,"depth":5,"w":{"0":-0.006309690039196583,"1":-0.0022968423495607093,"2":-0.0034531130336093153,"3":-0.005225389266772013,"4":-0.17164702555250488}},{"sx":1,"sy":1,"depth":5,"w":{"0":-0.0052119094091530715,"1":-0.0014723774591038703,"2":-0.002128458261443296,"3":-0.004282358647711779,"4":-0.17088239535415037}},{"sx":1,"sy":1,"depth":5,"w":{"0":-0.004427091437728897,"1":-0.0019420489498363333,"2":-0.0025707423767128844,"3":-0.003953147682229251,"4":-0.17030119795866883}},{"sx":1,"sy":1,"depth":5,"w":{"0":-0.0034333976124067116,"1":0.0009371613315304374,"2":-0.000009808128625749413,"3":-0.0026984782512952375,"4":-0.1700212453946668}},{"sx":1,"sy":1,"depth":5,"w":{"0":-0.002710098327713028,"1":0.0009986679625020906,"2":0.0006027027271929492,"3":-0.0018707028976127343,"4":-0.1711763058432325}},{"sx":1,"sy":1,"depth":5,"w":{"0":-0.002940181364277078,"1":0.000012251362015810682,"2":0.00023380924903805425,"3":-0.0020337278066493453,"4":-0.17109093029398745}},{"sx":1,"sy":1,"depth":5,"w":{"0":-0.0064826986159514455,"1":-0.0022704407325304745,"2":-0.003215706167963577,"3":-0.005300301302832799,"4":-0.17198265512852343}},{"sx":1,"sy":1,"depth":5,"w":{"0":-0.004178852882738891,"1":-0.0010916381269031267,"2":-0.001251849528720132,"3":-0.0033974722591523306,"4":-0.1702468336010199}},{"sx":1,"sy":1,"depth":5,"w":{"0":-0.0033248312658215196,"1":0.0012524275307377697,"2":0.00034748533940122135,"3":-0.002454795410386164,"4":-0.1704770653397664}},{"sx":1,"sy":1,"depth":5,"w":{"0":-0.0030078068856706436,"1":0.0006031170675612797,"2":0.00015601389618006677,"3":-0.0021663083847150884,"4":-0.1710206077498671}},{"sx":1,"sy":1,"depth":5,"w":{"0":-0.00326523675779505,"1":-0.0003333094577461809,"2":-0.00030855241133828995,"3":-0.0024370750314224097,"4":-0.17051779225509212}},{"sx":1,"sy":1,"depth":5,"w":{"0":-0.005975683222017598,"1":-0.00025110925249100836,"2":-0.0022138571064846428,"3":-0.005040650453403257,"4":-0.17159686825867182}},{"sx":1,"sy":1,"depth":5,"w":{"0":-0.0046317256738357656,"1":-0.0017698058267574806,"2":-0.002544416859989244,"3":-0.004063062551341077,"4":-0.17050301442002685}},{"sx":1,"sy":1,"depth":5,"w":{"0":-0.003992341839571725,"1":-0.0003473962710286712,"2":-0.0010702784528289315,"3":-0.0032596100113840747,"4":-0.17017606806862204}},{"sx":1,"sy":1,"depth":5,"w":{"0":-0.002734707336455729,"1":0.0012686476949431212,"2":0.0008426506948880962,"3":-0.0017998314206797948,"4":-0.1717015742051196}},{"sx":1,"sy":1,"depth":5,"w":{"0":-0.007404735101450059,"1":-0.0027977326159968107,"2":-0.003986398172998087,"3":-0.006108784127832832,"4":-0.17314274751388178}},{"sx":1,"sy":1,"depth":5,"w":{"0":-0.004629850601784369,"1":0.000036098408355627123,"2":-0.0013818752705726702,"3":-0.003775939277894397,"4":-0.17046303829010945}},{"sx":1,"sy":1,"depth":5,"w":{"0":-0.007631864294047941,"1":-0.0028797416064997475,"2":-0.004259766300509338,"3":-0.006438439794261911,"4":-0.17355849957719785}},{"sx":1,"sy":1,"depth":5,"w":{"0":-0.0034771892050859438,"1":0.0005064586272519826,"2":-0.0009258465075924803,"3":-0.003155293376000275,"4":-0.17026271299430337}},{"sx":1,"sy":1,"depth":5,"w":{"0":-0.005164350925868094,"1":-0.0003368211174055622,"2":-0.0017411197563223224,"3":-0.004225980443852264,"4":-0.1708275173749061}},{"sx":1,"sy":1,"depth":5,"w":{"0":-0.005100858460836546,"1":0.0005089672773913568,"2":-0.0011540127690319248,"3":-0.004148466932155584,"4":-0.17082595756188684}},{"sx":1,"sy":1,"depth":5,"w":{"0":-0.0063460214795700975,"1":-0.0003737765921371383,"2":-0.002387048792473623,"3":-0.005323602378389923,"4":-0.17187823815860281}},{"sx":1,"sy":1,"depth":5,"w":{"0":-0.004912399711870494,"1":-0.002048425341544547,"2":-0.0029944434837998234,"3":-0.004383103085647424,"4":-0.17056397765016332}},{"sx":1,"sy":1,"depth":5,"w":{"0":-0.004820847035555802,"1":-0.0013010021972035513,"2":-0.0018761775330678934,"3":-0.003949710828937581,"4":-0.17056961054722242}},{"sx":1,"sy":1,"depth":5,"w":{"0":-0.007127629589087843,"1":-0.0012512341386235898,"2":-0.002896163506442543,"3":-0.005839721350026935,"4":-0.17293191147321318}},{"sx":1,"sy":1,"depth":5,"w":{"0":-0.0030607351647452333,"1":-0.00017697097332317296,"2":-0.0002776874157720483,"3":-0.0023587973104942806,"4":-0.17030714729143412}},{"sx":1,"sy":1,"depth":5,"w":{"0":-0.0030509014783331205,"1":0.0014342278250340334,"2":0.0006594040982636305,"3":-0.0019895165357729097,"4":-0.172553095843298}},{"sx":1,"sy":1,"depth":5,"w":{"0":-0.005137900741513002,"1":-0.000992141974908873,"2":-0.00292724566347043,"3":-0.00442155561679836,"4":-0.17119127030012452}},{"sx":1,"sy":1,"depth":5,"w":{"0":-0.005298754408336513,"1":-0.0003779137379335874,"2":-0.0014743038992761153,"3":-0.004298820538283708,"4":-0.17097474688822137}},{"sx":1,"sy":1,"depth":5,"w":{"0":-0.0029821718248464477,"1":0.0013545305359443614,"2":0.0009050870553445941,"3":-0.0017830954435475018,"4":-0.17322211809680085}},{"sx":1,"sy":1,"depth":5,"w":{"0":-0.0036908907278058807,"1":-0.0009978750464296271,"2":-0.0009535768017991646,"3":-0.0029665154812292894,"4":-0.17028320453102502}},{"sx":1,"sy":1,"depth":5,"w":{"0":-0.006133907415328486,"1":-0.001382736572075897,"2":-0.0031492086635769535,"3":-0.005271733987591695,"4":-0.17179378368980489}},{"sx":1,"sy":1,"depth":5,"w":{"0":-0.007504599701173217,"1":-0.0027728320384386848,"2":-0.0037969647995157703,"3":-0.006137861059341002,"4":-0.17323175031022633}},{"sx":1,"sy":1,"depth":5,"w":{"0":-0.00539780063455046,"1":0.00003053566287021395,"2":-0.0019138263697169484,"3":-0.00459985518056171,"4":-0.1710232125817728}},{"sx":1,"sy":1,"depth":5,"w":{"0":-0.003285663041305739,"1":-0.00039176193673409005,"2":-0.0004996721010878061,"3":-0.0025479446637908117,"4":-0.17028054398629405}},{"sx":1,"sy":1,"depth":5,"w":{"0":-0.004321052423392871,"1":0.00022323696751352148,"2":-0.001448147048171969,"3":-0.003849018672864246,"4":-0.17033489339907376}},{"sx":1,"sy":1,"depth":5,"w":{"0":-0.005488292669282007,"1":-0.0005885988248890068,"2":-0.0020422150635211666,"3":-0.004663515639361583,"4":-0.17110224857231962}},{"sx":1,"sy":1,"depth":5,"w":{"0":-0.005977382560968424,"1":-0.0007909252619845331,"2":-0.002048768253891569,"3":-0.004740142314991664,"4":-0.17195900384619994}},{"sx":1,"sy":1,"depth":5,"w":{"0":-0.0031043460633783364,"1":-0.00010549753535888154,"2":-0.00009733549129204572,"3":-0.0023884596526106048,"4":-0.1706798910567334}},{"sx":1,"sy":1,"depth":5,"w":{"0":-0.00680963080973687,"1":-0.0007856260657376772,"2":-0.002691571172718934,"3":-0.005642400535235646,"4":-0.17262195234411215}},{"sx":1,"sy":1,"depth":5,"w":{"0":-0.0027772232203071385,"1":0.00010040031498461917,"2":0.00039507338333292195,"3":-0.0018607809477907073,"4":-0.17126626775780246}},{"sx":1,"sy":1,"depth":5,"w":{"0":-0.005786827541592918,"1":-0.0007238201505558208,"2":-0.0022603962764725593,"3":-0.004909091216072947,"4":-0.17145699433233463}},{"sx":1,"sy":1,"depth":5,"w":{"0":-0.0070277847387572485,"1":-0.0016951923609004164,"2":-0.00362110811055441,"3":-0.005839656733853718,"4":-0.1726204396119983}},{"sx":1,"sy":1,"depth":5,"w":{"0":-0.00433263202197656,"1":-0.001005609886743872,"2":-0.0014866660160421802,"3":-0.003524838505301389,"4":-0.17031120376265277}},{"sx":1,"sy":1,"depth":5,"w":{"0":-0.004998481433910389,"1":-0.0016830040052764558,"2":-0.001980877320801579,"3":-0.004113703372169067,"4":-0.17069262083384884}},{"sx":1,"sy":1,"depth":5,"w":{"0":-0.002921953572132434,"1":0.0003497401824367717,"2":0.0003350986817039388,"3":-0.00198084421079287,"4":-0.1715097860617979}},{"sx":1,"sy":1,"depth":5,"w":{"0":-0.007895609150591005,"1":-0.0028883883006238812,"2":-0.004405100118939143,"3":-0.0065190667871963875,"4":-0.17386521925700613}},{"sx":1,"sy":1,"depth":5,"w":{"0":-0.0061551460059009,"1":-0.0020468789461001017,"2":-0.0030124956505972,"3":-0.005084346494492061,"4":-0.17167298015375707}},{"sx":1,"sy":1,"depth":5,"w":{"0":-0.0029585548559014655,"1":0.0000748707603354721,"2":0.00016997681988704504,"3":-0.0021896692932366173,"4":-0.1710099477063895}},{"sx":1,"sy":1,"depth":5,"w":{"0":-0.007079074999637344,"1":-0.001511055358969306,"2":-0.0035750819069866767,"3":-0.00575949831468675,"4":-0.1725098206560151}},{"sx":1,"sy":1,"depth":5,"w":{"0":-0.0031085206799031564,"1":0.0012883127083449753,"2":0.00047232790776391507,"3":-0.002318635914511524,"4":-0.1703940067816044}},{"sx":1,"sy":1,"depth":5,"w":{"0":-0.006812077903867196,"1":-0.0013296821009293092,"2":-0.0031897228706880124,"3":-0.005609239376335678,"4":-0.17244260400086914}},{"sx":1,"sy":1,"depth":5,"w":{"0":-0.0028216351864053827,"1":0.000525222684418404,"2":0.000053364406136300994,"3":-0.00213204732125511,"4":-0.1709099389910531}},{"sx":1,"sy":1,"depth":5,"w":{"0":-0.004202270146805217,"1":0.00018311414780124895,"2":-0.0014090181968329217,"3":-0.003681785034134571,"4":-0.17033412923319233}},{"sx":1,"sy":1,"depth":5,"w":{"0":-0.006908336529859296,"1":-0.0011336958662960593,"2":-0.0027556304422992305,"3":-0.005720702091275683,"4":-0.17265761180909114}},{"sx":1,"sy":1,"depth":5,"w":{"0":-0.0056998376471409234,"1":-0.0019894343005204315,"2":-0.003374585778022172,"3":-0.004813333362180547,"4":-0.17155058978816534}},{"sx":1,"sy":1,"depth":5,"w":{"0":-0.005640858098055348,"1":-0.001274241195400177,"2":-0.003078082292663323,"3":-0.004889613011091105,"4":-0.17125036730545853}},{"sx":1,"sy":1,"depth":5,"w":{"0":-0.0060164416961868555,"1":-0.0024081174495718667,"2":-0.0035252528359593395,"3":-0.00515819986103702,"4":-0.17158441610474737}},{"sx":1,"sy":1,"depth":5,"w":{"0":-0.006436862076596472,"1":-0.0010041803659941442,"2":-0.0025142502723900853,"3":-0.0053499404565152215,"4":-0.17206128643244437}},{"sx":1,"sy":1,"depth":5,"w":{"0":-0.006680067097817257,"1":-0.0004691394637593295,"2":-0.002585640901292441,"3":-0.005571239194185706,"4":-0.17245797675359484}},{"sx":1,"sy":1,"depth":5,"w":{"0":-0.008354133448155922,"1":-0.0031777577822879187,"2":-0.004713626732238428,"3":-0.0069051773339782845,"4":-0.1744305458703737}},{"sx":1,"sy":1,"depth":5,"w":{"0":-0.006756553809825235,"1":-0.0013743625374310648,"2":-0.003419655082528181,"3":-0.00559363327144002,"4":-0.17238427902730205}},{"sx":1,"sy":1,"depth":5,"w":{"0":-0.006158924561950307,"1":-0.0016516011242315957,"2":-0.003415555876960854,"3":-0.005290024874526962,"4":-0.171698080984225}},{"sx":1,"sy":1,"depth":5,"w":{"0":-0.002767626946996389,"1":0.0016781220609586676,"2":0.0007978896944390631,"3":-0.0018611414393808505,"4":-0.17196133911642}},{"sx":1,"sy":1,"depth":5,"w":{"0":-0.007012159046290412,"1":-0.0011745964011882157,"2":-0.0027597377223961927,"3":-0.005733911659700185,"4":-0.17265352497936967}},{"sx":1,"sy":1,"depth":5,"w":{"0":-0.0054865357306485285,"1":-0.00017288255335301496,"2":-0.0019589869010730168,"3":-0.004663948214462236,"4":-0.17109247564775582}},{"sx":1,"sy":1,"depth":5,"w":{"0":-0.004844510299015118,"1":-0.000042689891712486454,"2":-0.0015339548921427795,"3":-0.00394010344234537,"4":-0.17063362529099663}},{"sx":1,"sy":1,"depth":5,"w":{"0":-0.005391218003363988,"1":-0.0022690930474842967,"2":-0.0031470207960223014,"3":-0.004740648974035204,"4":-0.17101709955143674}},{"sx":1,"sy":1,"depth":5,"w":{"0":-0.003996258706488128,"1":-0.0019268972392963153,"2":-0.002481170643169108,"3":-0.0035129849800908703,"4":-0.17038715678673205}},{"sx":1,"sy":1,"depth":5,"w":{"0":-0.0028283845703253457,"1":0.00015034606798074905,"2":0.00020882537899859005,"3":-0.0020122106920565062,"4":-0.17098759684976372}},{"sx":1,"sy":1,"depth":5,"w":{"0":-0.006658949829808025,"1":-0.001027540086178774,"2":-0.0025190987259936515,"3":-0.005432639222274865,"4":-0.17237869701572076}},{"sx":1,"sy":1,"depth":5,"w":{"0":-0.0033766783702249463,"1":-0.0003447511810806221,"2":-0.0005995640144363403,"3":-0.002643623532407796,"4":-0.170234543560767}},{"sx":1,"sy":1,"depth":5,"w":{"0":-0.003932196028560276,"1":0.0005093271508338302,"2":-0.0008001903326951402,"3":-0.0031568189637939193,"4":-0.17013657111736452}},{"sx":1,"sy":1,"depth":5,"w":{"0":-0.00604494921355204,"1":-0.0019148237993715388,"2":-0.002839214006371891,"3":-0.004954132448827542,"4":-0.1716211039334055}},{"sx":1,"sy":1,"depth":5,"w":{"0":-0.005858982051340649,"1":-0.00039732091251692796,"2":-0.0022317008030309548,"3":-0.004951741879614726,"4":-0.17150197943109316}},{"sx":1,"sy":1,"depth":5,"w":{"0":-0.00510932232358919,"1":-0.0011009912577781913,"2":-0.0028420897749963925,"3":-0.004442682799741579,"4":-0.17070155648825974}},{"sx":1,"sy":1,"depth":5,"w":{"0":-0.005753554392751718,"1":-0.0018337598512703362,"2":-0.0027042476002303952,"3":-0.0047270903141068315,"4":-0.17132459899420188}},{"sx":1,"sy":1,"depth":5,"w":{"0":-0.007128990815346734,"1":-0.0014739829693957225,"2":-0.0034488839335992338,"3":-0.005822574147294861,"4":-0.1726394215613696}},{"sx":1,"sy":1,"depth":5,"w":{"0":-0.005267614383330689,"1":0.00022615528616120933,"2":-0.0013258274740901384,"3":-0.004271971007920579,"4":-0.1709538195719964}},{"sx":1,"sy":1,"depth":5,"w":{"0":-0.00441800851075256,"1":-0.00022059012202015516,"2":-0.0012770402527126526,"3":-0.0036323772670421436,"4":-0.17042663721898307}},{"sx":1,"sy":1,"depth":5,"w":{"0":-0.004920853511935881,"1":-0.0004927544535231975,"2":-0.0017141837572277041,"3":-0.004049167025043937,"4":-0.17068107650599434}},{"sx":1,"sy":1,"depth":5,"w":{"0":-0.006525500949596603,"1":-0.002283646696242433,"2":-0.003179861528249062,"3":-0.005423238238760193,"4":-0.17211342170747518}},{"sx":1,"sy":1,"depth":5,"w":{"0":-0.0037717409348743264,"1":-0.0017851452998934054,"2":-0.0023066448277505895,"3":-0.0034780355649561044,"4":-0.17026867190624417}},{"sx":1,"sy":1,"depth":5,"w":{"0":-0.0031881005016776865,"1":-0.000040954483000361984,"2":0.00006242320661916908,"3":-0.0022735097720068577,"4":-0.1708901940874013}},{"sx":1,"sy":1,"depth":5,"w":{"0":-0.0037988267452675737,"1":-0.0006044436201649868,"2":-0.000758925433301219,"3":-0.0029767925221814906,"4":-0.1701202268373624}},{"sx":1,"sy":1,"depth":5,"w":{"0":-0.00780608804063204,"1":-0.0027037398748563455,"2":-0.004112423341961003,"3":-0.006366971402637842,"4":-0.17369238473912435}},{"sx":1,"sy":1,"depth":5,"w":{"0":-0.0056007827651820335,"1":-0.0003290206138489703,"2":-0.002060851631095975,"3":-0.00476483855820923,"4":-0.17125171257878763}},{"sx":1,"sy":1,"depth":5,"w":{"0":-0.0075904458278209614,"1":-0.0016223758917909767,"2":-0.0038324821824780963,"3":-0.006181395430477544,"4":-0.1732392483417477}},{"sx":1,"sy":1,"depth":5,"w":{"0":-0.007331318648635158,"1":-0.0026449983306673875,"2":-0.003961894604411535,"3":-0.005995476593192488,"4":-0.17299614268617694}},{"sx":1,"sy":1,"depth":5,"w":{"0":-0.0028909821054820383,"1":0.0012399175931931041,"2":0.00044411002135615486,"3":-0.0017945791702077656,"4":-0.1714951366254129}},{"sx":1,"sy":1,"depth":5,"w":{"0":-0.006945383748228725,"1":-0.0010685356285227096,"2":-0.0031194378373298995,"3":-0.005606849858618862,"4":-0.1724207547104734}},{"sx":1,"sy":1,"depth":5,"w":{"0":-0.005045836767905457,"1":-0.001979909717767671,"2":-0.003047795880696436,"3":-0.004395262732011775,"4":-0.17087869291355662}},{"sx":1,"sy":1,"depth":5,"w":{"0":-0.005408987052929304,"1":-0.0018175039389328644,"2":-0.003180222258827089,"3":-0.004700161036488366,"4":-0.170965118352013}},{"sx":1,"sy":1,"depth":5,"w":{"0":-0.0029762264214939754,"1":0.0011702116012722885,"2":0.0006124987042584818,"3":-0.002098789762630719,"4":-0.1709798403347423}},{"sx":1,"sy":1,"depth":5,"w":{"0":-0.003221138870263247,"1":-0.0000192943282687054,"2":-0.00003810601757406112,"3":-0.0023678337292923823,"4":-0.170600773727715}},{"sx":1,"sy":1,"depth":5,"w":{"0":-0.0029144263642432167,"1":0.00007388830044658778,"2":0.0000765149468106882,"3":-0.0021308878055769803,"4":-0.1706236477866436}},{"sx":1,"sy":1,"depth":5,"w":{"0":-0.0038710415651277428,"1":0.0004285608984879925,"2":-0.0011652338368034892,"3":-0.0034888752902255994,"4":-0.1702885505807539}},{"sx":1,"sy":1,"depth":5,"w":{"0":-0.00582802000884787,"1":-0.0004328851432164268,"2":-0.0020972089494694195,"3":-0.004826226026054443,"4":-0.171335040316364}},{"sx":1,"sy":1,"depth":5,"w":{"0":-0.005723756031442635,"1":-0.0003975851595435654,"2":-0.002087667824954497,"3":-0.004887460492202638,"4":-0.17134671399265167}},{"sx":1,"sy":1,"depth":5,"w":{"0":-0.004971005941049696,"1":-0.0013848520194900866,"2":-0.001774031362859128,"3":-0.004040535674368807,"4":-0.17069284499209778}},{"sx":1,"sy":1,"depth":5,"w":{"0":-0.0034549309696612802,"1":-0.0004141511522690448,"2":-0.0006991597024748654,"3":-0.0027112989726424765,"4":-0.17016072765845996}},{"sx":1,"sy":1,"depth":5,"w":{"0":-0.003263441227531411,"1":-0.00029296480250012115,"2":-0.000320322766839748,"3":-0.0025125545286297044,"4":-0.1702804386463957}},{"sx":1,"sy":1,"depth":5,"w":{"0":-0.004649021867484962,"1":0.00048430162209134363,"2":-0.0009116170288901051,"3":-0.0037473583538849024,"4":-0.1705101322165304}},{"sx":1,"sy":1,"depth":5,"w":{"0":-0.002825333945392314,"1":0.001308504976653763,"2":0.00043625233236714925,"3":-0.0020145435993005317,"4":-0.17124835267212155}},{"sx":1,"sy":1,"depth":5,"w":{"0":-0.006255725018497818,"1":-0.0006741137417614295,"2":-0.002372920053180949,"3":-0.005192812961483318,"4":-0.17182677959239834}},{"sx":1,"sy":1,"depth":5,"w":{"0":-0.0028114588381621527,"1":0.0010663071618286597,"2":0.0007278975316316137,"3":-0.0018529859162681947,"4":-0.17197485580391936}},{"sx":1,"sy":1,"depth":5,"w":{"0":-0.003703823558178139,"1":0.000299082879100015,"2":-0.0010476954051821027,"3":-0.0033561651956839234,"4":-0.17027585795532255}},{"sx":1,"sy":1,"depth":5,"w":{"0":-0.0027823304462473745,"1":-0.00000685415416160583,"2":0.0002067447158633326,"3":-0.0020258493937966096,"4":-0.1710105336066881}},{"sx":1,"sy":1,"depth":5,"w":{"0":-0.005934643625387403,"1":-0.0003184243391099852,"2":-0.002186961721668085,"3":-0.005041382525667798,"4":-0.17159936871733222}},{"sx":1,"sy":1,"depth":5,"w":{"0":-0.0031369259821080473,"1":0.000020894281851764184,"2":-0.00007474653475723989,"3":-0.002376553844903919,"4":-0.1707221850184646}},{"sx":1,"sy":1,"depth":5,"w":{"0":-0.00324909960220784,"1":0.0010398899131612571,"2":0.00015806783005152623,"3":-0.002297491020261511,"4":-0.17077236799750958}},{"sx":1,"sy":1,"depth":5,"w":{"0":-0.006335786079971966,"1":-0.0014295320837346458,"2":-0.0033977814076992553,"3":-0.005459066087536351,"4":-0.17201172342841214}},{"sx":1,"sy":1,"depth":5,"w":{"0":-0.0033075221678046532,"1":0.0009343746045875297,"2":-0.00017448996853998162,"3":-0.0025227573044491174,"4":-0.17047156844638633}},{"sx":1,"sy":1,"depth":5,"w":{"0":-0.005946611150218266,"1":-0.0020156851365837995,"2":-0.0027437780990071125,"3":-0.004886198892720468,"4":-0.17154780167811906}},{"sx":1,"sy":1,"depth":5,"w":{"0":-0.006527367090276858,"1":-0.0006701758211395206,"2":-0.002240829900133543,"3":-0.005259426300248511,"4":-0.17230869239800908}},{"sx":1,"sy":1,"depth":5,"w":{"0":-0.005321390234380484,"1":-0.0018536898033030059,"2":-0.0030719519288440592,"3":-0.00465350082887904,"4":-0.17090979876265025}},{"sx":1,"sy":1,"depth":5,"w":{"0":-0.0033582214167167737,"1":-0.00013361497249337272,"2":-0.00024060304564032034,"3":-0.002583333852018598,"4":-0.1703642297116831}},{"sx":1,"sy":1,"depth":5,"w":{"0":-0.002992069614402651,"1":0.000020689562379326,"2":0.000013594000746943759,"3":-0.0022713548720627442,"4":-0.17066754283391575}},{"sx":1,"sy":1,"depth":5,"w":{"0":-0.0038435264906502326,"1":-0.000819835850947219,"2":-0.0010709161385045161,"3":-0.0031241856470722957,"4":-0.17019991895062722}},{"sx":1,"sy":1,"depth":5,"w":{"0":-0.005644040017300083,"1":-0.0003046936539087158,"2":-0.001976986135411862,"3":-0.004749142440198991,"4":-0.1712260144967659}},{"sx":1,"sy":1,"depth":5,"w":{"0":-0.005773715444571635,"1":-0.000597314437425846,"2":-0.0023373751482086485,"3":-0.004748080307445555,"4":-0.17136247068507088}},{"sx":1,"sy":1,"depth":5,"w":{"0":-0.00593023779378112,"1":-0.0015444564440716146,"2":-0.003249942949095451,"3":-0.005109324693107099,"4":-0.171451030584083}},{"sx":1,"sy":1,"depth":5,"w":{"0":-0.004074172315850954,"1":0.00023279008552034392,"2":-0.0013115633495837994,"3":-0.0036445969612270983,"4":-0.17027564563288583}},{"sx":1,"sy":1,"depth":5,"w":{"0":-0.0038580937818320986,"1":0.0003898281494729111,"2":-0.0011919073802830493,"3":-0.003470374358985686,"4":-0.17026523850997766}},{"sx":1,"sy":1,"depth":5,"w":{"0":-0.005014703028891091,"1":-0.001158751440697821,"2":-0.0027305022060926227,"3":-0.0043245059701408515,"4":-0.17092758664206673}},{"sx":1,"sy":1,"depth":5,"w":{"0":-0.0029718707976436687,"1":0.0014583681842555182,"2":0.0007594054639946269,"3":-0.0020808783415600385,"4":-0.17149006457434418}},{"sx":1,"sy":1,"depth":5,"w":{"0":-0.007591098940765979,"1":-0.0028227119439027653,"2":-0.00432222091407643,"3":-0.006373494171540029,"4":-0.17325456510068984}},{"sx":1,"sy":1,"depth":5,"w":{"0":-0.005251353673257844,"1":-0.000008108205715878954,"2":-0.001376848489677671,"3":-0.004298537072224524,"4":-0.17092664885136669}},{"sx":1,"sy":1,"depth":5,"w":{"0":-0.0065819636772233014,"1":-0.0014026730614839053,"2":-0.0033845170267545856,"3":-0.005544853615704207,"4":-0.1721305150853012}},{"sx":1,"sy":1,"depth":5,"w":{"0":-0.0058397413143202286,"1":-0.00021860895783811646,"2":-0.0020860626788726257,"3":-0.00491731177231947,"4":-0.17139546763658106}},{"sx":1,"sy":1,"depth":5,"w":{"0":-0.004205761471111498,"1":-0.00032596186106066444,"2":-0.001052768545174739,"3":-0.0032696650231720205,"4":-0.17059588699320058}},{"sx":1,"sy":1,"depth":5,"w":{"0":-0.006476468853362132,"1":-0.0021096923174324864,"2":-0.00318341885734189,"3":-0.005359864613880199,"4":-0.17194159551804805}},{"sx":1,"sy":1,"depth":5,"w":{"0":-0.0033003345168328953,"1":-0.0002912345018673422,"2":-0.0002023337727057664,"3":-0.0023804121636636357,"4":-0.170433477091806}},{"sx":1,"sy":1,"depth":5,"w":{"0":-0.004660926436846025,"1":-0.0019034785821327273,"2":-0.0025457085867079,"3":-0.004118712731073156,"4":-0.17052936527903487}},{"sx":1,"sy":1,"depth":5,"w":{"0":-0.003096880934607015,"1":0.0011083605610382658,"2":0.00041967605831091936,"3":-0.002217128891149258,"4":-0.17131395399264826}},{"sx":1,"sy":1,"depth":5,"w":{"0":-0.0042450116962117835,"1":0.0002530972518867171,"2":-0.0013005424722283116,"3":-0.0037517410888061463,"4":-0.17036617788203987}},{"sx":1,"sy":1,"depth":5,"w":{"0":-0.0051140549532874046,"1":-0.0001316019394536948,"2":-0.0017732226835119676,"3":-0.00420353617275246,"4":-0.1708390717236146}},{"sx":1,"sy":1,"depth":5,"w":{"0":-0.004127357096821995,"1":-0.0009456395373563328,"2":-0.0013496972539877039,"3":-0.003353578494251927,"4":-0.17026268682623005}},{"sx":1,"sy":1,"depth":5,"w":{"0":-0.004963719986018367,"1":-0.000266502098086725,"2":-0.0017531802387807166,"3":-0.004072716487020145,"4":-0.17070510165735203}},{"sx":1,"sy":1,"depth":5,"w":{"0":-0.003314937504112358,"1":-0.0001936565179957012,"2":-0.00039865085328580655,"3":-0.002555526284147943,"4":-0.17046269234109}},{"sx":1,"sy":1,"depth":5,"w":{"0":-0.0031367740740215677,"1":0.00009207447774438977,"2":0.00007486309868941828,"3":-0.002300721036102356,"4":-0.17082117920774204}},{"sx":1,"sy":1,"depth":5,"w":{"0":-0.005802462553100054,"1":-0.00007796895822203198,"2":-0.0018284918670516141,"3":-0.004769901668950053,"4":-0.1713847372495756}},{"sx":1,"sy":1,"depth":5,"w":{"0":-0.003426274650870407,"1":0.0009676002010445117,"2":0.0000308091373607813,"3":-0.002647717424788371,"4":-0.17034377439691364}},{"sx":1,"sy":1,"depth":5,"w":{"0":-0.0027869649489658185,"1":0.000535367128362482,"2":0.00031519408886930556,"3":-0.0020230078354179495,"4":-0.17090553389430227}},{"sx":1,"sy":1,"depth":5,"w":{"0":-0.006805877264439259,"1":-0.0012354047829986718,"2":-0.0027601671716897596,"3":-0.005532148031620877,"4":-0.17296588463742305}},{"sx":1,"sy":1,"depth":5,"w":{"0":-0.003403670695462594,"1":0.0011897811723887279,"2":0.00030609937093690944,"3":-0.002392092226491646,"4":-0.1708407817986615}},{"sx":1,"sy":1,"depth":5,"w":{"0":-0.006149319362290611,"1":-0.0019807501692484042,"2":-0.0035480016956929202,"3":-0.005268868883451577,"4":-0.17166422572421475}},{"sx":1,"sy":1,"depth":5,"w":{"0":-0.0028003212113540425,"1":0.0014241036359107376,"2":0.0007138302158436905,"3":-0.0019666570910691307,"4":-0.1716608413702989}},{"sx":1,"sy":1,"depth":5,"w":{"0":-0.00652208170268102,"1":-0.0014617342415376821,"2":-0.0034240993218886684,"3":-0.005524588184003779,"4":-0.17215190023101656}},{"sx":1,"sy":1,"depth":5,"w":{"0":-0.0026598227175726012,"1":0.00025803991480884136,"2":0.000390840855041371,"3":-0.0018744660526874837,"4":-0.17133194711638672}},{"sx":1,"sy":1,"depth":5,"w":{"0":-0.0029828604882954452,"1":0.0004324408402485249,"2":0.00024466738785989314,"3":-0.002298338702181846,"4":-0.17084078594136223}},{"sx":1,"sy":1,"depth":5,"w":{"0":-0.004743251336368557,"1":-0.0021518390485057,"2":-0.002941865349898257,"3":-0.003973557634928075,"4":-0.17107691037416095}},{"sx":1,"sy":1,"depth":5,"w":{"0":-0.0067299774142576055,"1":-0.0014819075597921883,"2":-0.0034106766778572288,"3":-0.0056172792270899885,"4":-0.17231442406846376}},{"sx":1,"sy":1,"depth":5,"w":{"0":-0.006345877804982945,"1":-0.0013776505547142817,"2":-0.003295661835968031,"3":-0.0053376909110915225,"4":-0.17192273610450684}},{"sx":1,"sy":1,"depth":5,"w":{"0":-0.006500266681787121,"1":-0.0014639196619780329,"2":-0.003338789978864129,"3":-0.005481600449969962,"4":-0.1721286006059178}},{"sx":1,"sy":1,"depth":5,"w":{"0":-0.0028516071603499433,"1":-0.0000609021239044512,"2":-0.000012757772563290644,"3":-0.0021918410350895206,"4":-0.17062065028823273}},{"sx":1,"sy":1,"depth":5,"w":{"0":-0.004293027281076751,"1":0.00009509814962109639,"2":-0.0014186987636568994,"3":-0.0037572063012827157,"4":-0.17034745437289422}},{"sx":1,"sy":1,"depth":5,"w":{"0":-0.0035761981486648596,"1":-0.0004141067643390434,"2":-0.00060925948906802,"3":-0.0027290949856102636,"4":-0.17035462670022408}},{"sx":1,"sy":1,"depth":5,"w":{"0":-0.005864703458922328,"1":-0.0013213284330900418,"2":-0.003284059567131861,"3":-0.005051279830958739,"4":-0.1715004518951228}},{"sx":1,"sy":1,"depth":5,"w":{"0":-0.007866599733762681,"1":-0.0019862457850445547,"2":-0.003985018490248669,"3":-0.006485036092822825,"4":-0.17389163031792967}},{"sx":1,"sy":1,"depth":5,"w":{"0":-0.005234687110362577,"1":-0.0023650489104452533,"2":-0.002965699120254621,"3":-0.004546630688078201,"4":-0.17090966534413973}},{"sx":1,"sy":1,"depth":5,"w":{"0":-0.007917050713309887,"1":-0.003106175695988591,"2":-0.004449149540031999,"3":-0.006411748780696773,"4":-0.1740661098345199}},{"sx":1,"sy":1,"depth":5,"w":{"0":-0.0027541106617003765,"1":0.00019445820709728854,"2":0.00024106223424907522,"3":-0.0019714500733136664,"4":-0.1711961457794863}},{"sx":1,"sy":1,"depth":5,"w":{"0":-0.005985168218931637,"1":-0.0008475206486944494,"2":-0.0025251630526843035,"3":-0.004919105224712647,"4":-0.17157849280537887}},{"sx":1,"sy":1,"depth":5,"w":{"0":-0.007493442293676374,"1":-0.0022119275323437084,"2":-0.003913335999149934,"3":-0.0061058216763441205,"4":-0.17320407451776432}},{"sx":1,"sy":1,"depth":5,"w":{"0":-0.0030409812975838767,"1":0.0001594202358986222,"2":0.0002404904120155136,"3":-0.002152332469478423,"4":-0.17117893808789875}},{"sx":1,"sy":1,"depth":5,"w":{"0":-0.0035661282091624634,"1":0.00034274687711497104,"2":-0.0009766415108646077,"3":-0.0032540760382815436,"4":-0.17034030709069692}},{"sx":1,"sy":1,"depth":5,"w":{"0":-0.007127510115140401,"1":-0.0006045004969824478,"2":-0.0026646832776993533,"3":-0.005790822769019248,"4":-0.17296701373228568}},{"sx":1,"sy":1,"depth":5,"w":{"0":-0.005394767004951,"1":-0.0014584230768711444,"2":-0.002958663700401932,"3":-0.004628312561187003,"4":-0.1709991509381252}},{"sx":1,"sy":1,"depth":5,"w":{"0":-0.006232414702333945,"1":-0.001498105636730947,"2":-0.003216472502198619,"3":-0.005269185800585036,"4":-0.1718872935915397}},{"sx":1,"sy":1,"depth":5,"w":{"0":-0.002997876187578197,"1":0.00023967148486465657,"2":0.00032079563530871364,"3":-0.0022019674529419426,"4":-0.17125207179498184}},{"sx":1,"sy":1,"depth":5,"w":{"0":-0.0037526522545588696,"1":-0.0008533951478282337,"2":-0.0008284540168625942,"3":-0.0028907818937039123,"4":-0.17030286295029942}},{"sx":1,"sy":1,"depth":5,"w":{"0":-0.0039534761740118805,"1":-0.0009976019916815501,"2":-0.00147423949308351,"3":-0.0031545595768325443,"4":-0.1703260717585607}},{"sx":1,"sy":1,"depth":5,"w":{"0":-0.005972364807966077,"1":-0.0013722226766207973,"2":-0.0031227338761130054,"3":-0.005110175601914128,"4":-0.17165411974341344}},{"sx":1,"sy":1,"depth":5,"w":{"0":-0.004611286945965288,"1":-0.0011600726019162866,"2":-0.0014526951422046386,"3":-0.0037284767303876246,"4":-0.17041945806135536}},{"sx":1,"sy":1,"depth":5,"w":{"0":-0.0027751910035064995,"1":0.00160138599033467,"2":0.0009097761923761039,"3":-0.0018588144126185317,"4":-0.17173465163139873}},{"sx":1,"sy":1,"depth":5,"w":{"0":-0.0029487728674283953,"1":0.0011689481357791127,"2":0.0005038793253897356,"3":-0.002296205152526658,"4":-0.17110865292365107}},{"sx":1,"sy":1,"depth":5,"w":{"0":-0.004723366356016804,"1":-0.000978828695890667,"2":-0.0016388090412443157,"3":-0.0038930794533476422,"4":-0.17052310476422838}},{"sx":1,"sy":1,"depth":5,"w":{"0":-0.0029795222672867622,"1":0.00004151015573457392,"2":-0.00003297686023297306,"3":-0.002265523398971452,"4":-0.17053536054470833}},{"sx":1,"sy":1,"depth":5,"w":{"0":-0.0065272221319715145,"1":-0.002595708989152373,"2":-0.00365754125408083,"3":-0.00560205400601743,"4":-0.17214905786391313}},{"sx":1,"sy":1,"depth":5,"w":{"0":-0.0031284549023578587,"1":0.0001473223020708207,"2":0.00009677625442419896,"3":-0.0022038337077579778,"4":-0.17098930180436203}},{"sx":1,"sy":1,"depth":5,"w":{"0":-0.0030185445378794603,"1":0.0011235736889209304,"2":0.0005812574515688925,"3":-0.0022106384332444247,"4":-0.17113164354656069}},{"sx":1,"sy":1,"depth":5,"w":{"0":-0.003355840447446079,"1":-0.0005038009654946403,"2":-0.000515521954614868,"3":-0.002668630480850926,"4":-0.17037624610350333}},{"sx":1,"sy":1,"depth":5,"w":{"0":-0.007809827330623396,"1":-0.0030629733323051874,"2":-0.004449266884839297,"3":-0.0064422979527411686,"4":-0.17351962883633426}},{"sx":1,"sy":1,"depth":5,"w":{"0":-0.0030055507719735693,"1":0.0013295839552463387,"2":0.0007025799831003876,"3":-0.0021354476676643747,"4":-0.17156604971279873}},{"sx":1,"sy":1,"depth":5,"w":{"0":-0.0029612812095568004,"1":0.0010355439329851083,"2":0.0007650010563651924,"3":-0.0020072463193965906,"4":-0.1717706353688183}},{"sx":1,"sy":1,"depth":5,"w":{"0":-0.008202761872822758,"1":-0.001893923799721291,"2":-0.004145935062684986,"3":-0.006678755211690006,"4":-0.17408084221470457}},{"sx":1,"sy":1,"depth":5,"w":{"0":-0.0028525990920112605,"1":0.0012637361230995164,"2":0.0006054243850918718,"3":-0.0022225396861513982,"4":-0.17045451747833915}},{"sx":1,"sy":1,"depth":5,"w":{"0":-0.0053470916412498,"1":-0.0022162206285822723,"2":-0.002926754824159055,"3":-0.004603025698322813,"4":-0.17096285526801172}},{"sx":1,"sy":1,"depth":5,"w":{"0":-0.0029296411754255727,"1":0.00009718956742069086,"2":0.00007274125130442548,"3":-0.0021894078764039373,"4":-0.17099839471154715}},{"sx":1,"sy":1,"depth":5,"w":{"0":-0.006869211235536719,"1":-0.0015312602334242517,"2":-0.0036734015864337546,"3":-0.005835424282312084,"4":-0.17267049120201697}},{"sx":1,"sy":1,"depth":5,"w":{"0":-0.003465132762488884,"1":0.0006678304479393101,"2":-0.0005221438016428104,"3":-0.0027706693120250394,"4":-0.16999388973195104}},{"sx":1,"sy":1,"depth":5,"w":{"0":-0.0030328768308426146,"1":-0.00014097407226001685,"2":-0.00005635425736912449,"3":-0.0022352041626372454,"4":-0.17043196377996542}},{"sx":1,"sy":1,"depth":5,"w":{"0":-0.005906665919158146,"1":-0.0017293088675410658,"2":-0.002732340040472463,"3":-0.0048642399712587655,"4":-0.17149736190641526}},{"sx":1,"sy":1,"depth":5,"w":{"0":-0.004368526902184859,"1":-0.0011920110064982349,"2":-0.0016111020813403996,"3":-0.0035947299532410664,"4":-0.17032403817388525}},